// Neural Network File Format by Kyle Julian, Stanford 2016
4,128,1,128,
128,32,16,16,1,
0,
0.0,0.0,0.0,0.0,0.0,0.0,0.0,0.0,0.0,0.0,0.0,0.0,0.0,0.0,0.0,0.0,0.0,0.0,0.0,0.0,0.0,0.0,0.0,0.0,0.0,0.0,0.0,0.0,0.0,0.0,0.0,0.0,0.0,0.0,0.0,0.0,0.0,0.0,0.0,0.0,0.0,0.0,0.0,0.0,0.0,0.0,0.0,0.0,0.0,0.0,0.0,0.0,0.0,0.0,0.0,0.0,0.0,0.0,0.0,0.0,0.0,0.0,0.0,0.0,0.0,0.0,0.0,0.0,0.0,0.0,0.0,0.0,0.0,0.0,0.0,0.0,0.0,0.0,0.0,0.0,0.0,0.0,0.0,0.0,0.0,0.0,0.0,0.0,0.0,0.0,0.0,0.0,0.0,0.0,0.0,0.0,0.0,0.0,0.0,0.0,0.0,0.0,0.0,0.0,0.0,0.0,0.0,0.0,0.0,0.0,0.0,0.0,0.0,0.0,0.0,0.0,0.0,0.0,0.0,0.0,0.0,0.0,0.0,0.0,0.0,0.0,0.0,0.0,
1.0,1.0,1.0,1.0,1.0,1.0,1.0,1.0,1.0,1.0,1.0,1.0,1.0,1.0,1.0,1.0,1.0,1.0,1.0,1.0,1.0,1.0,1.0,1.0,1.0,1.0,1.0,1.0,1.0,1.0,1.0,1.0,1.0,1.0,1.0,1.0,1.0,1.0,1.0,1.0,1.0,1.0,1.0,1.0,1.0,1.0,1.0,1.0,1.0,1.0,1.0,1.0,1.0,1.0,1.0,1.0,1.0,1.0,1.0,1.0,1.0,1.0,1.0,1.0,1.0,1.0,1.0,1.0,1.0,1.0,1.0,1.0,1.0,1.0,1.0,1.0,1.0,1.0,1.0,1.0,1.0,1.0,1.0,1.0,1.0,1.0,1.0,1.0,1.0,1.0,1.0,1.0,1.0,1.0,1.0,1.0,1.0,1.0,1.0,1.0,1.0,1.0,1.0,1.0,1.0,1.0,1.0,1.0,1.0,1.0,1.0,1.0,1.0,1.0,1.0,1.0,1.0,1.0,1.0,1.0,1.0,1.0,1.0,1.0,1.0,1.0,1.0,1.0,
0.0,0.0,0.0,0.0,0.0,0.0,0.0,0.0,0.0,0.0,0.0,0.0,0.0,0.0,0.0,0.0,0.0,0.0,0.0,0.0,0.0,0.0,0.0,0.0,0.0,0.0,0.0,0.0,0.0,0.0,0.0,0.0,0.0,0.0,0.0,0.0,0.0,0.0,0.0,0.0,0.0,0.0,0.0,0.0,0.0,0.0,0.0,0.0,0.0,0.0,0.0,0.0,0.0,0.0,0.0,0.0,0.0,0.0,0.0,0.0,0.0,0.0,0.0,0.0,0.0,0.0,0.0,0.0,0.0,0.0,0.0,0.0,0.0,0.0,0.0,0.0,0.0,0.0,0.0,0.0,0.0,0.0,0.0,0.0,0.0,0.0,0.0,0.0,0.0,0.0,0.0,0.0,0.0,0.0,0.0,0.0,0.0,0.0,0.0,0.0,0.0,0.0,0.0,0.0,0.0,0.0,0.0,0.0,0.0,0.0,0.0,0.0,0.0,0.0,0.0,0.0,0.0,0.0,0.0,0.0,0.0,0.0,0.0,0.0,0.0,0.0,0.0,0.0,0.0,
1.0,1.0,1.0,1.0,1.0,1.0,1.0,1.0,1.0,1.0,1.0,1.0,1.0,1.0,1.0,1.0,1.0,1.0,1.0,1.0,1.0,1.0,1.0,1.0,1.0,1.0,1.0,1.0,1.0,1.0,1.0,1.0,1.0,1.0,1.0,1.0,1.0,1.0,1.0,1.0,1.0,1.0,1.0,1.0,1.0,1.0,1.0,1.0,1.0,1.0,1.0,1.0,1.0,1.0,1.0,1.0,1.0,1.0,1.0,1.0,1.0,1.0,1.0,1.0,1.0,1.0,1.0,1.0,1.0,1.0,1.0,1.0,1.0,1.0,1.0,1.0,1.0,1.0,1.0,1.0,1.0,1.0,1.0,1.0,1.0,1.0,1.0,1.0,1.0,1.0,1.0,1.0,1.0,1.0,1.0,1.0,1.0,1.0,1.0,1.0,1.0,1.0,1.0,1.0,1.0,1.0,1.0,1.0,1.0,1.0,1.0,1.0,1.0,1.0,1.0,1.0,1.0,1.0,1.0,1.0,1.0,1.0,1.0,1.0,1.0,1.0,1.0,1.0,1.0,
5.08041e-02,6.17430e-02,-6.32821e-02,4.39828e-02,-1.96432e-03,-1.99365e-02,-3.45720e-02,-7.40747e-03,0.00000e+00,0.00000e+00,0.00000e+00,0.00000e+00,0.00000e+00,0.00000e+00,0.00000e+00,0.00000e+00,3.35142e-02,5.28324e-02,5.58346e-02,6.32555e-02,2.18612e-02,-6.86976e-02,-6.19876e-02,1.13962e-02,0.00000e+00,0.00000e+00,0.00000e+00,0.00000e+00,0.00000e+00,0.00000e+00,0.00000e+00,0.00000e+00,5.75090e-03,-5.44825e-02,-6.80426e-02,2.19360e-02,-4.75261e-02,-3.96931e-02,-7.03050e-02,-7.22641e-02,0.00000e+00,0.00000e+00,0.00000e+00,0.00000e+00,0.00000e+00,0.00000e+00,0.00000e+00,0.00000e+00,-4.85427e-02,-4.42228e-02,2.87357e-02,-4.46158e-02,2.48725e-02,4.10249e-02,-5.07892e-03,8.64355e-03,0.00000e+00,0.00000e+00,0.00000e+00,0.00000e+00,0.00000e+00,0.00000e+00,0.00000e+00,0.00000e+00,-2.13035e-02,-3.58374e-02,5.67326e-02,-3.75007e-02,6.61393e-02,3.67863e-02,-2.18931e-02,-3.04866e-02,0.00000e+00,0.00000e+00,0.00000e+00,0.00000e+00,0.00000e+00,0.00000e+00,0.00000e+00,0.00000e+00,-2.56408e-02,9.70053e-03,-3.82597e-02,-5.08959e-02,-1.03582e-02,-1.56834e-02,6.93514e-02,3.24817e-02,0.00000e+00,0.00000e+00,0.00000e+00,0.00000e+00,0.00000e+00,0.00000e+00,0.00000e+00,0.00000e+00,1.47790e-02,-3.01024e-02,-5.19038e-02,-6.00845e-02,-4.02756e-02,-1.12087e-02,-6.69900e-02,-7.10064e-02,0.00000e+00,0.00000e+00,0.00000e+00,0.00000e+00,0.00000e+00,0.00000e+00,0.00000e+00,0.00000e+00,-5.07179e-02,4.33446e-02,7.02497e-02,-7.25926e-02,4.82195e-02,-1.79459e-02,-6.44175e-02,-6.33677e-03,0.00000e+00,0.00000e+00,0.00000e+00,0.00000e+00,0.00000e+00,0.00000e+00,0.00000e+00,0.00000e+00,
-2.59518e-01,-1.41798e-01,2.47733e-01,2.22508e-01,-5.50406e-02,-8.90600e-02,1.33851e-01,-9.04165e-01,0.00000e+00,0.00000e+00,0.00000e+00,0.00000e+00,0.00000e+00,0.00000e+00,0.00000e+00,0.00000e+00,6.49310e-01,6.98517e-01,6.54843e-01,4.14886e-01,8.25455e-02,6.22458e-01,1.07395e+00,2.06436e-01,0.00000e+00,0.00000e+00,0.00000e+00,0.00000e+00,0.00000e+00,0.00000e+00,0.00000e+00,0.00000e+00,2.97963e-01,8.01154e-02,6.20764e-02,2.28171e-01,3.51903e-02,-1.93230e-01,1.41102e-01,6.13831e-01,0.00000e+00,0.00000e+00,0.00000e+00,0.00000e+00,0.00000e+00,0.00000e+00,0.00000e+00,0.00000e+00,3.15770e-01,1.59862e-01,2.25644e-01,3.83585e-01,2.55149e-01,1.31956e-01,-1.88272e-01,-1.06205e-01,0.00000e+00,0.00000e+00,0.00000e+00,0.00000e+00,0.00000e+00,0.00000e+00,0.00000e+00,0.00000e+00,3.62505e-01,1.34139e-01,2.74614e-01,9.97254e-02,-3.78357e-02,1.20147e-03,-5.12258e-02,-2.32816e-01,0.00000e+00,0.00000e+00,0.00000e+00,0.00000e+00,0.00000e+00,0.00000e+00,0.00000e+00,0.00000e+00,2.45950e-01,9.03645e-02,-1.33452e-02,5.12654e-03,4.93196e-02,-2.24748e-04,-2.83531e-02,4.30030e-03,0.00000e+00,0.00000e+00,0.00000e+00,0.00000e+00,0.00000e+00,0.00000e+00,0.00000e+00,0.00000e+00,1.07345e-01,-3.17695e-03,-3.91684e-02,8.12822e-02,-2.62988e-02,4.80872e-03,-5.54959e-02,-7.06793e-02,0.00000e+00,0.00000e+00,0.00000e+00,0.00000e+00,0.00000e+00,0.00000e+00,0.00000e+00,0.00000e+00,9.33583e-02,1.00011e-01,5.53029e-02,1.64591e-01,4.64697e-02,7.75592e-03,-5.36355e-02,-1.71088e-02,0.00000e+00,0.00000e+00,0.00000e+00,0.00000e+00,0.00000e+00,0.00000e+00,0.00000e+00,0.00000e+00,
-5.59852e-02,-6.78874e-02,-4.74252e-02,5.90447e-02,-6.28991e-02,-3.57713e-03,-2.03513e-02,-3.11858e-02,0.00000e+00,0.00000e+00,0.00000e+00,0.00000e+00,0.00000e+00,0.00000e+00,0.00000e+00,0.00000e+00,-5.83537e-02,6.20702e-02,-3.67403e-02,-6.51020e-02,4.11319e-02,6.19024e-04,-1.73313e-02,-7.38941e-02,0.00000e+00,0.00000e+00,0.00000e+00,0.00000e+00,0.00000e+00,0.00000e+00,0.00000e+00,0.00000e+00,-7.32019e-02,-1.63036e-02,9.16245e-03,-4.29049e-02,-7.03202e-02,4.27091e-02,-7.04823e-02,5.89510e-02,0.00000e+00,0.00000e+00,0.00000e+00,0.00000e+00,0.00000e+00,0.00000e+00,0.00000e+00,0.00000e+00,-3.68202e-02,4.84325e-02,2.43504e-02,-3.78482e-02,-2.95999e-02,-3.94023e-02,-2.05232e-02,-6.70640e-02,0.00000e+00,0.00000e+00,0.00000e+00,0.00000e+00,0.00000e+00,0.00000e+00,0.00000e+00,0.00000e+00,-5.74380e-02,1.58573e-03,-2.16966e-02,-1.96931e-02,-3.44399e-02,-6.90860e-02,3.56245e-02,-5.32220e-02,0.00000e+00,0.00000e+00,0.00000e+00,0.00000e+00,0.00000e+00,0.00000e+00,0.00000e+00,0.00000e+00,-6.27891e-03,-3.71641e-02,-5.24519e-02,5.24405e-02,5.76318e-02,-6.52880e-02,6.43860e-02,-1.94727e-02,0.00000e+00,0.00000e+00,0.00000e+00,0.00000e+00,0.00000e+00,0.00000e+00,0.00000e+00,0.00000e+00,-7.41469e-02,-6.08707e-02,5.64323e-02,2.43269e-04,2.99534e-02,5.53831e-02,2.99690e-02,-1.69552e-02,0.00000e+00,0.00000e+00,0.00000e+00,0.00000e+00,0.00000e+00,0.00000e+00,0.00000e+00,0.00000e+00,2.50849e-02,-5.66062e-02,-6.35745e-02,-2.90297e-04,-4.77331e-02,1.69641e-02,6.22629e-02,-4.12060e-02,0.00000e+00,0.00000e+00,0.00000e+00,0.00000e+00,0.00000e+00,0.00000e+00,0.00000e+00,0.00000e+00,
-8.38960e-01,-4.75833e-01,2.40836e-01,6.46578e-01,6.42293e-01,6.65705e-01,6.14735e-01,3.89864e-01,0.00000e+00,0.00000e+00,0.00000e+00,0.00000e+00,0.00000e+00,0.00000e+00,0.00000e+00,0.00000e+00,-1.45074e-01,-1.02101e-01,-3.33501e-02,-4.66467e-02,-2.53149e-03,2.40260e-01,-9.09101e-02,1.09445e-02,0.00000e+00,0.00000e+00,0.00000e+00,0.00000e+00,0.00000e+00,0.00000e+00,0.00000e+00,0.00000e+00,-4.33565e-01,1.52486e-01,-6.75067e-02,-2.55916e-01,-8.27340e-02,1.15218e-01,1.96314e-01,-9.04497e-02,0.00000e+00,0.00000e+00,0.00000e+00,0.00000e+00,0.00000e+00,0.00000e+00,0.00000e+00,0.00000e+00,-3.12579e-01,-1.12172e-01,7.53818e-02,-1.04169e-01,-4.63106e-02,-3.60514e-02,-2.74077e-02,-1.18359e-01,0.00000e+00,0.00000e+00,0.00000e+00,0.00000e+00,0.00000e+00,0.00000e+00,0.00000e+00,0.00000e+00,-2.41273e-01,-7.21659e-02,-2.42191e-02,6.93656e-02,8.76695e-02,-9.07282e-02,8.40778e-02,2.54176e-01,0.00000e+00,0.00000e+00,0.00000e+00,0.00000e+00,0.00000e+00,0.00000e+00,0.00000e+00,0.00000e+00,-1.43476e-01,7.28022e-02,4.53192e-02,-4.80332e-02,-1.57654e-02,-3.51422e-02,5.28157e-02,2.51898e-01,0.00000e+00,0.00000e+00,0.00000e+00,0.00000e+00,0.00000e+00,0.00000e+00,0.00000e+00,0.00000e+00,-6.08756e-02,4.11979e-02,-1.70954e-03,-5.85252e-02,6.85881e-02,3.59386e-02,6.54091e-02,2.55498e-01,0.00000e+00,0.00000e+00,0.00000e+00,0.00000e+00,0.00000e+00,0.00000e+00,0.00000e+00,0.00000e+00,-1.81440e-01,-8.11653e-02,4.56997e-02,4.76090e-02,1.46318e-01,8.96538e-02,1.56325e-01,1.52881e-01,0.00000e+00,0.00000e+00,0.00000e+00,0.00000e+00,0.00000e+00,0.00000e+00,0.00000e+00,0.00000e+00,
-3.91667e-02,5.60191e-02,-6.44271e-02,-2.75435e-02,2.30137e-02,5.78455e-02,-7.66302e-02,-5.34713e-02,0.00000e+00,0.00000e+00,0.00000e+00,0.00000e+00,0.00000e+00,0.00000e+00,0.00000e+00,0.00000e+00,1.46753e-02,1.07746e-02,3.39619e-02,-6.80303e-02,1.30372e-02,6.78483e-02,-1.36010e-02,-2.41531e-02,0.00000e+00,0.00000e+00,0.00000e+00,0.00000e+00,0.00000e+00,0.00000e+00,0.00000e+00,0.00000e+00,-3.12742e-02,1.87210e-02,-3.59632e-02,-2.57076e-02,3.27632e-02,-2.37142e-02,-1.54328e-03,5.00098e-02,0.00000e+00,0.00000e+00,0.00000e+00,0.00000e+00,0.00000e+00,0.00000e+00,0.00000e+00,0.00000e+00,1.07673e-02,-9.28122e-03,5.13516e-03,-1.36258e-02,-2.24821e-02,4.96542e-02,2.14501e-02,-3.65977e-02,0.00000e+00,0.00000e+00,0.00000e+00,0.00000e+00,0.00000e+00,0.00000e+00,0.00000e+00,0.00000e+00,2.49966e-02,-4.15655e-02,-4.40786e-02,-1.23228e-02,7.07795e-02,-2.27368e-02,6.87616e-02,4.23321e-02,0.00000e+00,0.00000e+00,0.00000e+00,0.00000e+00,0.00000e+00,0.00000e+00,0.00000e+00,0.00000e+00,-3.16767e-02,-7.68935e-02,2.07753e-02,1.08639e-02,-7.72370e-03,-1.48332e-02,-8.35118e-03,-7.30853e-02,0.00000e+00,0.00000e+00,0.00000e+00,0.00000e+00,0.00000e+00,0.00000e+00,0.00000e+00,0.00000e+00,3.30589e-02,-4.68570e-02,6.50570e-02,-4.32262e-02,-3.84102e-02,-5.22668e-02,4.36350e-02,8.77306e-04,0.00000e+00,0.00000e+00,0.00000e+00,0.00000e+00,0.00000e+00,0.00000e+00,0.00000e+00,0.00000e+00,-4.24756e-02,-2.38829e-02,1.78080e-02,-4.21062e-02,-3.37004e-02,-4.33415e-02,-3.90016e-02,2.26095e-02,0.00000e+00,0.00000e+00,0.00000e+00,0.00000e+00,0.00000e+00,0.00000e+00,0.00000e+00,0.00000e+00,
6.28382e-02,7.35743e-02,5.35639e-03,3.45277e-02,1.49707e-01,2.68611e-01,3.32835e-01,5.14044e-01,0.00000e+00,0.00000e+00,0.00000e+00,0.00000e+00,0.00000e+00,0.00000e+00,0.00000e+00,0.00000e+00,-6.60518e-01,-5.31220e-01,-4.80887e-01,-5.42545e-01,-1.91790e-01,-9.99499e-02,-4.99222e-01,-2.70269e-01,0.00000e+00,0.00000e+00,0.00000e+00,0.00000e+00,0.00000e+00,0.00000e+00,0.00000e+00,0.00000e+00,-2.71892e-01,-2.61422e-01,-2.24715e-01,-2.02517e-01,-1.76917e-01,-1.73166e-02,2.96178e-04,-4.16844e-02,0.00000e+00,0.00000e+00,0.00000e+00,0.00000e+00,0.00000e+00,0.00000e+00,0.00000e+00,0.00000e+00,-7.53790e-02,-9.85672e-02,8.80356e-02,-9.67057e-02,-5.64824e-02,-1.32650e-02,1.90611e-01,7.39412e-02,0.00000e+00,0.00000e+00,0.00000e+00,0.00000e+00,0.00000e+00,0.00000e+00,0.00000e+00,0.00000e+00,-1.16165e-01,4.87528e-02,-9.07040e-02,6.56484e-02,2.73741e-02,7.12184e-03,2.60569e-01,3.01721e-01,0.00000e+00,0.00000e+00,0.00000e+00,0.00000e+00,0.00000e+00,0.00000e+00,0.00000e+00,0.00000e+00,3.41184e-02,3.17954e-02,3.94051e-02,5.60578e-02,8.95859e-02,4.88057e-02,1.84933e-01,2.31792e-01,0.00000e+00,0.00000e+00,0.00000e+00,0.00000e+00,0.00000e+00,0.00000e+00,0.00000e+00,0.00000e+00,7.89031e-02,6.33680e-02,1.39148e-01,1.08310e-01,1.42151e-01,9.76571e-02,1.96530e-01,1.35466e-01,0.00000e+00,0.00000e+00,0.00000e+00,0.00000e+00,0.00000e+00,0.00000e+00,0.00000e+00,0.00000e+00,1.47146e-01,8.32137e-02,2.16780e-01,1.88528e-01,1.88979e-01,2.21923e-01,1.87585e-01,1.70875e-01,0.00000e+00,0.00000e+00,0.00000e+00,0.00000e+00,0.00000e+00,0.00000e+00,0.00000e+00,0.00000e+00,
-1.43145e-01,-2.26890e-01,-3.34602e-01,1.05149e-01,4.58936e-01,4.66826e-01,3.96866e-01,4.88119e-01,0.00000e+00,0.00000e+00,0.00000e+00,0.00000e+00,0.00000e+00,0.00000e+00,0.00000e+00,0.00000e+00,-8.40925e-01,-6.14351e-01,-4.37864e-01,-1.78766e-01,2.63539e-01,5.10548e-01,3.19086e-01,6.25419e-01,0.00000e+00,0.00000e+00,0.00000e+00,0.00000e+00,0.00000e+00,0.00000e+00,0.00000e+00,0.00000e+00,-3.31927e-01,-1.06034e-01,-1.39844e-01,-1.59483e-01,4.54248e-02,1.19141e-04,8.12339e-02,5.99737e-02,0.00000e+00,0.00000e+00,0.00000e+00,0.00000e+00,0.00000e+00,0.00000e+00,0.00000e+00,0.00000e+00,-1.72877e-01,-9.20876e-02,-7.36933e-02,-1.74671e-01,-8.46946e-02,-1.82990e-02,-3.68997e-02,-2.01350e-02,0.00000e+00,0.00000e+00,0.00000e+00,0.00000e+00,0.00000e+00,0.00000e+00,0.00000e+00,0.00000e+00,-1.64394e-01,-4.48121e-02,-5.88596e-02,-3.66853e-02,2.12366e-02,-2.59979e-02,-1.84654e-02,-5.94756e-03,0.00000e+00,0.00000e+00,0.00000e+00,0.00000e+00,0.00000e+00,0.00000e+00,0.00000e+00,0.00000e+00,-1.20629e-01,1.07349e-02,-4.33558e-02,-1.81090e-02,-2.08323e-02,-1.14883e-02,-1.86996e-02,-1.87015e-02,0.00000e+00,0.00000e+00,0.00000e+00,0.00000e+00,0.00000e+00,0.00000e+00,0.00000e+00,0.00000e+00,-5.35161e-02,1.73124e-02,-4.72231e-02,-7.51365e-02,-3.62519e-02,-3.63216e-02,1.74431e-02,-2.62815e-02,0.00000e+00,0.00000e+00,0.00000e+00,0.00000e+00,0.00000e+00,0.00000e+00,0.00000e+00,0.00000e+00,-9.93152e-02,-5.11855e-02,1.14115e-02,-5.44055e-02,-5.71901e-02,-2.09770e-02,-4.08215e-02,-4.74278e-03,0.00000e+00,0.00000e+00,0.00000e+00,0.00000e+00,0.00000e+00,0.00000e+00,0.00000e+00,0.00000e+00,
-1.69140e-02,7.18297e-03,6.20698e-02,-1.56133e-02,7.96606e-03,-5.75234e-02,-6.01833e-02,2.03234e-02,0.00000e+00,0.00000e+00,0.00000e+00,0.00000e+00,0.00000e+00,0.00000e+00,0.00000e+00,0.00000e+00,4.91109e-03,2.81016e-02,-7.33943e-02,-3.72162e-03,4.99959e-03,2.48368e-02,-5.82366e-02,-2.98647e-02,0.00000e+00,0.00000e+00,0.00000e+00,0.00000e+00,0.00000e+00,0.00000e+00,0.00000e+00,0.00000e+00,-4.11332e-02,4.57261e-02,-7.04902e-02,2.50110e-02,-3.60713e-02,-8.27310e-03,1.99343e-02,6.01052e-02,0.00000e+00,0.00000e+00,0.00000e+00,0.00000e+00,0.00000e+00,0.00000e+00,0.00000e+00,0.00000e+00,1.89090e-02,-4.68417e-02,-3.60556e-02,1.47190e-02,1.54901e-03,1.37013e-02,4.90195e-03,4.07719e-02,0.00000e+00,0.00000e+00,0.00000e+00,0.00000e+00,0.00000e+00,0.00000e+00,0.00000e+00,0.00000e+00,-5.84014e-03,-2.46906e-02,1.97218e-02,-4.16729e-02,-6.82172e-02,-2.15445e-02,-7.34986e-02,4.00712e-02,0.00000e+00,0.00000e+00,0.00000e+00,0.00000e+00,0.00000e+00,0.00000e+00,0.00000e+00,0.00000e+00,-1.16985e-02,-2.08186e-02,-3.57089e-03,-6.42085e-02,4.96649e-02,6.46514e-02,1.81735e-02,3.22486e-02,0.00000e+00,0.00000e+00,0.00000e+00,0.00000e+00,0.00000e+00,0.00000e+00,0.00000e+00,0.00000e+00,5.47905e-02,-7.08358e-02,-4.95824e-02,2.59153e-02,-2.23115e-02,-3.56268e-02,6.86491e-02,-3.64002e-02,0.00000e+00,0.00000e+00,0.00000e+00,0.00000e+00,0.00000e+00,0.00000e+00,0.00000e+00,0.00000e+00,7.39022e-02,5.08627e-02,-4.94062e-02,-5.33907e-02,-9.02940e-03,-1.71705e-02,-9.38509e-03,-2.29770e-02,0.00000e+00,0.00000e+00,0.00000e+00,0.00000e+00,0.00000e+00,0.00000e+00,0.00000e+00,0.00000e+00,
-5.06145e-01,-5.03005e-01,-6.05861e-01,-4.65357e-01,-1.21815e-01,2.34246e-01,5.13940e-01,4.74856e-01,0.00000e+00,0.00000e+00,0.00000e+00,0.00000e+00,0.00000e+00,0.00000e+00,0.00000e+00,0.00000e+00,1.72766e-01,-6.52277e-02,-2.03459e-01,3.76215e-01,7.22358e-01,8.07789e-01,1.91961e-01,4.84077e-01,0.00000e+00,0.00000e+00,0.00000e+00,0.00000e+00,0.00000e+00,0.00000e+00,0.00000e+00,0.00000e+00,-3.38932e-01,-1.61908e-01,-7.36124e-02,1.25899e-01,-1.07147e-01,-1.01955e-01,4.62012e-01,4.82767e-01,0.00000e+00,0.00000e+00,0.00000e+00,0.00000e+00,0.00000e+00,0.00000e+00,0.00000e+00,0.00000e+00,-3.87583e-01,-3.73100e-01,-4.00252e-01,-7.09575e-01,-2.21838e-01,8.49612e-03,3.64235e-01,3.59354e-01,0.00000e+00,0.00000e+00,0.00000e+00,0.00000e+00,0.00000e+00,0.00000e+00,0.00000e+00,0.00000e+00,-4.72995e-01,-5.63916e-01,-4.31721e-01,-1.25643e-01,-6.52313e-03,3.02197e-02,1.92734e-01,4.32324e-01,0.00000e+00,0.00000e+00,0.00000e+00,0.00000e+00,0.00000e+00,0.00000e+00,0.00000e+00,0.00000e+00,-4.40312e-01,-1.99923e-01,-2.67518e-02,5.18047e-02,5.25975e-02,1.54078e-01,1.20942e-01,2.99992e-01,0.00000e+00,0.00000e+00,0.00000e+00,0.00000e+00,0.00000e+00,0.00000e+00,0.00000e+00,0.00000e+00,-6.15334e-02,9.27403e-02,9.75383e-02,1.37121e-01,2.08882e-01,1.85880e-01,1.64190e-01,2.39999e-01,0.00000e+00,0.00000e+00,0.00000e+00,0.00000e+00,0.00000e+00,0.00000e+00,0.00000e+00,0.00000e+00,3.55848e-03,1.26994e-01,1.26813e-01,1.15854e-01,1.11197e-01,1.94891e-01,2.22397e-01,2.22324e-01,0.00000e+00,0.00000e+00,0.00000e+00,0.00000e+00,0.00000e+00,0.00000e+00,0.00000e+00,0.00000e+00,
6.35629e-01,9.05831e-01,6.54023e-01,8.18977e-02,-3.61197e-01,-2.98713e-01,-1.60412e-01,6.13157e-02,0.00000e+00,0.00000e+00,0.00000e+00,0.00000e+00,0.00000e+00,0.00000e+00,0.00000e+00,0.00000e+00,9.83505e-01,8.38759e-01,6.25813e-01,5.48446e-01,4.15554e-01,8.39210e-03,-5.66889e-01,-5.96411e-01,0.00000e+00,0.00000e+00,0.00000e+00,0.00000e+00,0.00000e+00,0.00000e+00,0.00000e+00,0.00000e+00,5.03699e-01,-3.23148e-02,1.42864e-01,2.82018e-01,-6.96262e-02,-1.94492e-02,-1.82803e-01,1.78709e-01,0.00000e+00,0.00000e+00,0.00000e+00,0.00000e+00,0.00000e+00,0.00000e+00,0.00000e+00,0.00000e+00,3.27973e-01,-2.73410e-02,7.33271e-02,4.50112e-02,-3.60494e-02,1.42317e-02,-1.02724e-01,1.10096e-01,0.00000e+00,0.00000e+00,0.00000e+00,0.00000e+00,0.00000e+00,0.00000e+00,0.00000e+00,0.00000e+00,5.94433e-02,-2.70192e-04,-1.32643e-01,1.12801e-02,-5.38837e-02,6.15496e-02,1.92604e-01,1.79744e-01,0.00000e+00,0.00000e+00,0.00000e+00,0.00000e+00,0.00000e+00,0.00000e+00,0.00000e+00,0.00000e+00,5.70000e-02,-4.47325e-02,4.54322e-02,4.63016e-03,6.24970e-02,-2.20449e-02,9.70418e-02,7.96165e-02,0.00000e+00,0.00000e+00,0.00000e+00,0.00000e+00,0.00000e+00,0.00000e+00,0.00000e+00,0.00000e+00,1.42285e-01,8.10587e-03,1.26062e-01,1.12911e-01,5.00515e-02,3.22015e-02,-8.83976e-02,2.05833e-02,0.00000e+00,0.00000e+00,0.00000e+00,0.00000e+00,0.00000e+00,0.00000e+00,0.00000e+00,0.00000e+00,2.40926e-01,-9.72086e-03,5.34598e-02,5.59872e-02,-1.85171e-03,3.97116e-02,-8.44990e-02,-1.14687e-01,0.00000e+00,0.00000e+00,0.00000e+00,0.00000e+00,0.00000e+00,0.00000e+00,0.00000e+00,0.00000e+00,
3.31049e-02,-2.62381e-02,4.40588e-02,5.00058e-02,1.79861e-02,-4.48828e-03,-6.37322e-02,4.60612e-02,0.00000e+00,0.00000e+00,0.00000e+00,0.00000e+00,0.00000e+00,0.00000e+00,0.00000e+00,0.00000e+00,-6.94797e-03,-6.56403e-02,5.52488e-02,-2.97689e-02,-7.10503e-02,4.08103e-02,1.48771e-02,2.18840e-02,0.00000e+00,0.00000e+00,0.00000e+00,0.00000e+00,0.00000e+00,0.00000e+00,0.00000e+00,0.00000e+00,-5.48358e-02,-2.22815e-03,4.27696e-02,-4.76478e-02,3.55613e-03,3.19270e-02,2.74867e-02,-6.39532e-02,0.00000e+00,0.00000e+00,0.00000e+00,0.00000e+00,0.00000e+00,0.00000e+00,0.00000e+00,0.00000e+00,-2.71803e-02,-5.11490e-03,-6.29628e-02,5.17094e-02,-7.60485e-02,2.72858e-02,-3.42418e-02,-1.85926e-02,0.00000e+00,0.00000e+00,0.00000e+00,0.00000e+00,0.00000e+00,0.00000e+00,0.00000e+00,0.00000e+00,-7.30094e-03,-7.98148e-02,-8.02839e-02,2.47362e-02,2.17162e-02,-9.61654e-04,-6.94544e-02,-3.15354e-02,0.00000e+00,0.00000e+00,0.00000e+00,0.00000e+00,0.00000e+00,0.00000e+00,0.00000e+00,0.00000e+00,1.75023e-02,5.10903e-02,-7.59254e-02,-4.36994e-02,-2.85396e-02,-4.53934e-02,2.42667e-02,4.02143e-02,0.00000e+00,0.00000e+00,0.00000e+00,0.00000e+00,0.00000e+00,0.00000e+00,0.00000e+00,0.00000e+00,5.29902e-02,9.21209e-03,6.15623e-02,-2.25764e-03,-4.75341e-02,6.27266e-03,-5.51292e-02,-2.76843e-02,0.00000e+00,0.00000e+00,0.00000e+00,0.00000e+00,0.00000e+00,0.00000e+00,0.00000e+00,0.00000e+00,-3.96517e-02,1.44677e-02,-8.00215e-02,-7.02204e-02,6.47148e-02,4.78716e-02,1.15713e-02,-3.48965e-02,0.00000e+00,0.00000e+00,0.00000e+00,0.00000e+00,0.00000e+00,0.00000e+00,0.00000e+00,0.00000e+00,
-6.43616e-01,-1.36143e-01,1.48049e-01,4.91101e-02,-6.27251e-02,-3.20034e-01,-7.50388e-01,-1.21918e+00,0.00000e+00,0.00000e+00,0.00000e+00,0.00000e+00,0.00000e+00,0.00000e+00,0.00000e+00,0.00000e+00,-1.27802e+00,-3.33620e-01,5.65199e-02,2.99800e-01,6.48108e-01,6.28146e-01,6.28146e-01,2.24250e-01,0.00000e+00,0.00000e+00,0.00000e+00,0.00000e+00,0.00000e+00,0.00000e+00,0.00000e+00,0.00000e+00,1.13679e-02,-1.21696e-01,-9.06085e-03,2.60903e-01,3.51448e-01,2.91158e-01,2.38080e-01,4.04037e-01,0.00000e+00,0.00000e+00,0.00000e+00,0.00000e+00,0.00000e+00,0.00000e+00,0.00000e+00,0.00000e+00,8.91260e-02,1.02665e-02,-6.39569e-02,-1.07064e-01,1.55290e-01,1.73167e-01,5.46217e-01,5.41173e-01,0.00000e+00,0.00000e+00,0.00000e+00,0.00000e+00,0.00000e+00,0.00000e+00,0.00000e+00,0.00000e+00,-5.57589e-02,-6.10427e-02,-6.06302e-02,-1.16751e-01,-6.07816e-03,1.34697e-01,8.65114e-02,-1.53728e-02,0.00000e+00,0.00000e+00,0.00000e+00,0.00000e+00,0.00000e+00,0.00000e+00,0.00000e+00,0.00000e+00,-1.29489e-01,-4.07177e-02,-8.79473e-02,-6.50001e-02,5.64245e-02,-3.22058e-02,-1.51218e-02,7.96766e-02,0.00000e+00,0.00000e+00,0.00000e+00,0.00000e+00,0.00000e+00,0.00000e+00,0.00000e+00,0.00000e+00,-1.05047e-01,-1.21618e-02,-9.14112e-02,-5.29633e-02,-2.26396e-02,-2.61287e-02,-5.24056e-02,9.01097e-02,0.00000e+00,0.00000e+00,0.00000e+00,0.00000e+00,0.00000e+00,0.00000e+00,0.00000e+00,0.00000e+00,-1.75788e-02,-8.55924e-03,-1.27897e-01,-7.64118e-02,-8.74000e-02,-1.22461e-01,-5.10085e-02,-2.69071e-02,0.00000e+00,0.00000e+00,0.00000e+00,0.00000e+00,0.00000e+00,0.00000e+00,0.00000e+00,0.00000e+00,
2.85899e-02,6.52245e-02,-2.32457e-02,6.02174e-02,4.56424e-02,-3.97589e-02,3.16894e-02,-1.04329e-02,0.00000e+00,0.00000e+00,0.00000e+00,0.00000e+00,0.00000e+00,0.00000e+00,0.00000e+00,0.00000e+00,5.16004e-02,2.46722e-02,1.30848e-03,5.77055e-03,-5.22437e-02,-5.21209e-02,-6.36661e-02,-6.32021e-02,0.00000e+00,0.00000e+00,0.00000e+00,0.00000e+00,0.00000e+00,0.00000e+00,0.00000e+00,0.00000e+00,-4.35848e-02,-4.30943e-02,5.60227e-02,4.33661e-03,4.26622e-02,-2.79902e-02,-4.22011e-02,5.20477e-02,0.00000e+00,0.00000e+00,0.00000e+00,0.00000e+00,0.00000e+00,0.00000e+00,0.00000e+00,0.00000e+00,-6.70800e-02,-2.20614e-02,-2.11839e-03,-2.00558e-02,3.19976e-03,-8.04761e-03,-6.63923e-02,5.00677e-02,0.00000e+00,0.00000e+00,0.00000e+00,0.00000e+00,0.00000e+00,0.00000e+00,0.00000e+00,0.00000e+00,-4.69426e-02,-5.28890e-02,-3.95321e-02,3.11183e-03,1.69816e-02,-7.86299e-02,2.10277e-02,-8.22019e-03,0.00000e+00,0.00000e+00,0.00000e+00,0.00000e+00,0.00000e+00,0.00000e+00,0.00000e+00,0.00000e+00,-4.59847e-03,3.79371e-02,-4.12459e-02,1.48134e-02,-5.09238e-02,-3.30312e-02,-1.49460e-02,-5.76024e-02,0.00000e+00,0.00000e+00,0.00000e+00,0.00000e+00,0.00000e+00,0.00000e+00,0.00000e+00,0.00000e+00,-5.15652e-02,-7.08153e-02,-2.90872e-03,2.82005e-03,-7.20834e-02,4.70413e-02,2.30611e-02,-1.16901e-02,0.00000e+00,0.00000e+00,0.00000e+00,0.00000e+00,0.00000e+00,0.00000e+00,0.00000e+00,0.00000e+00,5.74453e-02,6.06441e-02,-7.83112e-03,-2.08520e-02,2.21729e-02,-5.70424e-02,-5.41809e-02,5.28334e-02,0.00000e+00,0.00000e+00,0.00000e+00,0.00000e+00,0.00000e+00,0.00000e+00,0.00000e+00,0.00000e+00,
-2.58461e-02,-4.57173e-01,-6.55388e-01,-4.90984e-01,-4.03371e-01,-9.07203e-02,-8.32293e-02,-3.63816e-01,0.00000e+00,0.00000e+00,0.00000e+00,0.00000e+00,0.00000e+00,0.00000e+00,0.00000e+00,0.00000e+00,-5.42866e-01,-3.73563e-01,-2.39612e-01,-3.47424e-01,-7.29353e-01,-6.41154e-01,-1.56673e-01,-2.76164e-01,0.00000e+00,0.00000e+00,0.00000e+00,0.00000e+00,0.00000e+00,0.00000e+00,0.00000e+00,0.00000e+00,1.21120e-01,6.85568e-02,1.07978e-01,-8.65951e-02,-2.17807e-01,-1.35444e-01,-1.25150e-01,-4.21899e-01,0.00000e+00,0.00000e+00,0.00000e+00,0.00000e+00,0.00000e+00,0.00000e+00,0.00000e+00,0.00000e+00,8.63971e-02,2.62552e-01,3.65605e-01,3.43138e-01,3.29452e-01,1.89214e-01,2.42982e-01,1.47041e-01,0.00000e+00,0.00000e+00,0.00000e+00,0.00000e+00,0.00000e+00,0.00000e+00,0.00000e+00,0.00000e+00,1.17969e-01,1.42591e-01,2.72671e-01,3.44019e-01,1.22905e-01,8.65652e-02,2.85036e-01,3.21528e-01,0.00000e+00,0.00000e+00,0.00000e+00,0.00000e+00,0.00000e+00,0.00000e+00,0.00000e+00,0.00000e+00,3.12917e-01,7.54402e-04,1.36616e-02,2.90515e-01,3.33590e-01,3.32245e-01,3.64579e-01,3.45294e-01,0.00000e+00,0.00000e+00,0.00000e+00,0.00000e+00,0.00000e+00,0.00000e+00,0.00000e+00,0.00000e+00,2.42649e-01,1.10580e-01,2.32314e-01,2.60353e-01,3.18853e-01,3.01673e-01,4.53956e-01,3.57690e-01,0.00000e+00,0.00000e+00,0.00000e+00,0.00000e+00,0.00000e+00,0.00000e+00,0.00000e+00,0.00000e+00,3.83641e-01,3.85562e-01,3.73745e-01,4.93484e-01,3.51527e-01,4.17820e-01,4.54707e-01,4.73039e-01,0.00000e+00,0.00000e+00,0.00000e+00,0.00000e+00,0.00000e+00,0.00000e+00,0.00000e+00,0.00000e+00,
-2.38602e-03,-4.09951e-01,-1.03378e-01,-3.90069e-01,-4.42212e-01,8.71309e-02,8.60357e-01,1.03098e+00,0.00000e+00,0.00000e+00,0.00000e+00,0.00000e+00,0.00000e+00,0.00000e+00,0.00000e+00,0.00000e+00,2.03239e-01,-2.67637e-01,-5.94249e-01,-1.10540e+00,-1.07248e+00,-4.86053e-01,4.00008e-02,4.49620e-01,0.00000e+00,0.00000e+00,0.00000e+00,0.00000e+00,0.00000e+00,0.00000e+00,0.00000e+00,0.00000e+00,1.11749e-01,-1.40556e-01,-1.78699e-01,-3.36863e-02,-1.86017e-01,3.40896e-01,9.70571e-01,9.40894e-01,0.00000e+00,0.00000e+00,0.00000e+00,0.00000e+00,0.00000e+00,0.00000e+00,0.00000e+00,0.00000e+00,9.33587e-02,-8.93445e-02,-9.74941e-02,3.16250e-03,-4.65962e-02,-1.73865e-01,2.17757e-01,2.50946e-01,0.00000e+00,0.00000e+00,0.00000e+00,0.00000e+00,0.00000e+00,0.00000e+00,0.00000e+00,0.00000e+00,2.67473e-01,5.04953e-02,3.28999e-02,-1.40058e-01,-9.74621e-02,-4.31154e-02,4.85148e-02,2.19752e-01,0.00000e+00,0.00000e+00,0.00000e+00,0.00000e+00,0.00000e+00,0.00000e+00,0.00000e+00,0.00000e+00,1.77387e-01,6.24734e-02,6.06626e-02,-1.25023e-01,-1.36455e-01,-3.86583e-02,-1.09798e-01,8.37624e-02,0.00000e+00,0.00000e+00,0.00000e+00,0.00000e+00,0.00000e+00,0.00000e+00,0.00000e+00,0.00000e+00,6.39377e-02,-4.46104e-02,-7.27540e-03,1.03805e-01,-4.28338e-02,-6.30816e-02,-1.28723e-02,-1.74418e-02,0.00000e+00,0.00000e+00,0.00000e+00,0.00000e+00,0.00000e+00,0.00000e+00,0.00000e+00,0.00000e+00,-9.72289e-02,-1.23305e-02,1.76956e-02,-2.35032e-02,8.32453e-02,6.35861e-03,-2.10828e-04,-2.47806e-02,0.00000e+00,0.00000e+00,0.00000e+00,0.00000e+00,0.00000e+00,0.00000e+00,0.00000e+00,0.00000e+00,
-8.05391e-02,-2.12584e-02,5.12763e-02,-5.54607e-02,-2.05368e-02,5.80991e-02,-5.81055e-02,-7.16157e-03,0.00000e+00,0.00000e+00,0.00000e+00,0.00000e+00,0.00000e+00,0.00000e+00,0.00000e+00,0.00000e+00,7.25046e-02,5.40507e-02,-5.81306e-02,-6.22823e-02,-1.21408e-02,4.85687e-03,-7.61883e-02,5.71589e-02,0.00000e+00,0.00000e+00,0.00000e+00,0.00000e+00,0.00000e+00,0.00000e+00,0.00000e+00,0.00000e+00,-1.37473e-02,-1.64056e-02,-5.68446e-02,1.49957e-02,3.13746e-02,-6.93717e-02,3.51875e-02,3.41616e-02,0.00000e+00,0.00000e+00,0.00000e+00,0.00000e+00,0.00000e+00,0.00000e+00,0.00000e+00,0.00000e+00,1.66750e-02,-1.47288e-02,9.30161e-03,1.68734e-02,-3.61112e-02,2.01723e-02,2.45784e-03,-4.69904e-02,0.00000e+00,0.00000e+00,0.00000e+00,0.00000e+00,0.00000e+00,0.00000e+00,0.00000e+00,0.00000e+00,-4.23293e-03,-3.51783e-02,8.57356e-03,-6.35424e-02,5.32585e-02,3.34456e-02,3.24801e-02,-8.66629e-03,0.00000e+00,0.00000e+00,0.00000e+00,0.00000e+00,0.00000e+00,0.00000e+00,0.00000e+00,0.00000e+00,2.30590e-02,6.41532e-02,4.78522e-02,-5.29314e-02,1.75843e-02,-3.92167e-02,-3.55707e-02,-3.10830e-02,0.00000e+00,0.00000e+00,0.00000e+00,0.00000e+00,0.00000e+00,0.00000e+00,0.00000e+00,0.00000e+00,-2.89080e-02,-5.75718e-02,2.89924e-02,-1.66011e-02,-3.23751e-02,-4.17977e-02,4.58821e-02,-5.51707e-02,0.00000e+00,0.00000e+00,0.00000e+00,0.00000e+00,0.00000e+00,0.00000e+00,0.00000e+00,0.00000e+00,-3.53562e-02,1.06129e-02,4.82907e-02,6.48172e-02,-3.51901e-02,-4.44791e-02,-1.73299e-02,-4.29630e-02,0.00000e+00,0.00000e+00,0.00000e+00,0.00000e+00,0.00000e+00,0.00000e+00,0.00000e+00,0.00000e+00,
0.00000e+00,0.00000e+00,0.00000e+00,0.00000e+00,0.00000e+00,0.00000e+00,0.00000e+00,0.00000e+00,5.08041e-02,6.17430e-02,-6.32821e-02,4.39828e-02,-1.96432e-03,-1.99365e-02,-3.45720e-02,-7.40747e-03,0.00000e+00,0.00000e+00,0.00000e+00,0.00000e+00,0.00000e+00,0.00000e+00,0.00000e+00,0.00000e+00,3.35142e-02,5.28324e-02,5.58346e-02,6.32555e-02,2.18612e-02,-6.86976e-02,-6.19876e-02,1.13962e-02,0.00000e+00,0.00000e+00,0.00000e+00,0.00000e+00,0.00000e+00,0.00000e+00,0.00000e+00,0.00000e+00,5.75090e-03,-5.44825e-02,-6.80426e-02,2.19360e-02,-4.75261e-02,-3.96931e-02,-7.03050e-02,-7.22641e-02,0.00000e+00,0.00000e+00,0.00000e+00,0.00000e+00,0.00000e+00,0.00000e+00,0.00000e+00,0.00000e+00,-4.85427e-02,-4.42228e-02,2.87357e-02,-4.46158e-02,2.48725e-02,4.10249e-02,-5.07892e-03,8.64355e-03,0.00000e+00,0.00000e+00,0.00000e+00,0.00000e+00,0.00000e+00,0.00000e+00,0.00000e+00,0.00000e+00,-2.13035e-02,-3.58374e-02,5.67326e-02,-3.75007e-02,6.61393e-02,3.67863e-02,-2.18931e-02,-3.04866e-02,0.00000e+00,0.00000e+00,0.00000e+00,0.00000e+00,0.00000e+00,0.00000e+00,0.00000e+00,0.00000e+00,-2.56408e-02,9.70053e-03,-3.82597e-02,-5.08959e-02,-1.03582e-02,-1.56834e-02,6.93514e-02,3.24817e-02,0.00000e+00,0.00000e+00,0.00000e+00,0.00000e+00,0.00000e+00,0.00000e+00,0.00000e+00,0.00000e+00,1.47790e-02,-3.01024e-02,-5.19038e-02,-6.00845e-02,-4.02756e-02,-1.12087e-02,-6.69900e-02,-7.10064e-02,0.00000e+00,0.00000e+00,0.00000e+00,0.00000e+00,0.00000e+00,0.00000e+00,0.00000e+00,0.00000e+00,-5.07179e-02,4.33446e-02,7.02497e-02,-7.25926e-02,4.82195e-02,-1.79459e-02,-6.44175e-02,-6.33677e-03,
0.00000e+00,0.00000e+00,0.00000e+00,0.00000e+00,0.00000e+00,0.00000e+00,0.00000e+00,0.00000e+00,-2.59518e-01,-1.41798e-01,2.47733e-01,2.22508e-01,-5.50406e-02,-8.90600e-02,1.33851e-01,-9.04165e-01,0.00000e+00,0.00000e+00,0.00000e+00,0.00000e+00,0.00000e+00,0.00000e+00,0.00000e+00,0.00000e+00,6.49310e-01,6.98517e-01,6.54843e-01,4.14886e-01,8.25455e-02,6.22458e-01,1.07395e+00,2.06436e-01,0.00000e+00,0.00000e+00,0.00000e+00,0.00000e+00,0.00000e+00,0.00000e+00,0.00000e+00,0.00000e+00,2.97963e-01,8.01154e-02,6.20764e-02,2.28171e-01,3.51903e-02,-1.93230e-01,1.41102e-01,6.13831e-01,0.00000e+00,0.00000e+00,0.00000e+00,0.00000e+00,0.00000e+00,0.00000e+00,0.00000e+00,0.00000e+00,3.15770e-01,1.59862e-01,2.25644e-01,3.83585e-01,2.55149e-01,1.31956e-01,-1.88272e-01,-1.06205e-01,0.00000e+00,0.00000e+00,0.00000e+00,0.00000e+00,0.00000e+00,0.00000e+00,0.00000e+00,0.00000e+00,3.62505e-01,1.34139e-01,2.74614e-01,9.97254e-02,-3.78357e-02,1.20147e-03,-5.12258e-02,-2.32816e-01,0.00000e+00,0.00000e+00,0.00000e+00,0.00000e+00,0.00000e+00,0.00000e+00,0.00000e+00,0.00000e+00,2.45950e-01,9.03645e-02,-1.33452e-02,5.12654e-03,4.93196e-02,-2.24748e-04,-2.83531e-02,4.30030e-03,0.00000e+00,0.00000e+00,0.00000e+00,0.00000e+00,0.00000e+00,0.00000e+00,0.00000e+00,0.00000e+00,1.07345e-01,-3.17695e-03,-3.91684e-02,8.12822e-02,-2.62988e-02,4.80872e-03,-5.54959e-02,-7.06793e-02,0.00000e+00,0.00000e+00,0.00000e+00,0.00000e+00,0.00000e+00,0.00000e+00,0.00000e+00,0.00000e+00,9.33583e-02,1.00011e-01,5.53029e-02,1.64591e-01,4.64697e-02,7.75592e-03,-5.36355e-02,-1.71088e-02,
0.00000e+00,0.00000e+00,0.00000e+00,0.00000e+00,0.00000e+00,0.00000e+00,0.00000e+00,0.00000e+00,-5.59852e-02,-6.78874e-02,-4.74252e-02,5.90447e-02,-6.28991e-02,-3.57713e-03,-2.03513e-02,-3.11858e-02,0.00000e+00,0.00000e+00,0.00000e+00,0.00000e+00,0.00000e+00,0.00000e+00,0.00000e+00,0.00000e+00,-5.83537e-02,6.20702e-02,-3.67403e-02,-6.51020e-02,4.11319e-02,6.19024e-04,-1.73313e-02,-7.38941e-02,0.00000e+00,0.00000e+00,0.00000e+00,0.00000e+00,0.00000e+00,0.00000e+00,0.00000e+00,0.00000e+00,-7.32019e-02,-1.63036e-02,9.16245e-03,-4.29049e-02,-7.03202e-02,4.27091e-02,-7.04823e-02,5.89510e-02,0.00000e+00,0.00000e+00,0.00000e+00,0.00000e+00,0.00000e+00,0.00000e+00,0.00000e+00,0.00000e+00,-3.68202e-02,4.84325e-02,2.43504e-02,-3.78482e-02,-2.95999e-02,-3.94023e-02,-2.05232e-02,-6.70640e-02,0.00000e+00,0.00000e+00,0.00000e+00,0.00000e+00,0.00000e+00,0.00000e+00,0.00000e+00,0.00000e+00,-5.74380e-02,1.58573e-03,-2.16966e-02,-1.96931e-02,-3.44399e-02,-6.90860e-02,3.56245e-02,-5.32220e-02,0.00000e+00,0.00000e+00,0.00000e+00,0.00000e+00,0.00000e+00,0.00000e+00,0.00000e+00,0.00000e+00,-6.27891e-03,-3.71641e-02,-5.24519e-02,5.24405e-02,5.76318e-02,-6.52880e-02,6.43860e-02,-1.94727e-02,0.00000e+00,0.00000e+00,0.00000e+00,0.00000e+00,0.00000e+00,0.00000e+00,0.00000e+00,0.00000e+00,-7.41469e-02,-6.08707e-02,5.64323e-02,2.43269e-04,2.99534e-02,5.53831e-02,2.99690e-02,-1.69552e-02,0.00000e+00,0.00000e+00,0.00000e+00,0.00000e+00,0.00000e+00,0.00000e+00,0.00000e+00,0.00000e+00,2.50849e-02,-5.66062e-02,-6.35745e-02,-2.90297e-04,-4.77331e-02,1.69641e-02,6.22629e-02,-4.12060e-02,
0.00000e+00,0.00000e+00,0.00000e+00,0.00000e+00,0.00000e+00,0.00000e+00,0.00000e+00,0.00000e+00,-8.38960e-01,-4.75833e-01,2.40836e-01,6.46578e-01,6.42293e-01,6.65705e-01,6.14735e-01,3.89864e-01,0.00000e+00,0.00000e+00,0.00000e+00,0.00000e+00,0.00000e+00,0.00000e+00,0.00000e+00,0.00000e+00,-1.45074e-01,-1.02101e-01,-3.33501e-02,-4.66467e-02,-2.53149e-03,2.40260e-01,-9.09101e-02,1.09445e-02,0.00000e+00,0.00000e+00,0.00000e+00,0.00000e+00,0.00000e+00,0.00000e+00,0.00000e+00,0.00000e+00,-4.33565e-01,1.52486e-01,-6.75067e-02,-2.55916e-01,-8.27340e-02,1.15218e-01,1.96314e-01,-9.04497e-02,0.00000e+00,0.00000e+00,0.00000e+00,0.00000e+00,0.00000e+00,0.00000e+00,0.00000e+00,0.00000e+00,-3.12579e-01,-1.12172e-01,7.53818e-02,-1.04169e-01,-4.63106e-02,-3.60514e-02,-2.74077e-02,-1.18359e-01,0.00000e+00,0.00000e+00,0.00000e+00,0.00000e+00,0.00000e+00,0.00000e+00,0.00000e+00,0.00000e+00,-2.41273e-01,-7.21659e-02,-2.42191e-02,6.93656e-02,8.76695e-02,-9.07282e-02,8.40778e-02,2.54176e-01,0.00000e+00,0.00000e+00,0.00000e+00,0.00000e+00,0.00000e+00,0.00000e+00,0.00000e+00,0.00000e+00,-1.43476e-01,7.28022e-02,4.53192e-02,-4.80332e-02,-1.57654e-02,-3.51422e-02,5.28157e-02,2.51898e-01,0.00000e+00,0.00000e+00,0.00000e+00,0.00000e+00,0.00000e+00,0.00000e+00,0.00000e+00,0.00000e+00,-6.08756e-02,4.11979e-02,-1.70954e-03,-5.85252e-02,6.85881e-02,3.59386e-02,6.54091e-02,2.55498e-01,0.00000e+00,0.00000e+00,0.00000e+00,0.00000e+00,0.00000e+00,0.00000e+00,0.00000e+00,0.00000e+00,-1.81440e-01,-8.11653e-02,4.56997e-02,4.76090e-02,1.46318e-01,8.96538e-02,1.56325e-01,1.52881e-01,
0.00000e+00,0.00000e+00,0.00000e+00,0.00000e+00,0.00000e+00,0.00000e+00,0.00000e+00,0.00000e+00,-3.91667e-02,5.60191e-02,-6.44271e-02,-2.75435e-02,2.30137e-02,5.78455e-02,-7.66302e-02,-5.34713e-02,0.00000e+00,0.00000e+00,0.00000e+00,0.00000e+00,0.00000e+00,0.00000e+00,0.00000e+00,0.00000e+00,1.46753e-02,1.07746e-02,3.39619e-02,-6.80303e-02,1.30372e-02,6.78483e-02,-1.36010e-02,-2.41531e-02,0.00000e+00,0.00000e+00,0.00000e+00,0.00000e+00,0.00000e+00,0.00000e+00,0.00000e+00,0.00000e+00,-3.12742e-02,1.87210e-02,-3.59632e-02,-2.57076e-02,3.27632e-02,-2.37142e-02,-1.54328e-03,5.00098e-02,0.00000e+00,0.00000e+00,0.00000e+00,0.00000e+00,0.00000e+00,0.00000e+00,0.00000e+00,0.00000e+00,1.07673e-02,-9.28122e-03,5.13516e-03,-1.36258e-02,-2.24821e-02,4.96542e-02,2.14501e-02,-3.65977e-02,0.00000e+00,0.00000e+00,0.00000e+00,0.00000e+00,0.00000e+00,0.00000e+00,0.00000e+00,0.00000e+00,2.49966e-02,-4.15655e-02,-4.40786e-02,-1.23228e-02,7.07795e-02,-2.27368e-02,6.87616e-02,4.23321e-02,0.00000e+00,0.00000e+00,0.00000e+00,0.00000e+00,0.00000e+00,0.00000e+00,0.00000e+00,0.00000e+00,-3.16767e-02,-7.68935e-02,2.07753e-02,1.08639e-02,-7.72370e-03,-1.48332e-02,-8.35118e-03,-7.30853e-02,0.00000e+00,0.00000e+00,0.00000e+00,0.00000e+00,0.00000e+00,0.00000e+00,0.00000e+00,0.00000e+00,3.30589e-02,-4.68570e-02,6.50570e-02,-4.32262e-02,-3.84102e-02,-5.22668e-02,4.36350e-02,8.77306e-04,0.00000e+00,0.00000e+00,0.00000e+00,0.00000e+00,0.00000e+00,0.00000e+00,0.00000e+00,0.00000e+00,-4.24756e-02,-2.38829e-02,1.78080e-02,-4.21062e-02,-3.37004e-02,-4.33415e-02,-3.90016e-02,2.26095e-02,
0.00000e+00,0.00000e+00,0.00000e+00,0.00000e+00,0.00000e+00,0.00000e+00,0.00000e+00,0.00000e+00,6.28382e-02,7.35743e-02,5.35639e-03,3.45277e-02,1.49707e-01,2.68611e-01,3.32835e-01,5.14044e-01,0.00000e+00,0.00000e+00,0.00000e+00,0.00000e+00,0.00000e+00,0.00000e+00,0.00000e+00,0.00000e+00,-6.60518e-01,-5.31220e-01,-4.80887e-01,-5.42545e-01,-1.91790e-01,-9.99499e-02,-4.99222e-01,-2.70269e-01,0.00000e+00,0.00000e+00,0.00000e+00,0.00000e+00,0.00000e+00,0.00000e+00,0.00000e+00,0.00000e+00,-2.71892e-01,-2.61422e-01,-2.24715e-01,-2.02517e-01,-1.76917e-01,-1.73166e-02,2.96178e-04,-4.16844e-02,0.00000e+00,0.00000e+00,0.00000e+00,0.00000e+00,0.00000e+00,0.00000e+00,0.00000e+00,0.00000e+00,-7.53790e-02,-9.85672e-02,8.80356e-02,-9.67057e-02,-5.64824e-02,-1.32650e-02,1.90611e-01,7.39412e-02,0.00000e+00,0.00000e+00,0.00000e+00,0.00000e+00,0.00000e+00,0.00000e+00,0.00000e+00,0.00000e+00,-1.16165e-01,4.87528e-02,-9.07040e-02,6.56484e-02,2.73741e-02,7.12184e-03,2.60569e-01,3.01721e-01,0.00000e+00,0.00000e+00,0.00000e+00,0.00000e+00,0.00000e+00,0.00000e+00,0.00000e+00,0.00000e+00,3.41184e-02,3.17954e-02,3.94051e-02,5.60578e-02,8.95859e-02,4.88057e-02,1.84933e-01,2.31792e-01,0.00000e+00,0.00000e+00,0.00000e+00,0.00000e+00,0.00000e+00,0.00000e+00,0.00000e+00,0.00000e+00,7.89031e-02,6.33680e-02,1.39148e-01,1.08310e-01,1.42151e-01,9.76571e-02,1.96530e-01,1.35466e-01,0.00000e+00,0.00000e+00,0.00000e+00,0.00000e+00,0.00000e+00,0.00000e+00,0.00000e+00,0.00000e+00,1.47146e-01,8.32137e-02,2.16780e-01,1.88528e-01,1.88979e-01,2.21923e-01,1.87585e-01,1.70875e-01,
0.00000e+00,0.00000e+00,0.00000e+00,0.00000e+00,0.00000e+00,0.00000e+00,0.00000e+00,0.00000e+00,-1.43145e-01,-2.26890e-01,-3.34602e-01,1.05149e-01,4.58936e-01,4.66826e-01,3.96866e-01,4.88119e-01,0.00000e+00,0.00000e+00,0.00000e+00,0.00000e+00,0.00000e+00,0.00000e+00,0.00000e+00,0.00000e+00,-8.40925e-01,-6.14351e-01,-4.37864e-01,-1.78766e-01,2.63539e-01,5.10548e-01,3.19086e-01,6.25419e-01,0.00000e+00,0.00000e+00,0.00000e+00,0.00000e+00,0.00000e+00,0.00000e+00,0.00000e+00,0.00000e+00,-3.31927e-01,-1.06034e-01,-1.39844e-01,-1.59483e-01,4.54248e-02,1.19141e-04,8.12339e-02,5.99737e-02,0.00000e+00,0.00000e+00,0.00000e+00,0.00000e+00,0.00000e+00,0.00000e+00,0.00000e+00,0.00000e+00,-1.72877e-01,-9.20876e-02,-7.36933e-02,-1.74671e-01,-8.46946e-02,-1.82990e-02,-3.68997e-02,-2.01350e-02,0.00000e+00,0.00000e+00,0.00000e+00,0.00000e+00,0.00000e+00,0.00000e+00,0.00000e+00,0.00000e+00,-1.64394e-01,-4.48121e-02,-5.88596e-02,-3.66853e-02,2.12366e-02,-2.59979e-02,-1.84654e-02,-5.94756e-03,0.00000e+00,0.00000e+00,0.00000e+00,0.00000e+00,0.00000e+00,0.00000e+00,0.00000e+00,0.00000e+00,-1.20629e-01,1.07349e-02,-4.33558e-02,-1.81090e-02,-2.08323e-02,-1.14883e-02,-1.86996e-02,-1.87015e-02,0.00000e+00,0.00000e+00,0.00000e+00,0.00000e+00,0.00000e+00,0.00000e+00,0.00000e+00,0.00000e+00,-5.35161e-02,1.73124e-02,-4.72231e-02,-7.51365e-02,-3.62519e-02,-3.63216e-02,1.74431e-02,-2.62815e-02,0.00000e+00,0.00000e+00,0.00000e+00,0.00000e+00,0.00000e+00,0.00000e+00,0.00000e+00,0.00000e+00,-9.93152e-02,-5.11855e-02,1.14115e-02,-5.44055e-02,-5.71901e-02,-2.09770e-02,-4.08215e-02,-4.74278e-03,
0.00000e+00,0.00000e+00,0.00000e+00,0.00000e+00,0.00000e+00,0.00000e+00,0.00000e+00,0.00000e+00,-1.69140e-02,7.18297e-03,6.20698e-02,-1.56133e-02,7.96606e-03,-5.75234e-02,-6.01833e-02,2.03234e-02,0.00000e+00,0.00000e+00,0.00000e+00,0.00000e+00,0.00000e+00,0.00000e+00,0.00000e+00,0.00000e+00,4.91109e-03,2.81016e-02,-7.33943e-02,-3.72162e-03,4.99959e-03,2.48368e-02,-5.82366e-02,-2.98647e-02,0.00000e+00,0.00000e+00,0.00000e+00,0.00000e+00,0.00000e+00,0.00000e+00,0.00000e+00,0.00000e+00,-4.11332e-02,4.57261e-02,-7.04902e-02,2.50110e-02,-3.60713e-02,-8.27310e-03,1.99343e-02,6.01052e-02,0.00000e+00,0.00000e+00,0.00000e+00,0.00000e+00,0.00000e+00,0.00000e+00,0.00000e+00,0.00000e+00,1.89090e-02,-4.68417e-02,-3.60556e-02,1.47190e-02,1.54901e-03,1.37013e-02,4.90195e-03,4.07719e-02,0.00000e+00,0.00000e+00,0.00000e+00,0.00000e+00,0.00000e+00,0.00000e+00,0.00000e+00,0.00000e+00,-5.84014e-03,-2.46906e-02,1.97218e-02,-4.16729e-02,-6.82172e-02,-2.15445e-02,-7.34986e-02,4.00712e-02,0.00000e+00,0.00000e+00,0.00000e+00,0.00000e+00,0.00000e+00,0.00000e+00,0.00000e+00,0.00000e+00,-1.16985e-02,-2.08186e-02,-3.57089e-03,-6.42085e-02,4.96649e-02,6.46514e-02,1.81735e-02,3.22486e-02,0.00000e+00,0.00000e+00,0.00000e+00,0.00000e+00,0.00000e+00,0.00000e+00,0.00000e+00,0.00000e+00,5.47905e-02,-7.08358e-02,-4.95824e-02,2.59153e-02,-2.23115e-02,-3.56268e-02,6.86491e-02,-3.64002e-02,0.00000e+00,0.00000e+00,0.00000e+00,0.00000e+00,0.00000e+00,0.00000e+00,0.00000e+00,0.00000e+00,7.39022e-02,5.08627e-02,-4.94062e-02,-5.33907e-02,-9.02940e-03,-1.71705e-02,-9.38509e-03,-2.29770e-02,
0.00000e+00,0.00000e+00,0.00000e+00,0.00000e+00,0.00000e+00,0.00000e+00,0.00000e+00,0.00000e+00,-5.06145e-01,-5.03005e-01,-6.05861e-01,-4.65357e-01,-1.21815e-01,2.34246e-01,5.13940e-01,4.74856e-01,0.00000e+00,0.00000e+00,0.00000e+00,0.00000e+00,0.00000e+00,0.00000e+00,0.00000e+00,0.00000e+00,1.72766e-01,-6.52277e-02,-2.03459e-01,3.76215e-01,7.22358e-01,8.07789e-01,1.91961e-01,4.84077e-01,0.00000e+00,0.00000e+00,0.00000e+00,0.00000e+00,0.00000e+00,0.00000e+00,0.00000e+00,0.00000e+00,-3.38932e-01,-1.61908e-01,-7.36124e-02,1.25899e-01,-1.07147e-01,-1.01955e-01,4.62012e-01,4.82767e-01,0.00000e+00,0.00000e+00,0.00000e+00,0.00000e+00,0.00000e+00,0.00000e+00,0.00000e+00,0.00000e+00,-3.87583e-01,-3.73100e-01,-4.00252e-01,-7.09575e-01,-2.21838e-01,8.49612e-03,3.64235e-01,3.59354e-01,0.00000e+00,0.00000e+00,0.00000e+00,0.00000e+00,0.00000e+00,0.00000e+00,0.00000e+00,0.00000e+00,-4.72995e-01,-5.63916e-01,-4.31721e-01,-1.25643e-01,-6.52313e-03,3.02197e-02,1.92734e-01,4.32324e-01,0.00000e+00,0.00000e+00,0.00000e+00,0.00000e+00,0.00000e+00,0.00000e+00,0.00000e+00,0.00000e+00,-4.40312e-01,-1.99923e-01,-2.67518e-02,5.18047e-02,5.25975e-02,1.54078e-01,1.20942e-01,2.99992e-01,0.00000e+00,0.00000e+00,0.00000e+00,0.00000e+00,0.00000e+00,0.00000e+00,0.00000e+00,0.00000e+00,-6.15334e-02,9.27403e-02,9.75383e-02,1.37121e-01,2.08882e-01,1.85880e-01,1.64190e-01,2.39999e-01,0.00000e+00,0.00000e+00,0.00000e+00,0.00000e+00,0.00000e+00,0.00000e+00,0.00000e+00,0.00000e+00,3.55848e-03,1.26994e-01,1.26813e-01,1.15854e-01,1.11197e-01,1.94891e-01,2.22397e-01,2.22324e-01,
0.00000e+00,0.00000e+00,0.00000e+00,0.00000e+00,0.00000e+00,0.00000e+00,0.00000e+00,0.00000e+00,6.35629e-01,9.05831e-01,6.54023e-01,8.18977e-02,-3.61197e-01,-2.98713e-01,-1.60412e-01,6.13157e-02,0.00000e+00,0.00000e+00,0.00000e+00,0.00000e+00,0.00000e+00,0.00000e+00,0.00000e+00,0.00000e+00,9.83505e-01,8.38759e-01,6.25813e-01,5.48446e-01,4.15554e-01,8.39210e-03,-5.66889e-01,-5.96411e-01,0.00000e+00,0.00000e+00,0.00000e+00,0.00000e+00,0.00000e+00,0.00000e+00,0.00000e+00,0.00000e+00,5.03699e-01,-3.23148e-02,1.42864e-01,2.82018e-01,-6.96262e-02,-1.94492e-02,-1.82803e-01,1.78709e-01,0.00000e+00,0.00000e+00,0.00000e+00,0.00000e+00,0.00000e+00,0.00000e+00,0.00000e+00,0.00000e+00,3.27973e-01,-2.73410e-02,7.33271e-02,4.50112e-02,-3.60494e-02,1.42317e-02,-1.02724e-01,1.10096e-01,0.00000e+00,0.00000e+00,0.00000e+00,0.00000e+00,0.00000e+00,0.00000e+00,0.00000e+00,0.00000e+00,5.94433e-02,-2.70192e-04,-1.32643e-01,1.12801e-02,-5.38837e-02,6.15496e-02,1.92604e-01,1.79744e-01,0.00000e+00,0.00000e+00,0.00000e+00,0.00000e+00,0.00000e+00,0.00000e+00,0.00000e+00,0.00000e+00,5.70000e-02,-4.47325e-02,4.54322e-02,4.63016e-03,6.24970e-02,-2.20449e-02,9.70418e-02,7.96165e-02,0.00000e+00,0.00000e+00,0.00000e+00,0.00000e+00,0.00000e+00,0.00000e+00,0.00000e+00,0.00000e+00,1.42285e-01,8.10587e-03,1.26062e-01,1.12911e-01,5.00515e-02,3.22015e-02,-8.83976e-02,2.05833e-02,0.00000e+00,0.00000e+00,0.00000e+00,0.00000e+00,0.00000e+00,0.00000e+00,0.00000e+00,0.00000e+00,2.40926e-01,-9.72086e-03,5.34598e-02,5.59872e-02,-1.85171e-03,3.97116e-02,-8.44990e-02,-1.14687e-01,
0.00000e+00,0.00000e+00,0.00000e+00,0.00000e+00,0.00000e+00,0.00000e+00,0.00000e+00,0.00000e+00,3.31049e-02,-2.62381e-02,4.40588e-02,5.00058e-02,1.79861e-02,-4.48828e-03,-6.37322e-02,4.60612e-02,0.00000e+00,0.00000e+00,0.00000e+00,0.00000e+00,0.00000e+00,0.00000e+00,0.00000e+00,0.00000e+00,-6.94797e-03,-6.56403e-02,5.52488e-02,-2.97689e-02,-7.10503e-02,4.08103e-02,1.48771e-02,2.18840e-02,0.00000e+00,0.00000e+00,0.00000e+00,0.00000e+00,0.00000e+00,0.00000e+00,0.00000e+00,0.00000e+00,-5.48358e-02,-2.22815e-03,4.27696e-02,-4.76478e-02,3.55613e-03,3.19270e-02,2.74867e-02,-6.39532e-02,0.00000e+00,0.00000e+00,0.00000e+00,0.00000e+00,0.00000e+00,0.00000e+00,0.00000e+00,0.00000e+00,-2.71803e-02,-5.11490e-03,-6.29628e-02,5.17094e-02,-7.60485e-02,2.72858e-02,-3.42418e-02,-1.85926e-02,0.00000e+00,0.00000e+00,0.00000e+00,0.00000e+00,0.00000e+00,0.00000e+00,0.00000e+00,0.00000e+00,-7.30094e-03,-7.98148e-02,-8.02839e-02,2.47362e-02,2.17162e-02,-9.61654e-04,-6.94544e-02,-3.15354e-02,0.00000e+00,0.00000e+00,0.00000e+00,0.00000e+00,0.00000e+00,0.00000e+00,0.00000e+00,0.00000e+00,1.75023e-02,5.10903e-02,-7.59254e-02,-4.36994e-02,-2.85396e-02,-4.53934e-02,2.42667e-02,4.02143e-02,0.00000e+00,0.00000e+00,0.00000e+00,0.00000e+00,0.00000e+00,0.00000e+00,0.00000e+00,0.00000e+00,5.29902e-02,9.21209e-03,6.15623e-02,-2.25764e-03,-4.75341e-02,6.27266e-03,-5.51292e-02,-2.76843e-02,0.00000e+00,0.00000e+00,0.00000e+00,0.00000e+00,0.00000e+00,0.00000e+00,0.00000e+00,0.00000e+00,-3.96517e-02,1.44677e-02,-8.00215e-02,-7.02204e-02,6.47148e-02,4.78716e-02,1.15713e-02,-3.48965e-02,
0.00000e+00,0.00000e+00,0.00000e+00,0.00000e+00,0.00000e+00,0.00000e+00,0.00000e+00,0.00000e+00,-6.43616e-01,-1.36143e-01,1.48049e-01,4.91101e-02,-6.27251e-02,-3.20034e-01,-7.50388e-01,-1.21918e+00,0.00000e+00,0.00000e+00,0.00000e+00,0.00000e+00,0.00000e+00,0.00000e+00,0.00000e+00,0.00000e+00,-1.27802e+00,-3.33620e-01,5.65199e-02,2.99800e-01,6.48108e-01,6.28146e-01,6.28146e-01,2.24250e-01,0.00000e+00,0.00000e+00,0.00000e+00,0.00000e+00,0.00000e+00,0.00000e+00,0.00000e+00,0.00000e+00,1.13679e-02,-1.21696e-01,-9.06085e-03,2.60903e-01,3.51448e-01,2.91158e-01,2.38080e-01,4.04037e-01,0.00000e+00,0.00000e+00,0.00000e+00,0.00000e+00,0.00000e+00,0.00000e+00,0.00000e+00,0.00000e+00,8.91260e-02,1.02665e-02,-6.39569e-02,-1.07064e-01,1.55290e-01,1.73167e-01,5.46217e-01,5.41173e-01,0.00000e+00,0.00000e+00,0.00000e+00,0.00000e+00,0.00000e+00,0.00000e+00,0.00000e+00,0.00000e+00,-5.57589e-02,-6.10427e-02,-6.06302e-02,-1.16751e-01,-6.07816e-03,1.34697e-01,8.65114e-02,-1.53728e-02,0.00000e+00,0.00000e+00,0.00000e+00,0.00000e+00,0.00000e+00,0.00000e+00,0.00000e+00,0.00000e+00,-1.29489e-01,-4.07177e-02,-8.79473e-02,-6.50001e-02,5.64245e-02,-3.22058e-02,-1.51218e-02,7.96766e-02,0.00000e+00,0.00000e+00,0.00000e+00,0.00000e+00,0.00000e+00,0.00000e+00,0.00000e+00,0.00000e+00,-1.05047e-01,-1.21618e-02,-9.14112e-02,-5.29633e-02,-2.26396e-02,-2.61287e-02,-5.24056e-02,9.01097e-02,0.00000e+00,0.00000e+00,0.00000e+00,0.00000e+00,0.00000e+00,0.00000e+00,0.00000e+00,0.00000e+00,-1.75788e-02,-8.55924e-03,-1.27897e-01,-7.64118e-02,-8.74000e-02,-1.22461e-01,-5.10085e-02,-2.69071e-02,
0.00000e+00,0.00000e+00,0.00000e+00,0.00000e+00,0.00000e+00,0.00000e+00,0.00000e+00,0.00000e+00,2.85899e-02,6.52245e-02,-2.32457e-02,6.02174e-02,4.56424e-02,-3.97589e-02,3.16894e-02,-1.04329e-02,0.00000e+00,0.00000e+00,0.00000e+00,0.00000e+00,0.00000e+00,0.00000e+00,0.00000e+00,0.00000e+00,5.16004e-02,2.46722e-02,1.30848e-03,5.77055e-03,-5.22437e-02,-5.21209e-02,-6.36661e-02,-6.32021e-02,0.00000e+00,0.00000e+00,0.00000e+00,0.00000e+00,0.00000e+00,0.00000e+00,0.00000e+00,0.00000e+00,-4.35848e-02,-4.30943e-02,5.60227e-02,4.33661e-03,4.26622e-02,-2.79902e-02,-4.22011e-02,5.20477e-02,0.00000e+00,0.00000e+00,0.00000e+00,0.00000e+00,0.00000e+00,0.00000e+00,0.00000e+00,0.00000e+00,-6.70800e-02,-2.20614e-02,-2.11839e-03,-2.00558e-02,3.19976e-03,-8.04761e-03,-6.63923e-02,5.00677e-02,0.00000e+00,0.00000e+00,0.00000e+00,0.00000e+00,0.00000e+00,0.00000e+00,0.00000e+00,0.00000e+00,-4.69426e-02,-5.28890e-02,-3.95321e-02,3.11183e-03,1.69816e-02,-7.86299e-02,2.10277e-02,-8.22019e-03,0.00000e+00,0.00000e+00,0.00000e+00,0.00000e+00,0.00000e+00,0.00000e+00,0.00000e+00,0.00000e+00,-4.59847e-03,3.79371e-02,-4.12459e-02,1.48134e-02,-5.09238e-02,-3.30312e-02,-1.49460e-02,-5.76024e-02,0.00000e+00,0.00000e+00,0.00000e+00,0.00000e+00,0.00000e+00,0.00000e+00,0.00000e+00,0.00000e+00,-5.15652e-02,-7.08153e-02,-2.90872e-03,2.82005e-03,-7.20834e-02,4.70413e-02,2.30611e-02,-1.16901e-02,0.00000e+00,0.00000e+00,0.00000e+00,0.00000e+00,0.00000e+00,0.00000e+00,0.00000e+00,0.00000e+00,5.74453e-02,6.06441e-02,-7.83112e-03,-2.08520e-02,2.21729e-02,-5.70424e-02,-5.41809e-02,5.28334e-02,
0.00000e+00,0.00000e+00,0.00000e+00,0.00000e+00,0.00000e+00,0.00000e+00,0.00000e+00,0.00000e+00,-2.58461e-02,-4.57173e-01,-6.55388e-01,-4.90984e-01,-4.03371e-01,-9.07203e-02,-8.32293e-02,-3.63816e-01,0.00000e+00,0.00000e+00,0.00000e+00,0.00000e+00,0.00000e+00,0.00000e+00,0.00000e+00,0.00000e+00,-5.42866e-01,-3.73563e-01,-2.39612e-01,-3.47424e-01,-7.29353e-01,-6.41154e-01,-1.56673e-01,-2.76164e-01,0.00000e+00,0.00000e+00,0.00000e+00,0.00000e+00,0.00000e+00,0.00000e+00,0.00000e+00,0.00000e+00,1.21120e-01,6.85568e-02,1.07978e-01,-8.65951e-02,-2.17807e-01,-1.35444e-01,-1.25150e-01,-4.21899e-01,0.00000e+00,0.00000e+00,0.00000e+00,0.00000e+00,0.00000e+00,0.00000e+00,0.00000e+00,0.00000e+00,8.63971e-02,2.62552e-01,3.65605e-01,3.43138e-01,3.29452e-01,1.89214e-01,2.42982e-01,1.47041e-01,0.00000e+00,0.00000e+00,0.00000e+00,0.00000e+00,0.00000e+00,0.00000e+00,0.00000e+00,0.00000e+00,1.17969e-01,1.42591e-01,2.72671e-01,3.44019e-01,1.22905e-01,8.65652e-02,2.85036e-01,3.21528e-01,0.00000e+00,0.00000e+00,0.00000e+00,0.00000e+00,0.00000e+00,0.00000e+00,0.00000e+00,0.00000e+00,3.12917e-01,7.54402e-04,1.36616e-02,2.90515e-01,3.33590e-01,3.32245e-01,3.64579e-01,3.45294e-01,0.00000e+00,0.00000e+00,0.00000e+00,0.00000e+00,0.00000e+00,0.00000e+00,0.00000e+00,0.00000e+00,2.42649e-01,1.10580e-01,2.32314e-01,2.60353e-01,3.18853e-01,3.01673e-01,4.53956e-01,3.57690e-01,0.00000e+00,0.00000e+00,0.00000e+00,0.00000e+00,0.00000e+00,0.00000e+00,0.00000e+00,0.00000e+00,3.83641e-01,3.85562e-01,3.73745e-01,4.93484e-01,3.51527e-01,4.17820e-01,4.54707e-01,4.73039e-01,
0.00000e+00,0.00000e+00,0.00000e+00,0.00000e+00,0.00000e+00,0.00000e+00,0.00000e+00,0.00000e+00,-2.38602e-03,-4.09951e-01,-1.03378e-01,-3.90069e-01,-4.42212e-01,8.71309e-02,8.60357e-01,1.03098e+00,0.00000e+00,0.00000e+00,0.00000e+00,0.00000e+00,0.00000e+00,0.00000e+00,0.00000e+00,0.00000e+00,2.03239e-01,-2.67637e-01,-5.94249e-01,-1.10540e+00,-1.07248e+00,-4.86053e-01,4.00008e-02,4.49620e-01,0.00000e+00,0.00000e+00,0.00000e+00,0.00000e+00,0.00000e+00,0.00000e+00,0.00000e+00,0.00000e+00,1.11749e-01,-1.40556e-01,-1.78699e-01,-3.36863e-02,-1.86017e-01,3.40896e-01,9.70571e-01,9.40894e-01,0.00000e+00,0.00000e+00,0.00000e+00,0.00000e+00,0.00000e+00,0.00000e+00,0.00000e+00,0.00000e+00,9.33587e-02,-8.93445e-02,-9.74941e-02,3.16250e-03,-4.65962e-02,-1.73865e-01,2.17757e-01,2.50946e-01,0.00000e+00,0.00000e+00,0.00000e+00,0.00000e+00,0.00000e+00,0.00000e+00,0.00000e+00,0.00000e+00,2.67473e-01,5.04953e-02,3.28999e-02,-1.40058e-01,-9.74621e-02,-4.31154e-02,4.85148e-02,2.19752e-01,0.00000e+00,0.00000e+00,0.00000e+00,0.00000e+00,0.00000e+00,0.00000e+00,0.00000e+00,0.00000e+00,1.77387e-01,6.24734e-02,6.06626e-02,-1.25023e-01,-1.36455e-01,-3.86583e-02,-1.09798e-01,8.37624e-02,0.00000e+00,0.00000e+00,0.00000e+00,0.00000e+00,0.00000e+00,0.00000e+00,0.00000e+00,0.00000e+00,6.39377e-02,-4.46104e-02,-7.27540e-03,1.03805e-01,-4.28338e-02,-6.30816e-02,-1.28723e-02,-1.74418e-02,0.00000e+00,0.00000e+00,0.00000e+00,0.00000e+00,0.00000e+00,0.00000e+00,0.00000e+00,0.00000e+00,-9.72289e-02,-1.23305e-02,1.76956e-02,-2.35032e-02,8.32453e-02,6.35861e-03,-2.10828e-04,-2.47806e-02,
0.00000e+00,0.00000e+00,0.00000e+00,0.00000e+00,0.00000e+00,0.00000e+00,0.00000e+00,0.00000e+00,-8.05391e-02,-2.12584e-02,5.12763e-02,-5.54607e-02,-2.05368e-02,5.80991e-02,-5.81055e-02,-7.16157e-03,0.00000e+00,0.00000e+00,0.00000e+00,0.00000e+00,0.00000e+00,0.00000e+00,0.00000e+00,0.00000e+00,7.25046e-02,5.40507e-02,-5.81306e-02,-6.22823e-02,-1.21408e-02,4.85687e-03,-7.61883e-02,5.71589e-02,0.00000e+00,0.00000e+00,0.00000e+00,0.00000e+00,0.00000e+00,0.00000e+00,0.00000e+00,0.00000e+00,-1.37473e-02,-1.64056e-02,-5.68446e-02,1.49957e-02,3.13746e-02,-6.93717e-02,3.51875e-02,3.41616e-02,0.00000e+00,0.00000e+00,0.00000e+00,0.00000e+00,0.00000e+00,0.00000e+00,0.00000e+00,0.00000e+00,1.66750e-02,-1.47288e-02,9.30161e-03,1.68734e-02,-3.61112e-02,2.01723e-02,2.45784e-03,-4.69904e-02,0.00000e+00,0.00000e+00,0.00000e+00,0.00000e+00,0.00000e+00,0.00000e+00,0.00000e+00,0.00000e+00,-4.23293e-03,-3.51783e-02,8.57356e-03,-6.35424e-02,5.32585e-02,3.34456e-02,3.24801e-02,-8.66629e-03,0.00000e+00,0.00000e+00,0.00000e+00,0.00000e+00,0.00000e+00,0.00000e+00,0.00000e+00,0.00000e+00,2.30590e-02,6.41532e-02,4.78522e-02,-5.29314e-02,1.75843e-02,-3.92167e-02,-3.55707e-02,-3.10830e-02,0.00000e+00,0.00000e+00,0.00000e+00,0.00000e+00,0.00000e+00,0.00000e+00,0.00000e+00,0.00000e+00,-2.89080e-02,-5.75718e-02,2.89924e-02,-1.66011e-02,-3.23751e-02,-4.17977e-02,4.58821e-02,-5.51707e-02,0.00000e+00,0.00000e+00,0.00000e+00,0.00000e+00,0.00000e+00,0.00000e+00,0.00000e+00,0.00000e+00,-3.53562e-02,1.06129e-02,4.82907e-02,6.48172e-02,-3.51901e-02,-4.44791e-02,-1.73299e-02,-4.29630e-02,
-0.00000e+00,
-3.27343e-01,
-0.00000e+00,
-1.45117e-01,
-4.01538e-03,
2.28688e-01,
8.27067e-01,
-0.00000e+00,
-7.20939e-02,
-2.52748e-01,
-6.26665e-03,
1.78276e-01,
-8.78770e-03,
1.00100e-01,
4.22637e-01,
-3.36015e-03,
-0.00000e+00,
-3.27343e-01,
-0.00000e+00,
-1.45117e-01,
-4.01538e-03,
2.28688e-01,
8.27067e-01,
-0.00000e+00,
-7.20939e-02,
-2.52748e-01,
-6.26665e-03,
1.78276e-01,
-8.78770e-03,
1.00100e-01,
4.22637e-01,
-3.36015e-03,
-1.49826e-01,1.98998e-01,-7.68004e-02,-3.85948e-01,1.33802e-01,4.89100e-02,-2.36436e+00,5.21839e-05,1.07738e+00,2.73484e-01,-2.42859e-01,-5.28217e+00,2.42815e-01,-3.67054e-01,-1.12182e+00,-8.54105e-03,7.50837e-03,1.24038e-03,-2.81267e-01,2.94515e-01,-2.20466e-01,-2.51471e-01,-9.21333e-01,1.64994e-01,-2.06013e-01,2.40613e-01,3.34423e-01,-2.31815e+00,1.03859e-01,-3.26036e-01,-8.40102e-01,3.28348e-01,
-1.90339e-01,4.42424e-01,2.07801e-01,1.83380e-02,1.32444e-01,1.40427e-01,-1.31212e-01,1.08701e-01,-2.37566e-01,-2.47734e-01,-3.52031e-02,-3.18457e+00,7.42532e-02,-4.02011e-01,-3.62185e-02,-1.67104e-01,-8.22217e-02,-4.02994e-02,-2.04420e-01,-2.75331e-01,7.34587e-02,-6.83421e-01,2.02884e+00,2.60190e-01,-2.79902e-01,2.60056e-01,-2.20192e-01,2.81244e-01,1.17422e-01,-1.88056e-01,5.25706e-01,-1.75577e-02,
-2.39179e-02,7.55990e-01,-1.47227e-01,3.31482e-01,4.79607e-02,-6.42995e-01,-2.20760e-01,-3.11085e-01,-5.53370e-02,3.51378e-01,1.64925e-01,-6.13838e+00,1.61201e-01,-9.50231e-02,2.53378e-01,2.76563e-01,1.52883e-01,-4.40418e-01,-1.73959e-01,-2.32525e-01,2.01752e-01,9.40921e-02,9.86611e-01,-2.68340e-01,-5.67888e-01,-2.68297e-01,-2.27845e-02,-3.50577e-01,2.61383e-01,-8.49092e-02,4.03239e-01,-8.70370e-02,
1.00767e-01,-3.00298e-01,-3.24940e-01,7.18911e-02,3.39450e-01,2.02914e-01,-1.22089e+00,1.73310e-01,7.11554e-01,-4.78448e-01,-2.66972e-01,-3.19544e-01,-1.76627e-01,-6.33085e-01,1.69761e-01,9.37090e-02,-1.60711e-01,3.86212e-01,8.87297e-02,2.12178e-01,2.87002e-01,1.91282e-01,2.26125e-01,-6.47643e-02,3.50451e-01,5.72164e-01,9.02400e-02,-1.10371e+00,1.24643e-01,7.93605e-01,1.44623e-01,2.72752e-01,
-2.11718e-01,3.45683e-01,8.11827e-02,4.76656e-02,-3.28946e-01,1.94222e-01,-1.34082e+00,2.51807e-01,3.82442e-01,-4.59439e-01,-1.78142e-01,-1.63353e-01,1.89164e-01,3.44947e-01,-2.48638e-01,-1.70884e-01,2.15436e-01,2.30339e-01,-3.21555e-03,2.77945e-01,-5.96981e-02,-2.60797e-01,-6.10809e-01,1.13254e-01,-3.07120e-01,-2.90336e-02,-3.01951e-01,4.97601e-01,-3.22708e-02,6.08370e-01,-7.27828e-01,-2.39122e-01,
-1.34015e-01,4.91233e-01,1.87766e-01,8.53569e-01,1.53135e-01,6.08383e-01,-4.72867e-01,-2.32493e-01,1.04109e-01,-9.92174e-02,-2.57043e-01,-3.91628e+00,3.48259e-01,-5.48847e-01,6.42222e-02,1.40548e-01,-1.62202e-01,-4.08495e-01,-3.10166e-01,1.12894e-01,2.27785e-03,1.72726e-01,7.89651e-01,-1.03877e-01,6.17230e-02,-1.90421e-02,-1.87652e-01,1.29517e-01,1.46871e-01,-3.35113e-02,9.47441e-01,-1.00883e-01,
2.79072e-03,5.84854e-01,2.19724e-01,2.39302e-01,1.83001e-01,-1.23005e+00,-6.67134e-01,-9.68285e-02,4.79938e-01,7.51605e-01,-2.79271e-03,2.55210e-01,-1.51533e-01,-4.27321e-02,-2.44442e-01,-3.31100e-01,1.01338e-01,2.11564e-01,2.29834e-01,3.59640e-01,-4.10688e-02,-2.63284e-01,2.24241e-01,3.09340e-01,9.98327e-02,-2.05479e-01,-2.16781e-01,-2.93499e-01,1.95625e-01,-9.09900e-02,8.79038e-01,3.23593e-01,
-9.15033e-02,-5.42913e-02,3.36109e-02,-3.10067e-01,2.13318e-01,-2.49781e-01,-8.92667e-02,3.53526e-01,-2.29523e-01,1.02233e-01,2.25995e-01,2.40727e-01,-1.78118e-01,6.47743e-02,2.16258e-01,2.94103e-01,-2.16689e-01,-2.58856e-02,-2.96772e-01,-2.68515e-01,-2.00819e-01,-2.26933e-01,5.19788e-02,2.19981e-01,-3.18925e-01,-2.15490e-01,2.12802e-02,1.37549e-01,-2.41835e-01,9.95532e-02,-1.06560e-01,-3.23714e-01,
2.10483e-01,7.32687e-02,-2.26401e-01,-2.16313e-01,2.20208e-01,3.04281e-01,-1.38899e+00,2.16993e-01,-3.06429e-01,-1.39359e-01,1.94750e-02,-7.30628e+00,-2.05732e-01,-8.81186e-02,-1.24974e+00,1.53114e-01,8.07588e-02,-3.11817e-01,9.83664e-02,9.39329e-01,2.08520e-01,-1.01427e-01,5.24308e-01,2.61422e-01,3.43945e-01,3.68044e-01,-2.81098e-01,6.25285e-01,-4.54592e-02,3.34128e-01,1.49424e+00,4.76354e-02,
1.50875e-01,1.39440e-01,1.67389e-01,7.66977e-01,1.08964e-01,-7.03545e-01,8.33648e-02,2.63612e-01,5.78056e-02,7.64797e-01,1.62900e-01,2.51273e-01,1.92919e-01,5.21997e-01,1.54601e-01,-2.71623e-01,-3.23882e-02,4.55187e-01,-2.32831e-01,2.13236e-01,-4.86621e-02,5.24299e-01,9.23074e-01,6.03734e-02,1.20328e-01,1.19282e-01,2.83607e-02,-1.68570e-01,-2.59443e-01,-7.03964e-01,-1.03057e-02,2.61400e-01,
2.96479e-01,-2.74585e-01,-1.01730e-01,3.21764e-01,-3.19017e-01,4.05128e-02,-1.35946e-01,1.28977e-01,-2.04690e-01,-3.23050e-01,-1.43234e-01,-2.80688e-01,2.77926e-01,2.52949e-02,-2.05722e-01,8.56271e-02,2.07012e-01,-2.81136e-01,-5.36844e-02,-3.56866e-01,-3.15055e-01,-3.28619e-02,2.49745e-01,-2.15684e-01,2.14281e-01,2.79452e-01,2.99901e-01,-3.13562e-02,-1.25564e-01,3.18498e-01,-3.47645e-01,1.35430e-02,
-2.93464e-01,-4.03984e-01,-3.30655e-01,2.38315e-01,3.15361e-01,7.14060e-01,-8.87122e-01,-6.45630e-02,-3.11154e-01,-6.88883e-01,-6.46347e-03,8.20195e-01,-2.83740e-01,1.91456e-01,-3.53885e-01,-3.07217e-01,-1.79841e-01,-1.35113e-01,-4.88322e-02,1.12652e-01,1.29274e-01,9.76527e-01,-1.05667e+00,2.70044e-01,8.22734e-01,4.11825e-01,-2.59764e-01,2.26181e+00,-7.16504e-02,5.99485e-01,9.17426e-01,2.67920e-01,
-1.19246e-01,2.86228e-01,1.49660e-01,6.16210e-01,-2.71364e-01,4.76661e-01,-2.09252e+00,-1.87250e-01,7.27727e-01,4.54706e-01,-3.58502e-01,-2.91711e+00,-2.93678e-02,-8.45033e-02,-2.53595e+00,-4.05529e-02,1.09030e-01,2.98724e-01,-3.53538e-01,9.99666e-01,-1.31786e-01,-1.90107e+00,1.14801e+00,3.05871e-01,5.81197e-01,1.60362e-01,2.63035e-01,5.38605e+00,3.01929e-01,1.23135e+00,2.36079e+00,-3.28070e-01,
7.24245e-02,1.28450e-01,-4.28383e-02,-1.10967e-01,2.64134e-01,-1.83307e-01,6.14056e-01,-8.85777e-02,2.27646e-01,-6.79315e-01,2.19531e-01,5.26844e+00,2.66961e-01,1.59979e-01,-7.92379e-02,9.39864e-02,2.18037e-01,1.68302e-01,9.80942e-02,1.73311e-03,-1.42380e-01,-1.75223e+00,-1.34766e+00,-2.28483e-01,7.81844e-01,-2.46778e-03,-1.92484e-01,-6.46959e-01,1.58861e-01,7.10483e-01,1.63035e-01,-1.71983e-01,
-3.35837e-01,-4.82582e-01,7.51544e-02,2.33382e-01,1.33988e-02,2.74642e-01,-3.24017e-02,2.53207e-01,-9.14412e-02,2.01648e-03,1.24699e-01,-1.53507e+00,3.17214e-01,-1.18429e-01,-2.63508e-01,3.39357e-01,2.58255e-01,4.62474e-01,-1.68363e-01,-7.80265e-02,2.08830e-01,-1.97172e-01,-7.59739e-01,-1.90018e-01,7.43595e-01,6.12706e-01,4.13489e-02,-4.68285e-01,8.03053e-02,4.31334e-01,-6.78699e-01,-1.82106e-02,
1.28792e-01,6.32605e-01,-1.53943e-01,4.40273e-01,-1.07441e-01,2.30155e-02,1.24255e+00,-1.94907e-01,-4.12754e-01,4.61943e-01,-2.81179e-01,1.57123e-02,1.00687e-01,4.22687e-01,-5.07826e-01,3.15761e-01,2.62530e-01,2.10206e-01,4.99614e-02,1.54281e-01,-1.45289e-01,1.42283e+00,-6.72222e-01,2.45394e-01,-2.42859e-01,7.89845e-03,1.21739e-01,-9.33563e-01,3.28232e-01,-3.81056e-01,-7.21113e-01,-6.96509e-02,
1.42812e-01,
6.67105e-03,
2.69696e-01,
1.03501e-01,
3.02948e-02,
6.80363e-02,
6.62382e-02,
-3.17659e-02,
5.05697e-03,
3.23127e-01,
-2.13890e-02,
-9.17343e-02,
1.42187e-01,
-1.12844e-01,
9.19317e-02,
5.13880e-02,
3.29401e-01,7.29200e-02,3.90603e-01,-1.50362e-02,2.13234e-01,-3.03142e-01,3.78140e-01,-6.25362e-02,2.59888e-01,-3.51356e-02,-4.22322e-01,-3.70759e-01,-4.60168e-01,-2.53852e-01,2.81709e-01,-4.12927e-01,
2.96378e+00,1.08249e+00,-9.17077e-01,8.72108e-01,1.24098e+00,2.89577e+00,-2.86625e-01,-3.82676e-01,4.48740e-01,-5.29198e-01,3.81423e-01,1.45068e+00,3.51511e-01,-7.61900e-02,1.07513e-01,-5.84771e-01,
-2.80183e+00,9.40884e-01,-4.76172e+00,4.82609e-01,-1.67868e-01,-6.45291e+00,-1.45517e-01,-1.73386e-02,1.44798e+00,4.35465e-01,-1.50426e-01,-1.47149e+00,-5.14424e-01,1.10579e+00,5.22096e-01,1.33166e-01,
1.32762e+00,6.26359e-02,9.16377e-01,6.61467e-01,5.79273e-01,4.69082e-01,3.09452e-01,3.98856e-01,2.00479e-01,-1.95225e-01,3.56335e-01,1.73697e-01,3.22187e-01,-2.21905e+00,5.67946e-01,-5.05771e-01,
1.07064e+00,1.30762e+00,-5.57673e-02,5.12196e-01,7.59965e-01,6.16156e-01,2.97128e-01,-2.06725e-01,6.13024e-01,-1.34664e-01,-4.91377e-02,1.61859e+00,2.69658e-02,-6.68766e-01,1.37581e-01,-3.68804e-01,
-1.13681e+00,3.74282e-02,-1.40144e+00,7.99719e-01,5.78648e-01,-3.82969e-01,9.16184e-01,8.84844e-02,-5.73566e-01,7.15324e-01,1.04312e-01,-4.20136e-01,8.78497e-01,1.22514e+00,3.84675e-01,9.16954e-01,
6.57953e-01,2.85440e-01,1.18413e+00,5.22799e-01,-3.10917e-01,7.42148e-01,2.67477e-01,-1.16396e-01,3.78849e-01,-1.35103e-01,-1.44705e-01,4.36718e-01,7.51000e-01,-2.42793e+00,5.23111e-01,-7.15400e-01,
2.73787e+00,1.71301e-01,4.61536e-01,9.50623e-01,9.06924e-01,2.25489e+00,-4.57893e-01,-3.16035e-01,1.52441e-01,-1.33317e-01,3.54279e-01,1.69558e+00,-6.02056e-01,4.33350e-01,7.12202e-01,-4.20613e-03,
1.26751e+00,3.52628e-01,1.05697e+00,5.29621e-01,-2.50953e-01,7.39360e-01,-6.90386e-01,9.72509e-04,2.08745e-01,3.06218e-01,2.99502e-02,5.05486e-01,2.73950e-01,-5.99715e-01,7.94913e-01,-3.12128e-01,
-1.23920e-02,-6.99634e-01,2.13791e-01,4.42310e-01,7.12786e-02,-6.10614e-01,3.06728e-01,4.56446e-03,-9.71404e-02,1.70722e-01,-2.66713e-01,-8.58612e-01,-2.84401e-01,2.31654e-01,-2.08049e-01,-4.75888e-01,
-1.27373e+00,-9.04536e-01,-6.08700e-01,2.90133e-01,-8.64270e-01,-3.63299e-02,4.51447e-01,-3.46275e-01,-6.73817e-01,1.01527e+00,3.97544e-01,-5.80264e-01,4.88815e-01,1.45677e+00,8.37539e-01,2.92419e-01,
3.10685e-01,2.10443e-01,-2.35715e-01,2.21933e-01,-4.17629e-01,-3.71731e-01,1.92577e-01,8.74520e-02,1.63505e-02,-1.44623e-02,1.74910e-02,-4.62751e-01,-1.30117e-01,-5.11636e-01,-4.71990e-01,-2.22060e-02,
1.49201e+00,7.90111e-01,3.95133e-01,7.65185e-01,9.18482e-01,9.20387e-01,-1.85989e-01,3.28966e-01,3.59284e-01,-2.96065e-01,-2.42193e-01,1.81306e-01,4.19062e-01,-1.84350e+00,6.94818e-01,-3.50526e-01,
6.49826e-01,-2.71967e+00,2.94920e+00,-5.97954e-01,2.73421e-01,-8.49958e-01,-3.56710e-01,4.28366e-01,-2.39723e-01,1.81426e-01,-3.71976e-01,-1.00166e+00,5.51923e-01,-1.57931e+00,4.48392e-01,1.86355e-02,
3.11763e-01,-3.49642e-01,-3.98414e-01,-9.28755e-02,-2.72388e-02,3.52362e-01,-3.28607e-01,3.31802e-01,-3.64278e-01,-6.50083e-02,3.31341e-01,-3.08125e-01,8.44107e-02,-2.29322e-01,-1.77656e-01,-2.78236e-01,
1.99409e+00,2.15120e+00,-5.96668e-02,1.16432e+00,-1.27738e-01,-3.99545e-02,1.99695e-01,-4.21366e-01,6.45718e-01,-2.18252e-01,2.63630e-01,1.70337e+00,-6.84935e-02,1.07611e-01,-2.03462e-01,-1.04420e+00,
-5.49416e-02,
-1.55545e-01,
5.71576e-03,
-2.31611e-01,
1.36425e-02,
5.93521e-01,
-1.96445e-03,
-3.88116e-02,
-3.14223e-02,
-8.16599e-02,
5.67153e-01,
-6.58928e-02,
5.77926e-02,
3.48343e-01,
-0.00000e+00,
-1.29857e-01,
-7.15426e-03,5.42682e-04,7.38929e-03,4.20896e-03,-9.79118e-03,-1.22334e-02,1.11933e-02,9.25684e-03,1.69288e-02,2.54353e-03,2.48577e-03,1.70448e-03,3.35086e-03,2.12042e-02,-3.29899e-03,-6.55259e-03,
-3.07152e-03,
