// Neural Network File Format by Kyle Julian, Stanford 2016
4,128,1,128,
128,64,32,32,1,
0,
0.0,0.0,0.0,0.0,0.0,0.0,0.0,0.0,0.0,0.0,0.0,0.0,0.0,0.0,0.0,0.0,0.0,0.0,0.0,0.0,0.0,0.0,0.0,0.0,0.0,0.0,0.0,0.0,0.0,0.0,0.0,0.0,0.0,0.0,0.0,0.0,0.0,0.0,0.0,0.0,0.0,0.0,0.0,0.0,0.0,0.0,0.0,0.0,0.0,0.0,0.0,0.0,0.0,0.0,0.0,0.0,0.0,0.0,0.0,0.0,0.0,0.0,0.0,0.0,0.0,0.0,0.0,0.0,0.0,0.0,0.0,0.0,0.0,0.0,0.0,0.0,0.0,0.0,0.0,0.0,0.0,0.0,0.0,0.0,0.0,0.0,0.0,0.0,0.0,0.0,0.0,0.0,0.0,0.0,0.0,0.0,0.0,0.0,0.0,0.0,0.0,0.0,0.0,0.0,0.0,0.0,0.0,0.0,0.0,0.0,0.0,0.0,0.0,0.0,0.0,0.0,0.0,0.0,0.0,0.0,0.0,0.0,0.0,0.0,0.0,0.0,0.0,0.0,
1.0,1.0,1.0,1.0,1.0,1.0,1.0,1.0,1.0,1.0,1.0,1.0,1.0,1.0,1.0,1.0,1.0,1.0,1.0,1.0,1.0,1.0,1.0,1.0,1.0,1.0,1.0,1.0,1.0,1.0,1.0,1.0,1.0,1.0,1.0,1.0,1.0,1.0,1.0,1.0,1.0,1.0,1.0,1.0,1.0,1.0,1.0,1.0,1.0,1.0,1.0,1.0,1.0,1.0,1.0,1.0,1.0,1.0,1.0,1.0,1.0,1.0,1.0,1.0,1.0,1.0,1.0,1.0,1.0,1.0,1.0,1.0,1.0,1.0,1.0,1.0,1.0,1.0,1.0,1.0,1.0,1.0,1.0,1.0,1.0,1.0,1.0,1.0,1.0,1.0,1.0,1.0,1.0,1.0,1.0,1.0,1.0,1.0,1.0,1.0,1.0,1.0,1.0,1.0,1.0,1.0,1.0,1.0,1.0,1.0,1.0,1.0,1.0,1.0,1.0,1.0,1.0,1.0,1.0,1.0,1.0,1.0,1.0,1.0,1.0,1.0,1.0,1.0,
0.0,0.0,0.0,0.0,0.0,0.0,0.0,0.0,0.0,0.0,0.0,0.0,0.0,0.0,0.0,0.0,0.0,0.0,0.0,0.0,0.0,0.0,0.0,0.0,0.0,0.0,0.0,0.0,0.0,0.0,0.0,0.0,0.0,0.0,0.0,0.0,0.0,0.0,0.0,0.0,0.0,0.0,0.0,0.0,0.0,0.0,0.0,0.0,0.0,0.0,0.0,0.0,0.0,0.0,0.0,0.0,0.0,0.0,0.0,0.0,0.0,0.0,0.0,0.0,0.0,0.0,0.0,0.0,0.0,0.0,0.0,0.0,0.0,0.0,0.0,0.0,0.0,0.0,0.0,0.0,0.0,0.0,0.0,0.0,0.0,0.0,0.0,0.0,0.0,0.0,0.0,0.0,0.0,0.0,0.0,0.0,0.0,0.0,0.0,0.0,0.0,0.0,0.0,0.0,0.0,0.0,0.0,0.0,0.0,0.0,0.0,0.0,0.0,0.0,0.0,0.0,0.0,0.0,0.0,0.0,0.0,0.0,0.0,0.0,0.0,0.0,0.0,0.0,0.0,
1.0,1.0,1.0,1.0,1.0,1.0,1.0,1.0,1.0,1.0,1.0,1.0,1.0,1.0,1.0,1.0,1.0,1.0,1.0,1.0,1.0,1.0,1.0,1.0,1.0,1.0,1.0,1.0,1.0,1.0,1.0,1.0,1.0,1.0,1.0,1.0,1.0,1.0,1.0,1.0,1.0,1.0,1.0,1.0,1.0,1.0,1.0,1.0,1.0,1.0,1.0,1.0,1.0,1.0,1.0,1.0,1.0,1.0,1.0,1.0,1.0,1.0,1.0,1.0,1.0,1.0,1.0,1.0,1.0,1.0,1.0,1.0,1.0,1.0,1.0,1.0,1.0,1.0,1.0,1.0,1.0,1.0,1.0,1.0,1.0,1.0,1.0,1.0,1.0,1.0,1.0,1.0,1.0,1.0,1.0,1.0,1.0,1.0,1.0,1.0,1.0,1.0,1.0,1.0,1.0,1.0,1.0,1.0,1.0,1.0,1.0,1.0,1.0,1.0,1.0,1.0,1.0,1.0,1.0,1.0,1.0,1.0,1.0,1.0,1.0,1.0,1.0,1.0,1.0,
3.56642e-01,7.26880e-01,8.43157e-01,6.99021e-01,4.03742e-01,-2.93519e-02,-4.84987e-01,-5.64995e-01,0.00000e+00,0.00000e+00,0.00000e+00,0.00000e+00,0.00000e+00,0.00000e+00,0.00000e+00,0.00000e+00,3.59121e-01,3.54849e-01,-2.70651e-02,-3.17067e-01,-6.12796e-01,-9.67961e-01,-8.39631e-01,-7.66320e-01,0.00000e+00,0.00000e+00,0.00000e+00,0.00000e+00,0.00000e+00,0.00000e+00,0.00000e+00,0.00000e+00,3.91927e-01,2.30681e-01,2.84923e-01,7.90634e-02,1.02436e-01,7.77472e-02,-4.36636e-01,-5.87246e-01,0.00000e+00,0.00000e+00,0.00000e+00,0.00000e+00,0.00000e+00,0.00000e+00,0.00000e+00,0.00000e+00,2.30841e-01,8.24345e-04,2.08901e-01,2.19416e-01,-7.03926e-04,-8.37974e-02,-4.40790e-02,1.56409e-01,0.00000e+00,0.00000e+00,0.00000e+00,0.00000e+00,0.00000e+00,0.00000e+00,0.00000e+00,0.00000e+00,2.15759e-01,-5.16259e-03,-5.57694e-03,8.69030e-02,1.93484e-02,1.20504e-01,2.46429e-02,-3.50661e-02,0.00000e+00,0.00000e+00,0.00000e+00,0.00000e+00,0.00000e+00,0.00000e+00,0.00000e+00,0.00000e+00,5.08052e-02,3.64080e-02,7.43417e-02,3.01108e-02,-5.55413e-02,-2.81176e-02,-6.45043e-02,4.86678e-02,0.00000e+00,0.00000e+00,0.00000e+00,0.00000e+00,0.00000e+00,0.00000e+00,0.00000e+00,0.00000e+00,-6.40954e-02,2.78506e-02,-1.94644e-03,1.18301e-02,-5.27599e-02,-1.63812e-02,-6.30028e-02,-1.21201e-03,0.00000e+00,0.00000e+00,0.00000e+00,0.00000e+00,0.00000e+00,0.00000e+00,0.00000e+00,0.00000e+00,-8.48618e-02,-1.13034e-01,-5.35998e-02,-2.87119e-02,-1.72474e-02,-1.14443e-02,2.12101e-02,-4.20438e-03,0.00000e+00,0.00000e+00,0.00000e+00,0.00000e+00,0.00000e+00,0.00000e+00,0.00000e+00,0.00000e+00,
-5.99933e-01,-5.25357e-01,-5.79766e-02,3.88240e-01,4.18746e-01,7.34652e-01,9.70531e-01,5.07145e-01,0.00000e+00,0.00000e+00,0.00000e+00,0.00000e+00,0.00000e+00,0.00000e+00,0.00000e+00,0.00000e+00,1.46877e-01,-2.00852e-01,-2.48911e-01,-4.27947e-01,-3.80259e-01,-5.59546e-01,-6.30118e-01,-3.97516e-01,0.00000e+00,0.00000e+00,0.00000e+00,0.00000e+00,0.00000e+00,0.00000e+00,0.00000e+00,0.00000e+00,-1.07563e-01,-2.57582e-01,-1.62505e-01,5.70801e-02,-1.14331e-02,7.32741e-02,2.63964e-01,-2.68777e-01,0.00000e+00,0.00000e+00,0.00000e+00,0.00000e+00,0.00000e+00,0.00000e+00,0.00000e+00,0.00000e+00,-2.57408e-01,2.18924e-02,1.28182e-01,7.90050e-02,3.12064e-02,1.20935e-01,1.23697e-01,2.70143e-01,0.00000e+00,0.00000e+00,0.00000e+00,0.00000e+00,0.00000e+00,0.00000e+00,0.00000e+00,0.00000e+00,1.78350e-01,1.73480e-01,3.33581e-01,-5.62484e-02,-3.66056e-02,1.43108e-01,2.87148e-01,2.26310e-01,0.00000e+00,0.00000e+00,0.00000e+00,0.00000e+00,0.00000e+00,0.00000e+00,0.00000e+00,0.00000e+00,1.90162e-01,-3.78706e-02,1.78208e-01,2.99736e-02,6.84628e-02,3.51509e-02,2.99225e-02,9.75511e-02,0.00000e+00,0.00000e+00,0.00000e+00,0.00000e+00,0.00000e+00,0.00000e+00,0.00000e+00,0.00000e+00,1.65554e-01,6.20082e-02,8.09786e-02,7.74259e-02,4.27779e-02,6.59379e-02,1.00715e-01,1.41470e-01,0.00000e+00,0.00000e+00,0.00000e+00,0.00000e+00,0.00000e+00,0.00000e+00,0.00000e+00,0.00000e+00,2.17681e-01,1.74833e-01,1.27864e-01,1.01436e-01,8.45613e-02,2.72055e-02,1.71407e-01,1.84500e-01,0.00000e+00,0.00000e+00,0.00000e+00,0.00000e+00,0.00000e+00,0.00000e+00,0.00000e+00,0.00000e+00,
-5.71813e-02,2.80715e-02,-5.79563e-02,4.31386e-02,5.69323e-03,-1.93944e-02,-3.07511e-02,3.44730e-02,0.00000e+00,0.00000e+00,0.00000e+00,0.00000e+00,0.00000e+00,0.00000e+00,0.00000e+00,0.00000e+00,-2.78487e-02,4.14887e-03,4.37185e-02,4.73789e-02,-5.46572e-02,1.78161e-02,2.61984e-02,3.20439e-02,0.00000e+00,0.00000e+00,0.00000e+00,0.00000e+00,0.00000e+00,0.00000e+00,0.00000e+00,0.00000e+00,-6.24572e-03,3.61831e-02,-2.80093e-02,-5.18488e-02,-4.25419e-02,5.61667e-04,-4.20627e-02,-3.64464e-03,0.00000e+00,0.00000e+00,0.00000e+00,0.00000e+00,0.00000e+00,0.00000e+00,0.00000e+00,0.00000e+00,-3.49678e-02,2.06868e-02,4.14845e-02,-2.56534e-02,3.61483e-02,2.99604e-02,1.44975e-02,-4.01962e-02,0.00000e+00,0.00000e+00,0.00000e+00,0.00000e+00,0.00000e+00,0.00000e+00,0.00000e+00,0.00000e+00,-2.45803e-02,-2.52473e-03,-3.67711e-02,-5.76629e-02,-7.39063e-04,1.33206e-02,-1.67362e-02,6.09532e-03,0.00000e+00,0.00000e+00,0.00000e+00,0.00000e+00,0.00000e+00,0.00000e+00,0.00000e+00,0.00000e+00,2.71403e-02,9.14784e-03,-5.00904e-02,-2.03387e-02,-2.95108e-02,1.28856e-02,2.22680e-02,-2.97128e-02,0.00000e+00,0.00000e+00,0.00000e+00,0.00000e+00,0.00000e+00,0.00000e+00,0.00000e+00,0.00000e+00,-3.19683e-02,3.73579e-02,-3.98702e-02,-1.36285e-02,-2.52505e-02,1.65378e-02,-2.59137e-02,1.34941e-02,0.00000e+00,0.00000e+00,0.00000e+00,0.00000e+00,0.00000e+00,0.00000e+00,0.00000e+00,0.00000e+00,5.75622e-03,-3.18626e-02,-4.94289e-02,-4.65044e-02,4.03897e-02,-4.31522e-02,-5.21090e-03,1.87919e-02,0.00000e+00,0.00000e+00,0.00000e+00,0.00000e+00,0.00000e+00,0.00000e+00,0.00000e+00,0.00000e+00,
-3.24480e-03,4.94404e-02,-3.99537e-02,-1.87563e-02,3.22688e-02,-1.23679e-02,4.51757e-02,3.70956e-02,0.00000e+00,0.00000e+00,0.00000e+00,0.00000e+00,0.00000e+00,0.00000e+00,0.00000e+00,0.00000e+00,-1.81906e-02,-1.99061e-03,-4.30944e-02,-4.90450e-02,8.72432e-03,2.92418e-02,-4.69067e-02,4.69933e-02,0.00000e+00,0.00000e+00,0.00000e+00,0.00000e+00,0.00000e+00,0.00000e+00,0.00000e+00,0.00000e+00,-3.90428e-02,-1.13951e-02,-2.42055e-02,1.51757e-02,5.96757e-03,-3.29468e-02,4.73591e-02,1.96618e-02,0.00000e+00,0.00000e+00,0.00000e+00,0.00000e+00,0.00000e+00,0.00000e+00,0.00000e+00,0.00000e+00,-1.23216e-02,-2.02244e-02,3.79653e-03,-2.47660e-02,3.65374e-02,3.39826e-02,-4.46980e-02,2.18145e-02,0.00000e+00,0.00000e+00,0.00000e+00,0.00000e+00,0.00000e+00,0.00000e+00,0.00000e+00,0.00000e+00,-4.42676e-02,2.98244e-02,4.72325e-02,-3.72264e-02,-4.64684e-02,3.44545e-02,-3.45035e-02,-3.94555e-02,0.00000e+00,0.00000e+00,0.00000e+00,0.00000e+00,0.00000e+00,0.00000e+00,0.00000e+00,0.00000e+00,-1.06902e-02,-4.43578e-02,-2.02633e-02,1.05852e-02,7.85071e-03,3.98970e-03,4.57712e-02,-4.98915e-02,0.00000e+00,0.00000e+00,0.00000e+00,0.00000e+00,0.00000e+00,0.00000e+00,0.00000e+00,0.00000e+00,-3.55802e-05,6.94782e-03,-3.56949e-02,-2.66264e-02,2.40588e-02,-1.46465e-02,-2.62671e-02,-2.37868e-03,0.00000e+00,0.00000e+00,0.00000e+00,0.00000e+00,0.00000e+00,0.00000e+00,0.00000e+00,0.00000e+00,2.23064e-02,-1.58922e-02,9.38689e-03,-3.71507e-02,3.50672e-03,-4.63013e-02,3.93052e-04,3.90620e-03,0.00000e+00,0.00000e+00,0.00000e+00,0.00000e+00,0.00000e+00,0.00000e+00,0.00000e+00,0.00000e+00,
-1.78430e-02,-1.71946e-02,2.23818e-02,-1.61918e-02,-5.23375e-02,-4.46952e-02,2.61492e-02,-4.23763e-02,0.00000e+00,0.00000e+00,0.00000e+00,0.00000e+00,0.00000e+00,0.00000e+00,0.00000e+00,0.00000e+00,1.35954e-02,-5.07853e-02,7.38012e-03,-3.82724e-03,3.40130e-02,-4.59480e-02,4.48061e-02,-1.38224e-03,0.00000e+00,0.00000e+00,0.00000e+00,0.00000e+00,0.00000e+00,0.00000e+00,0.00000e+00,0.00000e+00,2.84282e-02,-5.81913e-03,-1.79587e-02,9.20428e-03,2.56858e-02,2.65213e-02,-5.65825e-03,-5.08731e-02,0.00000e+00,0.00000e+00,0.00000e+00,0.00000e+00,0.00000e+00,0.00000e+00,0.00000e+00,0.00000e+00,-2.51747e-02,3.14613e-02,1.34898e-02,4.26122e-02,3.27151e-02,-1.46048e-03,4.47568e-02,5.26905e-02,0.00000e+00,0.00000e+00,0.00000e+00,0.00000e+00,0.00000e+00,0.00000e+00,0.00000e+00,0.00000e+00,-4.90169e-02,-4.40310e-02,-4.71928e-02,-1.53368e-02,3.77220e-02,5.78282e-03,-3.72583e-02,4.94000e-03,0.00000e+00,0.00000e+00,0.00000e+00,0.00000e+00,0.00000e+00,0.00000e+00,0.00000e+00,0.00000e+00,2.46907e-02,-2.59535e-02,-3.00129e-02,2.62575e-02,-4.75530e-02,1.61620e-02,-3.03048e-02,1.27093e-02,0.00000e+00,0.00000e+00,0.00000e+00,0.00000e+00,0.00000e+00,0.00000e+00,0.00000e+00,0.00000e+00,-1.21175e-02,2.25536e-03,-3.66796e-02,-5.19288e-02,-2.54803e-02,-3.82570e-02,-2.39620e-02,-3.63885e-02,0.00000e+00,0.00000e+00,0.00000e+00,0.00000e+00,0.00000e+00,0.00000e+00,0.00000e+00,0.00000e+00,2.62530e-02,5.26711e-02,1.17086e-02,1.89115e-03,-1.92614e-03,4.62084e-02,4.08329e-02,1.14201e-02,0.00000e+00,0.00000e+00,0.00000e+00,0.00000e+00,0.00000e+00,0.00000e+00,0.00000e+00,0.00000e+00,
7.46044e-01,5.09216e-01,2.25098e-02,-6.57090e-01,-7.57867e-01,-5.41826e-01,4.24596e-01,7.77336e-01,0.00000e+00,0.00000e+00,0.00000e+00,0.00000e+00,0.00000e+00,0.00000e+00,0.00000e+00,0.00000e+00,6.04152e-01,1.86848e-01,-2.37845e-01,-1.25680e+00,-8.94755e-01,-3.91793e-01,6.76614e-01,7.89343e-01,0.00000e+00,0.00000e+00,0.00000e+00,0.00000e+00,0.00000e+00,0.00000e+00,0.00000e+00,0.00000e+00,-8.25716e-02,-5.67613e-02,-4.47812e-02,-3.36747e-01,-4.14361e-01,-6.40443e-02,9.18851e-02,-1.39264e-01,0.00000e+00,0.00000e+00,0.00000e+00,0.00000e+00,0.00000e+00,0.00000e+00,0.00000e+00,0.00000e+00,3.86385e-03,1.29547e-01,1.73697e-01,3.18194e-02,-2.31941e-01,-2.96859e-01,-4.09213e-01,-3.91210e-01,0.00000e+00,0.00000e+00,0.00000e+00,0.00000e+00,0.00000e+00,0.00000e+00,0.00000e+00,0.00000e+00,1.21012e-01,-2.32122e-02,2.08527e-02,7.94099e-02,1.10034e-01,1.56990e-01,-3.30228e-02,-2.37133e-01,0.00000e+00,0.00000e+00,0.00000e+00,0.00000e+00,0.00000e+00,0.00000e+00,0.00000e+00,0.00000e+00,3.89014e-02,2.28667e-02,7.95520e-02,1.17285e-01,7.64823e-02,4.22378e-02,3.11339e-02,-1.54430e-02,0.00000e+00,0.00000e+00,0.00000e+00,0.00000e+00,0.00000e+00,0.00000e+00,0.00000e+00,0.00000e+00,1.39945e-01,2.36533e-03,9.75486e-02,1.33357e-01,6.29878e-02,1.05411e-01,2.19001e-02,7.14674e-02,0.00000e+00,0.00000e+00,0.00000e+00,0.00000e+00,0.00000e+00,0.00000e+00,0.00000e+00,0.00000e+00,8.45615e-02,6.25509e-02,1.48200e-01,1.81891e-01,4.77499e-02,1.65106e-01,1.35346e-01,6.14097e-02,0.00000e+00,0.00000e+00,0.00000e+00,0.00000e+00,0.00000e+00,0.00000e+00,0.00000e+00,0.00000e+00,
4.99140e-02,-2.69829e-02,-4.98506e-02,4.14058e-02,-4.99218e-02,2.05055e-02,-1.71428e-02,2.21847e-02,0.00000e+00,0.00000e+00,0.00000e+00,0.00000e+00,0.00000e+00,0.00000e+00,0.00000e+00,0.00000e+00,-1.29422e-02,2.97014e-02,1.92135e-02,1.10151e-03,-1.85857e-02,-4.04637e-02,3.57191e-02,-2.40276e-02,0.00000e+00,0.00000e+00,0.00000e+00,0.00000e+00,0.00000e+00,0.00000e+00,0.00000e+00,0.00000e+00,-5.38385e-02,-2.48858e-02,-5.05952e-02,5.71001e-03,-5.65938e-02,4.49491e-02,-4.96903e-02,-3.39558e-02,0.00000e+00,0.00000e+00,0.00000e+00,0.00000e+00,0.00000e+00,0.00000e+00,0.00000e+00,0.00000e+00,3.19970e-02,3.35353e-02,4.92037e-02,-2.22619e-02,3.33806e-02,-5.34586e-02,-4.91918e-02,4.27617e-02,0.00000e+00,0.00000e+00,0.00000e+00,0.00000e+00,0.00000e+00,0.00000e+00,0.00000e+00,0.00000e+00,-2.22862e-02,-4.11684e-02,3.57565e-02,-4.15764e-02,3.78258e-02,-2.58650e-02,-2.40336e-02,2.61525e-02,0.00000e+00,0.00000e+00,0.00000e+00,0.00000e+00,0.00000e+00,0.00000e+00,0.00000e+00,0.00000e+00,-1.95757e-02,-1.77120e-03,1.23777e-02,3.26978e-02,-2.67775e-02,4.69604e-02,2.50219e-02,-5.41209e-02,0.00000e+00,0.00000e+00,0.00000e+00,0.00000e+00,0.00000e+00,0.00000e+00,0.00000e+00,0.00000e+00,2.88214e-02,3.85923e-02,-5.60936e-02,4.58945e-02,-3.45496e-02,-4.62580e-02,4.73184e-02,2.99096e-02,0.00000e+00,0.00000e+00,0.00000e+00,0.00000e+00,0.00000e+00,0.00000e+00,0.00000e+00,0.00000e+00,3.57291e-02,-5.06692e-02,2.25491e-03,4.75816e-02,3.35781e-02,4.70729e-03,-5.13899e-02,-2.82645e-02,0.00000e+00,0.00000e+00,0.00000e+00,0.00000e+00,0.00000e+00,0.00000e+00,0.00000e+00,0.00000e+00,
3.76792e-02,9.04979e-03,-2.60623e-02,3.53214e-02,-3.01517e-02,3.48987e-02,-5.22744e-02,9.72193e-04,0.00000e+00,0.00000e+00,0.00000e+00,0.00000e+00,0.00000e+00,0.00000e+00,0.00000e+00,0.00000e+00,2.84891e-02,-3.44987e-02,-1.30115e-03,1.03985e-02,1.72689e-02,3.21886e-03,-2.79163e-03,-5.32360e-02,0.00000e+00,0.00000e+00,0.00000e+00,0.00000e+00,0.00000e+00,0.00000e+00,0.00000e+00,0.00000e+00,-2.81216e-02,-1.28499e-02,-4.05558e-02,-3.70959e-02,3.49455e-02,4.59128e-02,-3.22741e-02,-1.11715e-03,0.00000e+00,0.00000e+00,0.00000e+00,0.00000e+00,0.00000e+00,0.00000e+00,0.00000e+00,0.00000e+00,-2.42792e-02,3.69191e-02,4.43562e-03,1.40732e-02,-1.22682e-02,2.45081e-02,1.63550e-02,-1.42249e-03,0.00000e+00,0.00000e+00,0.00000e+00,0.00000e+00,0.00000e+00,0.00000e+00,0.00000e+00,0.00000e+00,-1.87284e-02,-6.77513e-03,-2.22571e-02,-1.67287e-02,1.32584e-02,4.88701e-02,4.03233e-02,-5.17648e-02,0.00000e+00,0.00000e+00,0.00000e+00,0.00000e+00,0.00000e+00,0.00000e+00,0.00000e+00,0.00000e+00,7.05268e-04,4.43919e-02,-8.67730e-03,-5.09838e-02,3.61637e-02,-4.41125e-02,3.72252e-02,-2.79441e-02,0.00000e+00,0.00000e+00,0.00000e+00,0.00000e+00,0.00000e+00,0.00000e+00,0.00000e+00,0.00000e+00,-3.90094e-02,-5.22095e-02,2.43741e-02,8.57495e-04,-2.92376e-02,-5.13919e-02,-5.00120e-02,-4.22189e-02,0.00000e+00,0.00000e+00,0.00000e+00,0.00000e+00,0.00000e+00,0.00000e+00,0.00000e+00,0.00000e+00,-2.21008e-02,-5.24544e-02,8.45419e-03,-3.57829e-02,2.57382e-02,-5.95249e-03,1.34386e-04,2.26844e-02,0.00000e+00,0.00000e+00,0.00000e+00,0.00000e+00,0.00000e+00,0.00000e+00,0.00000e+00,0.00000e+00,
-2.23904e-02,-4.76181e-02,-2.04586e-04,-5.23777e-02,-1.89744e-02,4.13995e-02,-2.41471e-02,3.00076e-02,0.00000e+00,0.00000e+00,0.00000e+00,0.00000e+00,0.00000e+00,0.00000e+00,0.00000e+00,0.00000e+00,3.79883e-03,-5.54902e-02,-2.52220e-02,-3.11659e-02,-3.84731e-02,4.44035e-02,1.21238e-02,4.64814e-02,0.00000e+00,0.00000e+00,0.00000e+00,0.00000e+00,0.00000e+00,0.00000e+00,0.00000e+00,0.00000e+00,1.36726e-02,-3.24880e-02,-4.08750e-02,-2.69183e-02,-5.48804e-02,4.17784e-02,3.29588e-02,5.90067e-03,0.00000e+00,0.00000e+00,0.00000e+00,0.00000e+00,0.00000e+00,0.00000e+00,0.00000e+00,0.00000e+00,4.64745e-02,-3.75859e-04,4.68029e-02,-3.15706e-02,4.54088e-03,4.55770e-02,1.83194e-04,-6.13739e-03,0.00000e+00,0.00000e+00,0.00000e+00,0.00000e+00,0.00000e+00,0.00000e+00,0.00000e+00,0.00000e+00,-3.32030e-02,5.00085e-03,1.68726e-02,3.90858e-02,3.53637e-02,-3.48424e-02,-1.45854e-03,-2.86164e-02,0.00000e+00,0.00000e+00,0.00000e+00,0.00000e+00,0.00000e+00,0.00000e+00,0.00000e+00,0.00000e+00,-5.58187e-02,9.63555e-03,-4.30706e-02,-1.81852e-02,1.17745e-02,-2.03209e-02,-3.26191e-02,1.32126e-02,0.00000e+00,0.00000e+00,0.00000e+00,0.00000e+00,0.00000e+00,0.00000e+00,0.00000e+00,0.00000e+00,1.98888e-02,-1.63717e-03,-2.27682e-02,1.24179e-02,-1.84936e-02,3.40614e-03,1.45690e-02,2.05029e-03,0.00000e+00,0.00000e+00,0.00000e+00,0.00000e+00,0.00000e+00,0.00000e+00,0.00000e+00,0.00000e+00,-2.89218e-02,-4.84200e-02,-5.34520e-02,-5.47222e-02,4.65914e-02,-1.27212e-02,-1.91750e-02,2.06368e-02,0.00000e+00,0.00000e+00,0.00000e+00,0.00000e+00,0.00000e+00,0.00000e+00,0.00000e+00,0.00000e+00,
-4.35075e-02,-9.35686e-03,3.76873e-02,2.32976e-02,2.81353e-02,2.97285e-02,-3.62779e-02,-5.25869e-02,0.00000e+00,0.00000e+00,0.00000e+00,0.00000e+00,0.00000e+00,0.00000e+00,0.00000e+00,0.00000e+00,-3.16419e-02,-4.85524e-02,1.31208e-02,-4.60216e-02,-5.77852e-03,5.04646e-03,-4.80400e-02,4.89398e-02,0.00000e+00,0.00000e+00,0.00000e+00,0.00000e+00,0.00000e+00,0.00000e+00,0.00000e+00,0.00000e+00,-4.49730e-02,5.26088e-02,4.50170e-02,1.39819e-03,-2.07248e-03,-1.05528e-02,5.19251e-02,3.09373e-02,0.00000e+00,0.00000e+00,0.00000e+00,0.00000e+00,0.00000e+00,0.00000e+00,0.00000e+00,0.00000e+00,-2.92272e-02,-8.11596e-03,-5.61815e-03,-7.73178e-03,3.12077e-03,-2.35683e-02,-4.72975e-02,-3.82977e-02,0.00000e+00,0.00000e+00,0.00000e+00,0.00000e+00,0.00000e+00,0.00000e+00,0.00000e+00,0.00000e+00,-4.17040e-02,-1.92239e-02,4.69903e-02,4.33681e-03,-3.63066e-02,4.65745e-02,-4.34692e-02,-2.01562e-02,0.00000e+00,0.00000e+00,0.00000e+00,0.00000e+00,0.00000e+00,0.00000e+00,0.00000e+00,0.00000e+00,5.23778e-02,-1.74944e-02,-1.56252e-02,-4.89518e-02,-4.55006e-02,4.04898e-02,3.24330e-02,-5.27443e-02,0.00000e+00,0.00000e+00,0.00000e+00,0.00000e+00,0.00000e+00,0.00000e+00,0.00000e+00,0.00000e+00,-2.71436e-02,2.11858e-02,-1.57166e-02,1.81564e-02,-4.30238e-02,-4.73419e-02,2.24658e-03,-1.89111e-02,0.00000e+00,0.00000e+00,0.00000e+00,0.00000e+00,0.00000e+00,0.00000e+00,0.00000e+00,0.00000e+00,3.11006e-02,5.00571e-02,3.86504e-02,2.71247e-02,7.49380e-03,-3.42199e-02,4.21013e-02,-4.26815e-02,0.00000e+00,0.00000e+00,0.00000e+00,0.00000e+00,0.00000e+00,0.00000e+00,0.00000e+00,0.00000e+00,
-1.47808e-02,-1.29484e-02,2.64358e-02,-4.52258e-02,1.20718e-02,-1.38135e-02,6.61150e-03,-3.76507e-02,0.00000e+00,0.00000e+00,0.00000e+00,0.00000e+00,0.00000e+00,0.00000e+00,0.00000e+00,0.00000e+00,2.88432e-02,-9.45834e-03,3.54147e-02,3.57628e-03,4.56208e-02,-8.76681e-03,1.12827e-02,-1.81145e-02,0.00000e+00,0.00000e+00,0.00000e+00,0.00000e+00,0.00000e+00,0.00000e+00,0.00000e+00,0.00000e+00,4.32631e-02,-2.00112e-03,-4.62710e-02,-3.07318e-02,3.91366e-02,-5.29237e-02,2.27387e-02,-1.03914e-02,0.00000e+00,0.00000e+00,0.00000e+00,0.00000e+00,0.00000e+00,0.00000e+00,0.00000e+00,0.00000e+00,2.75888e-02,-1.77451e-02,6.72253e-03,1.74230e-02,1.17625e-02,-1.45588e-02,-1.80066e-02,-5.94493e-03,0.00000e+00,0.00000e+00,0.00000e+00,0.00000e+00,0.00000e+00,0.00000e+00,0.00000e+00,0.00000e+00,-3.61373e-02,-2.84218e-02,-2.32460e-02,-4.43733e-02,5.13738e-02,-4.08539e-03,-5.46301e-02,1.79165e-02,0.00000e+00,0.00000e+00,0.00000e+00,0.00000e+00,0.00000e+00,0.00000e+00,0.00000e+00,0.00000e+00,-5.60154e-02,-6.55003e-03,-6.74647e-03,4.98546e-02,-9.63435e-03,5.35194e-02,1.04906e-02,2.22857e-02,0.00000e+00,0.00000e+00,0.00000e+00,0.00000e+00,0.00000e+00,0.00000e+00,0.00000e+00,0.00000e+00,3.67544e-02,-5.51061e-02,5.95445e-04,3.66924e-02,-1.26999e-02,-4.10371e-02,4.06730e-02,-5.34255e-02,0.00000e+00,0.00000e+00,0.00000e+00,0.00000e+00,0.00000e+00,0.00000e+00,0.00000e+00,0.00000e+00,-3.40289e-02,-1.77015e-02,-5.61169e-02,-5.05016e-02,2.61717e-02,-5.52215e-02,3.04329e-02,2.31472e-02,0.00000e+00,0.00000e+00,0.00000e+00,0.00000e+00,0.00000e+00,0.00000e+00,0.00000e+00,0.00000e+00,
2.39374e-01,4.27798e-01,1.75359e-02,-8.41893e-02,-2.60027e-02,-2.24149e-01,-1.19290e-01,-4.24481e-01,0.00000e+00,0.00000e+00,0.00000e+00,0.00000e+00,0.00000e+00,0.00000e+00,0.00000e+00,0.00000e+00,7.43642e-01,8.75108e-01,6.98261e-01,8.62971e-01,8.52821e-01,3.12717e-01,-4.01106e-04,2.35842e-02,0.00000e+00,0.00000e+00,0.00000e+00,0.00000e+00,0.00000e+00,0.00000e+00,0.00000e+00,0.00000e+00,-2.84602e-01,5.63724e-02,-1.32420e-01,-1.40005e-01,-2.42608e-01,-2.23409e-01,-1.88347e-01,-4.30357e-01,0.00000e+00,0.00000e+00,0.00000e+00,0.00000e+00,0.00000e+00,0.00000e+00,0.00000e+00,0.00000e+00,-2.70188e-01,-1.53780e-01,-1.62568e-01,-2.90898e-01,7.17063e-03,1.39470e-01,-7.16152e-03,-2.92097e-02,0.00000e+00,0.00000e+00,0.00000e+00,0.00000e+00,0.00000e+00,0.00000e+00,0.00000e+00,0.00000e+00,-5.96418e-01,-3.10944e-01,1.15451e-02,1.05733e-01,9.44647e-02,1.16787e-01,9.26457e-02,1.79243e-01,0.00000e+00,0.00000e+00,0.00000e+00,0.00000e+00,0.00000e+00,0.00000e+00,0.00000e+00,0.00000e+00,-3.55990e-01,-1.79409e-01,6.97979e-03,1.37320e-01,1.82493e-01,1.63914e-01,2.13124e-01,3.16995e-01,0.00000e+00,0.00000e+00,0.00000e+00,0.00000e+00,0.00000e+00,0.00000e+00,0.00000e+00,0.00000e+00,-6.30023e-02,-7.41907e-02,7.89371e-02,-3.48942e-02,1.73056e-01,1.79748e-01,1.74766e-01,2.50395e-01,0.00000e+00,0.00000e+00,0.00000e+00,0.00000e+00,0.00000e+00,0.00000e+00,0.00000e+00,0.00000e+00,-5.17607e-02,-6.38819e-02,5.23088e-02,1.39827e-01,-3.12905e-02,1.49752e-01,2.37951e-01,1.86336e-01,0.00000e+00,0.00000e+00,0.00000e+00,0.00000e+00,0.00000e+00,0.00000e+00,0.00000e+00,0.00000e+00,
-1.80339e-02,4.64268e-03,9.82755e-03,-4.44333e-02,-5.65111e-03,-3.50632e-02,-2.30805e-02,2.82493e-02,0.00000e+00,0.00000e+00,0.00000e+00,0.00000e+00,0.00000e+00,0.00000e+00,0.00000e+00,0.00000e+00,-3.33371e-02,-2.91073e-02,3.24830e-02,-3.61862e-02,-3.40459e-02,4.50635e-02,4.27831e-02,-3.13488e-02,0.00000e+00,0.00000e+00,0.00000e+00,0.00000e+00,0.00000e+00,0.00000e+00,0.00000e+00,0.00000e+00,-4.30957e-02,5.86930e-03,4.31140e-02,1.52609e-02,1.42074e-03,1.17969e-02,-2.49382e-02,-4.36185e-02,0.00000e+00,0.00000e+00,0.00000e+00,0.00000e+00,0.00000e+00,0.00000e+00,0.00000e+00,0.00000e+00,-5.87370e-02,-2.02366e-02,1.36188e-02,4.98458e-03,-2.08761e-02,-8.11069e-03,-5.74700e-02,-1.80839e-02,0.00000e+00,0.00000e+00,0.00000e+00,0.00000e+00,0.00000e+00,0.00000e+00,0.00000e+00,0.00000e+00,3.36670e-03,-2.65445e-03,-2.96384e-02,4.02990e-03,1.45998e-02,-5.13293e-02,1.31483e-02,4.81017e-03,0.00000e+00,0.00000e+00,0.00000e+00,0.00000e+00,0.00000e+00,0.00000e+00,0.00000e+00,0.00000e+00,-2.92083e-02,-5.68935e-02,3.36206e-02,-3.58694e-02,-3.56907e-02,1.70331e-02,-2.16193e-02,2.34197e-02,0.00000e+00,0.00000e+00,0.00000e+00,0.00000e+00,0.00000e+00,0.00000e+00,0.00000e+00,0.00000e+00,-1.81105e-02,2.84394e-02,1.52063e-02,1.32528e-02,2.70910e-02,-1.04151e-02,3.51568e-02,-8.85478e-03,0.00000e+00,0.00000e+00,0.00000e+00,0.00000e+00,0.00000e+00,0.00000e+00,0.00000e+00,0.00000e+00,-5.85575e-02,-2.20386e-02,2.06987e-02,1.68409e-02,2.11656e-02,-2.71732e-02,3.13785e-02,-3.82310e-02,0.00000e+00,0.00000e+00,0.00000e+00,0.00000e+00,0.00000e+00,0.00000e+00,0.00000e+00,0.00000e+00,
3.85186e-01,1.93312e-01,2.02101e-01,1.45183e-01,-2.15490e-01,-3.98448e-01,-3.01084e-01,2.16266e-01,0.00000e+00,0.00000e+00,0.00000e+00,0.00000e+00,0.00000e+00,0.00000e+00,0.00000e+00,0.00000e+00,7.11346e-01,7.00489e-01,3.47391e-01,-2.13132e-01,-7.16652e-01,-8.88879e-01,-7.96965e-01,-5.28827e-01,0.00000e+00,0.00000e+00,0.00000e+00,0.00000e+00,0.00000e+00,0.00000e+00,0.00000e+00,0.00000e+00,1.77109e-01,9.92533e-04,-3.13425e-02,-1.35122e-01,-1.25256e-02,1.54902e-01,2.76664e-01,3.10620e-01,0.00000e+00,0.00000e+00,0.00000e+00,0.00000e+00,0.00000e+00,0.00000e+00,0.00000e+00,0.00000e+00,4.57961e-02,2.39313e-02,-9.87840e-02,-1.59540e-01,5.16974e-02,7.15930e-02,-4.62851e-03,1.85228e-01,0.00000e+00,0.00000e+00,0.00000e+00,0.00000e+00,0.00000e+00,0.00000e+00,0.00000e+00,0.00000e+00,-1.16565e-02,-1.19114e-01,-1.53732e-02,1.71725e-02,4.23836e-02,1.24078e-02,5.24277e-02,2.84588e-01,0.00000e+00,0.00000e+00,0.00000e+00,0.00000e+00,0.00000e+00,0.00000e+00,0.00000e+00,0.00000e+00,-1.01812e-02,-2.34562e-02,6.10556e-02,-2.82820e-02,5.66963e-02,-2.21626e-02,6.02146e-02,1.50252e-01,0.00000e+00,0.00000e+00,0.00000e+00,0.00000e+00,0.00000e+00,0.00000e+00,0.00000e+00,0.00000e+00,-2.87522e-02,-4.41735e-04,5.80366e-02,-8.59404e-03,4.66904e-02,5.31891e-02,2.34668e-02,1.13707e-01,0.00000e+00,0.00000e+00,0.00000e+00,0.00000e+00,0.00000e+00,0.00000e+00,0.00000e+00,0.00000e+00,3.32759e-02,-1.10145e-03,-2.62369e-03,7.43299e-02,-2.23784e-02,-3.20278e-03,5.73598e-02,-1.77525e-02,0.00000e+00,0.00000e+00,0.00000e+00,0.00000e+00,0.00000e+00,0.00000e+00,0.00000e+00,0.00000e+00,
7.19959e-03,-8.86997e-03,6.11817e-03,4.39391e-02,-6.62121e-03,-3.97634e-02,2.42277e-02,1.41348e-02,0.00000e+00,0.00000e+00,0.00000e+00,0.00000e+00,0.00000e+00,0.00000e+00,0.00000e+00,0.00000e+00,4.08805e-02,-3.78222e-02,-5.06343e-02,-2.03932e-02,1.86123e-02,-1.03738e-02,2.06348e-02,-3.81370e-02,0.00000e+00,0.00000e+00,0.00000e+00,0.00000e+00,0.00000e+00,0.00000e+00,0.00000e+00,0.00000e+00,-7.01360e-03,3.18895e-02,1.16387e-03,-9.13493e-03,7.74579e-03,2.79532e-02,-3.92961e-02,-3.82647e-02,0.00000e+00,0.00000e+00,0.00000e+00,0.00000e+00,0.00000e+00,0.00000e+00,0.00000e+00,0.00000e+00,-4.95228e-02,-1.15204e-02,5.14349e-02,4.28738e-02,-4.58795e-02,-4.40627e-02,-1.06317e-02,3.86530e-02,0.00000e+00,0.00000e+00,0.00000e+00,0.00000e+00,0.00000e+00,0.00000e+00,0.00000e+00,0.00000e+00,3.68262e-02,2.12304e-02,-1.68193e-02,5.42034e-03,1.33347e-02,-2.20260e-02,-1.25686e-02,-5.28634e-02,0.00000e+00,0.00000e+00,0.00000e+00,0.00000e+00,0.00000e+00,0.00000e+00,0.00000e+00,0.00000e+00,-3.31490e-02,-5.00730e-02,-2.04881e-02,3.27804e-02,-3.12507e-02,-1.49205e-02,2.15405e-02,-1.76359e-02,0.00000e+00,0.00000e+00,0.00000e+00,0.00000e+00,0.00000e+00,0.00000e+00,0.00000e+00,0.00000e+00,3.45025e-02,-2.77922e-02,-4.16062e-02,1.34599e-02,-4.25423e-02,-1.57607e-02,-4.68330e-02,2.18504e-02,0.00000e+00,0.00000e+00,0.00000e+00,0.00000e+00,0.00000e+00,0.00000e+00,0.00000e+00,0.00000e+00,-3.62255e-02,4.09985e-02,2.82864e-02,-5.14877e-02,-1.39294e-02,2.46579e-02,-3.38581e-02,2.13453e-02,0.00000e+00,0.00000e+00,0.00000e+00,0.00000e+00,0.00000e+00,0.00000e+00,0.00000e+00,0.00000e+00,
-2.91588e-02,1.55466e-02,3.96458e-02,-2.05086e-02,5.17802e-03,4.96721e-02,4.80380e-04,3.85154e-02,0.00000e+00,0.00000e+00,0.00000e+00,0.00000e+00,0.00000e+00,0.00000e+00,0.00000e+00,0.00000e+00,-5.23126e-02,-4.85125e-02,-8.71118e-04,3.33002e-02,-1.94614e-02,-9.45330e-05,-4.32779e-02,1.20874e-02,0.00000e+00,0.00000e+00,0.00000e+00,0.00000e+00,0.00000e+00,0.00000e+00,0.00000e+00,0.00000e+00,4.67334e-03,-4.69053e-02,1.13560e-02,-2.25495e-02,4.02836e-02,-9.92913e-03,-3.31885e-02,1.33199e-03,0.00000e+00,0.00000e+00,0.00000e+00,0.00000e+00,0.00000e+00,0.00000e+00,0.00000e+00,0.00000e+00,6.37515e-03,-2.51982e-04,-4.15008e-02,1.40712e-02,-3.45160e-02,-1.09793e-02,4.69460e-02,-2.11080e-02,0.00000e+00,0.00000e+00,0.00000e+00,0.00000e+00,0.00000e+00,0.00000e+00,0.00000e+00,0.00000e+00,-1.80153e-02,-3.75621e-02,2.08368e-02,7.14519e-03,-3.98920e-02,-1.91826e-02,-1.68130e-02,2.53367e-02,0.00000e+00,0.00000e+00,0.00000e+00,0.00000e+00,0.00000e+00,0.00000e+00,0.00000e+00,0.00000e+00,2.96393e-03,-2.59295e-03,9.94712e-04,-1.93676e-02,4.32066e-02,-4.12728e-02,4.87339e-02,1.87402e-02,0.00000e+00,0.00000e+00,0.00000e+00,0.00000e+00,0.00000e+00,0.00000e+00,0.00000e+00,0.00000e+00,-3.43343e-03,-5.32812e-02,3.21081e-03,-4.83918e-02,1.59539e-02,-3.15930e-02,-1.16797e-02,2.02566e-02,0.00000e+00,0.00000e+00,0.00000e+00,0.00000e+00,0.00000e+00,0.00000e+00,0.00000e+00,0.00000e+00,-9.92627e-03,-2.01957e-02,1.80926e-02,-3.63850e-02,-1.25788e-02,1.93682e-02,-4.38024e-02,2.25254e-02,0.00000e+00,0.00000e+00,0.00000e+00,0.00000e+00,0.00000e+00,0.00000e+00,0.00000e+00,0.00000e+00,
1.45691e-01,-2.27014e-01,-5.07481e-01,-4.47623e-01,-3.17741e-01,-1.69769e-01,-2.04120e-01,1.27336e-01,0.00000e+00,0.00000e+00,0.00000e+00,0.00000e+00,0.00000e+00,0.00000e+00,0.00000e+00,0.00000e+00,9.12252e-01,8.64727e-01,5.00864e-01,3.95702e-01,2.38124e-01,-7.87583e-02,-1.70152e-01,-2.94089e-01,0.00000e+00,0.00000e+00,0.00000e+00,0.00000e+00,0.00000e+00,0.00000e+00,0.00000e+00,0.00000e+00,8.57583e-01,6.35122e-01,5.09419e-01,2.50014e-01,1.80674e-02,-3.15796e-02,-3.03626e-03,2.72357e-01,0.00000e+00,0.00000e+00,0.00000e+00,0.00000e+00,0.00000e+00,0.00000e+00,0.00000e+00,0.00000e+00,3.39065e-01,7.61709e-02,2.16256e-01,2.69299e-01,-2.39745e-02,-3.95992e-02,-1.57047e-01,-3.21646e-02,0.00000e+00,0.00000e+00,0.00000e+00,0.00000e+00,0.00000e+00,0.00000e+00,0.00000e+00,0.00000e+00,3.68258e-01,9.93993e-02,-1.44237e-02,4.27898e-02,-3.95805e-02,-1.17592e-01,-2.04546e-01,-9.33945e-02,0.00000e+00,0.00000e+00,0.00000e+00,0.00000e+00,0.00000e+00,0.00000e+00,0.00000e+00,0.00000e+00,1.85637e-01,4.35778e-02,3.89866e-02,-8.07494e-02,-1.43635e-01,-3.72012e-02,-1.29053e-01,-3.58979e-02,0.00000e+00,0.00000e+00,0.00000e+00,0.00000e+00,0.00000e+00,0.00000e+00,0.00000e+00,0.00000e+00,3.44326e-03,3.48417e-02,-6.50109e-02,-1.84114e-02,-9.43316e-02,-1.00997e-01,-9.32910e-02,-6.17904e-02,0.00000e+00,0.00000e+00,0.00000e+00,0.00000e+00,0.00000e+00,0.00000e+00,0.00000e+00,0.00000e+00,-5.16983e-02,-6.78008e-02,-1.26967e-01,-8.66031e-02,-2.35299e-02,-2.64132e-02,-6.39204e-02,-1.35983e-01,0.00000e+00,0.00000e+00,0.00000e+00,0.00000e+00,0.00000e+00,0.00000e+00,0.00000e+00,0.00000e+00,
2.94187e-01,2.61568e-01,4.77300e-01,5.48128e-01,6.80881e-03,-3.86451e-01,-8.09298e-01,-5.68662e-01,0.00000e+00,0.00000e+00,0.00000e+00,0.00000e+00,0.00000e+00,0.00000e+00,0.00000e+00,0.00000e+00,-7.90382e-01,-7.62880e-01,-6.53232e-01,-7.54349e-01,-4.66081e-01,-3.66852e-01,-2.53218e-01,-2.45844e-01,0.00000e+00,0.00000e+00,0.00000e+00,0.00000e+00,0.00000e+00,0.00000e+00,0.00000e+00,0.00000e+00,2.61166e-01,5.87229e-02,1.31182e-01,4.76523e-02,1.57788e-01,1.88380e-01,-1.24103e-01,-4.69834e-02,0.00000e+00,0.00000e+00,0.00000e+00,0.00000e+00,0.00000e+00,0.00000e+00,0.00000e+00,0.00000e+00,2.73371e-01,1.87040e-01,2.69619e-01,9.58586e-02,2.55274e-01,2.31332e-01,3.17076e-01,2.49863e-01,0.00000e+00,0.00000e+00,0.00000e+00,0.00000e+00,0.00000e+00,0.00000e+00,0.00000e+00,0.00000e+00,1.92921e-01,9.74206e-02,1.46946e-01,1.69253e-01,3.35122e-02,1.84220e-01,3.56598e-01,3.69298e-01,0.00000e+00,0.00000e+00,0.00000e+00,0.00000e+00,0.00000e+00,0.00000e+00,0.00000e+00,0.00000e+00,1.88399e-01,9.02632e-02,-9.75936e-04,1.61477e-01,2.08416e-01,8.31238e-02,2.07955e-01,1.85504e-01,0.00000e+00,0.00000e+00,0.00000e+00,0.00000e+00,0.00000e+00,0.00000e+00,0.00000e+00,0.00000e+00,7.68326e-02,9.14819e-02,1.03722e-01,9.27813e-02,1.23856e-01,1.07672e-01,1.85181e-01,1.77977e-01,0.00000e+00,0.00000e+00,0.00000e+00,0.00000e+00,0.00000e+00,0.00000e+00,0.00000e+00,0.00000e+00,1.88939e-01,1.38163e-01,1.90844e-01,2.61465e-01,1.54403e-01,1.98085e-01,1.47536e-01,1.42930e-01,0.00000e+00,0.00000e+00,0.00000e+00,0.00000e+00,0.00000e+00,0.00000e+00,0.00000e+00,0.00000e+00,
-2.59063e-02,-4.93156e-02,4.04910e-02,-1.76930e-02,4.86972e-02,-2.34795e-02,-1.17459e-02,3.12902e-02,0.00000e+00,0.00000e+00,0.00000e+00,0.00000e+00,0.00000e+00,0.00000e+00,0.00000e+00,0.00000e+00,-4.97270e-02,1.39389e-02,-3.67426e-02,-2.60058e-02,-1.54232e-02,-1.95545e-02,-4.57114e-02,4.69857e-02,0.00000e+00,0.00000e+00,0.00000e+00,0.00000e+00,0.00000e+00,0.00000e+00,0.00000e+00,0.00000e+00,-1.40510e-02,-8.09728e-03,-2.24591e-02,2.83805e-02,-5.01196e-02,5.48987e-03,-3.22822e-02,-1.63497e-03,0.00000e+00,0.00000e+00,0.00000e+00,0.00000e+00,0.00000e+00,0.00000e+00,0.00000e+00,0.00000e+00,-4.18915e-02,2.60378e-02,-3.91375e-02,3.17339e-02,-3.30734e-02,-4.63521e-02,3.80936e-02,-5.20027e-02,0.00000e+00,0.00000e+00,0.00000e+00,0.00000e+00,0.00000e+00,0.00000e+00,0.00000e+00,0.00000e+00,-2.65504e-02,-1.86401e-02,-2.71259e-02,1.93188e-03,1.91178e-02,-1.02218e-02,8.97605e-03,8.20808e-03,0.00000e+00,0.00000e+00,0.00000e+00,0.00000e+00,0.00000e+00,0.00000e+00,0.00000e+00,0.00000e+00,-1.26534e-02,-9.17342e-03,-2.09640e-02,5.30535e-02,-2.99299e-02,3.35768e-03,-2.20611e-02,3.66985e-02,0.00000e+00,0.00000e+00,0.00000e+00,0.00000e+00,0.00000e+00,0.00000e+00,0.00000e+00,0.00000e+00,4.10330e-02,1.09848e-02,-1.21487e-03,-1.09234e-02,3.18520e-02,5.17803e-02,2.24482e-04,-9.78504e-03,0.00000e+00,0.00000e+00,0.00000e+00,0.00000e+00,0.00000e+00,0.00000e+00,0.00000e+00,0.00000e+00,2.22565e-02,-3.61924e-02,5.99594e-03,1.32920e-02,-2.39222e-02,-2.80077e-02,-2.00074e-02,-1.01632e-03,0.00000e+00,0.00000e+00,0.00000e+00,0.00000e+00,0.00000e+00,0.00000e+00,0.00000e+00,0.00000e+00,
1.55550e-02,-1.95868e-02,-3.95949e-02,-3.06313e-02,-4.76327e-02,-2.86724e-02,-2.30462e-02,5.80394e-03,0.00000e+00,0.00000e+00,0.00000e+00,0.00000e+00,0.00000e+00,0.00000e+00,0.00000e+00,0.00000e+00,-3.38225e-02,-4.96125e-02,1.02311e-02,-4.21473e-02,-4.39639e-02,1.54557e-02,3.31209e-02,2.58826e-02,0.00000e+00,0.00000e+00,0.00000e+00,0.00000e+00,0.00000e+00,0.00000e+00,0.00000e+00,0.00000e+00,-3.16301e-02,4.70132e-02,4.43902e-02,2.13564e-02,4.16030e-02,6.41833e-03,-3.43079e-02,-5.27717e-02,0.00000e+00,0.00000e+00,0.00000e+00,0.00000e+00,0.00000e+00,0.00000e+00,0.00000e+00,0.00000e+00,1.57237e-04,-1.25270e-02,-3.31601e-02,-6.85280e-03,-5.15026e-02,-3.56248e-02,-3.02995e-02,-6.18145e-04,0.00000e+00,0.00000e+00,0.00000e+00,0.00000e+00,0.00000e+00,0.00000e+00,0.00000e+00,0.00000e+00,1.68715e-02,-2.44981e-02,4.36760e-03,-2.45470e-02,-4.56486e-02,-4.91643e-02,-2.66677e-02,-2.72579e-02,0.00000e+00,0.00000e+00,0.00000e+00,0.00000e+00,0.00000e+00,0.00000e+00,0.00000e+00,0.00000e+00,4.16257e-02,1.87284e-02,-5.50435e-02,3.67871e-02,5.03591e-02,-3.25109e-02,2.06862e-03,-2.88094e-03,0.00000e+00,0.00000e+00,0.00000e+00,0.00000e+00,0.00000e+00,0.00000e+00,0.00000e+00,0.00000e+00,4.38177e-02,-3.91405e-02,-4.84041e-02,1.54906e-02,-4.32089e-02,7.58075e-03,4.39101e-02,-7.58443e-03,0.00000e+00,0.00000e+00,0.00000e+00,0.00000e+00,0.00000e+00,0.00000e+00,0.00000e+00,0.00000e+00,2.78012e-02,3.50867e-02,4.25134e-02,2.71180e-02,-3.05833e-02,-8.26649e-03,4.97818e-02,4.60036e-02,0.00000e+00,0.00000e+00,0.00000e+00,0.00000e+00,0.00000e+00,0.00000e+00,0.00000e+00,0.00000e+00,
2.58709e-02,-2.72844e-02,-2.74383e-02,-1.41965e-02,2.37841e-02,4.53585e-02,-3.53278e-03,-5.02532e-02,0.00000e+00,0.00000e+00,0.00000e+00,0.00000e+00,0.00000e+00,0.00000e+00,0.00000e+00,0.00000e+00,-1.70619e-02,3.51084e-02,-3.55988e-02,1.20819e-02,-4.37162e-02,-3.82192e-02,-5.20957e-02,-3.83088e-02,0.00000e+00,0.00000e+00,0.00000e+00,0.00000e+00,0.00000e+00,0.00000e+00,0.00000e+00,0.00000e+00,-4.68809e-02,3.27805e-02,2.75810e-03,4.22285e-02,-3.64205e-02,1.63844e-02,4.87182e-03,-7.47122e-03,0.00000e+00,0.00000e+00,0.00000e+00,0.00000e+00,0.00000e+00,0.00000e+00,0.00000e+00,0.00000e+00,9.82853e-03,2.12326e-02,4.79272e-02,4.36856e-03,-6.09989e-03,-2.94104e-02,1.84381e-02,-1.14216e-02,0.00000e+00,0.00000e+00,0.00000e+00,0.00000e+00,0.00000e+00,0.00000e+00,0.00000e+00,0.00000e+00,-4.12002e-02,4.59343e-02,-2.15524e-02,5.16534e-02,3.52690e-02,-3.36648e-02,-2.52990e-02,-4.60485e-02,0.00000e+00,0.00000e+00,0.00000e+00,0.00000e+00,0.00000e+00,0.00000e+00,0.00000e+00,0.00000e+00,-2.42965e-02,1.85177e-02,-3.25263e-02,-4.84955e-02,4.10926e-02,6.70917e-03,-3.32032e-02,-5.11052e-02,0.00000e+00,0.00000e+00,0.00000e+00,0.00000e+00,0.00000e+00,0.00000e+00,0.00000e+00,0.00000e+00,-4.82779e-02,5.17128e-02,-2.91935e-03,-1.42236e-02,3.04574e-02,1.57763e-02,-4.10994e-02,-4.04621e-02,0.00000e+00,0.00000e+00,0.00000e+00,0.00000e+00,0.00000e+00,0.00000e+00,0.00000e+00,0.00000e+00,4.79057e-02,2.26016e-02,-4.64633e-02,-3.80367e-02,1.61297e-02,-1.52712e-02,-1.91615e-02,-1.56348e-02,0.00000e+00,0.00000e+00,0.00000e+00,0.00000e+00,0.00000e+00,0.00000e+00,0.00000e+00,0.00000e+00,
-3.95332e-02,4.50549e-01,6.40625e-01,5.89014e-01,4.38916e-01,3.44014e-01,5.82866e-01,7.31540e-01,0.00000e+00,0.00000e+00,0.00000e+00,0.00000e+00,0.00000e+00,0.00000e+00,0.00000e+00,0.00000e+00,-5.09330e-01,-3.23364e-01,-8.07268e-02,1.85634e-01,3.16667e-02,2.83386e-01,3.38057e-01,6.24505e-01,0.00000e+00,0.00000e+00,0.00000e+00,0.00000e+00,0.00000e+00,0.00000e+00,0.00000e+00,0.00000e+00,-2.95188e-01,-1.09568e-01,-3.92640e-02,7.49764e-04,2.27980e-01,1.78348e-01,4.76131e-01,3.13774e-01,0.00000e+00,0.00000e+00,0.00000e+00,0.00000e+00,0.00000e+00,0.00000e+00,0.00000e+00,0.00000e+00,-1.54300e-01,-2.73059e-01,-2.88491e-01,-1.51456e-01,-6.90938e-02,-5.40166e-02,1.47726e-01,2.46803e-01,0.00000e+00,0.00000e+00,0.00000e+00,0.00000e+00,0.00000e+00,0.00000e+00,0.00000e+00,0.00000e+00,-3.30352e-01,-3.02269e-01,-2.43303e-01,-7.04233e-02,2.46603e-02,-4.72257e-02,1.64591e-01,1.99654e-01,0.00000e+00,0.00000e+00,0.00000e+00,0.00000e+00,0.00000e+00,0.00000e+00,0.00000e+00,0.00000e+00,-3.21761e-01,-8.15616e-02,-5.16664e-02,-8.03166e-02,-8.77710e-02,-2.69198e-02,3.40865e-02,3.97968e-02,0.00000e+00,0.00000e+00,0.00000e+00,0.00000e+00,0.00000e+00,0.00000e+00,0.00000e+00,0.00000e+00,-2.56704e-01,-1.06208e-01,-8.25029e-02,-5.82555e-02,-1.19871e-01,-1.91044e-02,-3.59052e-02,3.63531e-02,0.00000e+00,0.00000e+00,0.00000e+00,0.00000e+00,0.00000e+00,0.00000e+00,0.00000e+00,0.00000e+00,-3.43319e-01,-2.84363e-01,-1.42424e-01,-2.07039e-01,-1.84679e-01,-1.28885e-01,-5.18247e-02,-9.11051e-02,0.00000e+00,0.00000e+00,0.00000e+00,0.00000e+00,0.00000e+00,0.00000e+00,0.00000e+00,0.00000e+00,
-8.52965e-01,-1.08803e+00,-8.48045e-01,-3.16860e-01,-2.99524e-01,-2.82620e-01,-1.59679e-01,-3.37226e-01,0.00000e+00,0.00000e+00,0.00000e+00,0.00000e+00,0.00000e+00,0.00000e+00,0.00000e+00,0.00000e+00,-6.34346e-01,-5.04904e-01,-3.74243e-01,-1.85597e-01,1.10017e-01,-3.53617e-02,-2.16577e-03,-1.95783e-01,0.00000e+00,0.00000e+00,0.00000e+00,0.00000e+00,0.00000e+00,0.00000e+00,0.00000e+00,0.00000e+00,2.95751e-02,1.21184e-02,2.51287e-01,2.85024e-01,2.55776e-01,3.70316e-01,4.83367e-01,8.16103e-01,0.00000e+00,0.00000e+00,0.00000e+00,0.00000e+00,0.00000e+00,0.00000e+00,0.00000e+00,0.00000e+00,2.77542e-02,6.22773e-02,9.73074e-02,1.26461e-01,8.15276e-02,1.83386e-01,6.37983e-01,7.64557e-01,0.00000e+00,0.00000e+00,0.00000e+00,0.00000e+00,0.00000e+00,0.00000e+00,0.00000e+00,0.00000e+00,5.86859e-03,-1.65064e-02,-6.09419e-02,8.49853e-02,2.75381e-01,2.76609e-01,1.32801e-01,4.53162e-01,0.00000e+00,0.00000e+00,0.00000e+00,0.00000e+00,0.00000e+00,0.00000e+00,0.00000e+00,0.00000e+00,2.94255e-02,3.97951e-02,4.89760e-02,-1.02898e-02,5.99150e-02,1.93729e-01,3.54811e-02,4.53961e-01,0.00000e+00,0.00000e+00,0.00000e+00,0.00000e+00,0.00000e+00,0.00000e+00,0.00000e+00,0.00000e+00,5.98464e-02,-6.19300e-03,1.42313e-01,4.44833e-02,1.72675e-01,1.34221e-01,4.09473e-02,1.39300e-01,0.00000e+00,0.00000e+00,0.00000e+00,0.00000e+00,0.00000e+00,0.00000e+00,0.00000e+00,0.00000e+00,7.30970e-02,8.58392e-02,5.83751e-02,6.17135e-02,2.43390e-01,1.58534e-01,3.77901e-02,1.89510e-01,0.00000e+00,0.00000e+00,0.00000e+00,0.00000e+00,0.00000e+00,0.00000e+00,0.00000e+00,0.00000e+00,
5.28245e-02,-6.47258e-03,-5.25394e-02,1.88913e-02,-4.61258e-02,-2.94678e-02,2.08930e-02,4.95811e-02,0.00000e+00,0.00000e+00,0.00000e+00,0.00000e+00,0.00000e+00,0.00000e+00,0.00000e+00,0.00000e+00,-5.22694e-02,2.69114e-02,1.44432e-02,-3.01468e-02,6.14579e-03,-4.99141e-02,-1.25279e-02,6.43320e-03,0.00000e+00,0.00000e+00,0.00000e+00,0.00000e+00,0.00000e+00,0.00000e+00,0.00000e+00,0.00000e+00,5.25441e-02,-2.05442e-02,3.04482e-02,-2.91695e-02,-2.86503e-02,-2.71388e-02,4.40476e-02,-2.51678e-02,0.00000e+00,0.00000e+00,0.00000e+00,0.00000e+00,0.00000e+00,0.00000e+00,0.00000e+00,0.00000e+00,-1.25708e-02,3.60903e-02,7.52382e-03,4.47070e-02,4.66263e-02,3.27894e-03,-1.95180e-02,-1.85422e-02,0.00000e+00,0.00000e+00,0.00000e+00,0.00000e+00,0.00000e+00,0.00000e+00,0.00000e+00,0.00000e+00,-5.22113e-02,-2.28669e-03,-6.99883e-03,-1.34827e-03,1.52913e-02,1.61955e-02,4.47155e-02,-2.85229e-02,0.00000e+00,0.00000e+00,0.00000e+00,0.00000e+00,0.00000e+00,0.00000e+00,0.00000e+00,0.00000e+00,4.68978e-02,-2.32974e-02,-2.73484e-02,-1.34555e-02,-5.07260e-02,-1.36772e-02,-4.40383e-02,-4.88116e-02,0.00000e+00,0.00000e+00,0.00000e+00,0.00000e+00,0.00000e+00,0.00000e+00,0.00000e+00,0.00000e+00,-2.90090e-02,-3.27590e-02,-3.84486e-02,-2.47504e-02,4.94206e-02,-2.89629e-02,-2.09431e-02,4.57590e-02,0.00000e+00,0.00000e+00,0.00000e+00,0.00000e+00,0.00000e+00,0.00000e+00,0.00000e+00,0.00000e+00,-2.49514e-02,3.07990e-02,4.27206e-02,5.43486e-03,-4.20427e-02,-2.65651e-02,2.60007e-02,7.62615e-03,0.00000e+00,0.00000e+00,0.00000e+00,0.00000e+00,0.00000e+00,0.00000e+00,0.00000e+00,0.00000e+00,
1.24682e-02,4.67081e-02,-5.08565e-02,2.83517e-02,-3.41244e-03,-4.86805e-02,-4.29548e-02,-8.25967e-03,0.00000e+00,0.00000e+00,0.00000e+00,0.00000e+00,0.00000e+00,0.00000e+00,0.00000e+00,0.00000e+00,1.83682e-02,-3.43942e-02,7.93633e-03,-1.72673e-02,-1.30136e-02,-1.08865e-02,4.32918e-02,2.08481e-02,0.00000e+00,0.00000e+00,0.00000e+00,0.00000e+00,0.00000e+00,0.00000e+00,0.00000e+00,0.00000e+00,-2.70385e-02,-5.02922e-02,-8.67932e-04,2.41254e-02,5.17910e-02,-3.63933e-02,-4.08020e-02,-8.99167e-03,0.00000e+00,0.00000e+00,0.00000e+00,0.00000e+00,0.00000e+00,0.00000e+00,0.00000e+00,0.00000e+00,1.17469e-02,-1.79316e-02,4.06596e-03,2.20115e-02,1.93372e-02,4.23467e-02,-3.12717e-02,-2.15769e-02,0.00000e+00,0.00000e+00,0.00000e+00,0.00000e+00,0.00000e+00,0.00000e+00,0.00000e+00,0.00000e+00,-1.39314e-02,-1.13605e-02,-4.98699e-02,-2.87828e-03,-3.29167e-02,2.91812e-02,1.23372e-02,3.96922e-02,0.00000e+00,0.00000e+00,0.00000e+00,0.00000e+00,0.00000e+00,0.00000e+00,0.00000e+00,0.00000e+00,-3.75827e-02,2.32114e-02,-2.58655e-02,2.86202e-02,1.60333e-02,-2.44983e-02,-4.06286e-02,-2.03433e-02,0.00000e+00,0.00000e+00,0.00000e+00,0.00000e+00,0.00000e+00,0.00000e+00,0.00000e+00,0.00000e+00,-4.77071e-02,-5.62137e-02,-4.04281e-02,3.10836e-02,-4.83722e-02,-1.23434e-03,-1.94122e-02,-4.64904e-02,0.00000e+00,0.00000e+00,0.00000e+00,0.00000e+00,0.00000e+00,0.00000e+00,0.00000e+00,0.00000e+00,-2.27925e-02,4.19741e-02,-3.70699e-03,3.75470e-02,-2.71599e-02,2.04119e-02,2.97751e-02,-1.01290e-02,0.00000e+00,0.00000e+00,0.00000e+00,0.00000e+00,0.00000e+00,0.00000e+00,0.00000e+00,0.00000e+00,
-4.11759e-02,2.38543e-02,-4.04168e-03,-3.81643e-02,2.64448e-02,4.92556e-02,-4.98689e-02,-1.88599e-02,0.00000e+00,0.00000e+00,0.00000e+00,0.00000e+00,0.00000e+00,0.00000e+00,0.00000e+00,0.00000e+00,-3.91358e-02,1.01207e-02,1.95014e-02,-3.88241e-02,-5.27256e-02,-4.16706e-02,-3.64702e-02,-3.81772e-02,0.00000e+00,0.00000e+00,0.00000e+00,0.00000e+00,0.00000e+00,0.00000e+00,0.00000e+00,0.00000e+00,-4.27138e-02,-2.64680e-02,2.25509e-02,4.50415e-02,-3.43345e-02,4.82475e-02,2.27219e-02,3.37318e-02,0.00000e+00,0.00000e+00,0.00000e+00,0.00000e+00,0.00000e+00,0.00000e+00,0.00000e+00,0.00000e+00,-4.72031e-02,-4.34917e-02,-3.40444e-02,-1.47787e-02,3.42526e-02,-2.72208e-02,-4.31342e-02,5.08486e-02,0.00000e+00,0.00000e+00,0.00000e+00,0.00000e+00,0.00000e+00,0.00000e+00,0.00000e+00,0.00000e+00,-2.17108e-02,1.33896e-02,-1.17116e-02,4.99619e-02,-3.90494e-02,2.82499e-02,5.97240e-03,1.78367e-03,0.00000e+00,0.00000e+00,0.00000e+00,0.00000e+00,0.00000e+00,0.00000e+00,0.00000e+00,0.00000e+00,1.57463e-02,9.01684e-03,-1.96388e-02,-3.24139e-02,3.22513e-02,-3.15129e-02,-4.89280e-03,1.61873e-02,0.00000e+00,0.00000e+00,0.00000e+00,0.00000e+00,0.00000e+00,0.00000e+00,0.00000e+00,0.00000e+00,-4.55404e-02,-4.43180e-02,-3.12871e-02,3.03267e-02,-4.11328e-02,-3.68803e-03,4.57180e-02,-4.34068e-02,0.00000e+00,0.00000e+00,0.00000e+00,0.00000e+00,0.00000e+00,0.00000e+00,0.00000e+00,0.00000e+00,-4.03512e-02,9.56871e-03,-2.59256e-02,3.65416e-02,4.86745e-02,4.97284e-02,4.71955e-02,-2.89591e-02,0.00000e+00,0.00000e+00,0.00000e+00,0.00000e+00,0.00000e+00,0.00000e+00,0.00000e+00,0.00000e+00,
8.90785e-03,-4.97453e-02,1.67243e-02,1.60239e-02,3.39309e-04,1.35901e-02,2.41171e-02,8.16973e-03,0.00000e+00,0.00000e+00,0.00000e+00,0.00000e+00,0.00000e+00,0.00000e+00,0.00000e+00,0.00000e+00,4.88355e-02,-9.46902e-03,4.62333e-03,-3.31529e-02,3.68286e-02,2.41533e-02,-4.33106e-02,-4.79415e-02,0.00000e+00,0.00000e+00,0.00000e+00,0.00000e+00,0.00000e+00,0.00000e+00,0.00000e+00,0.00000e+00,-2.99135e-02,-5.31339e-02,4.50176e-02,-5.05355e-02,-5.90063e-03,4.45914e-02,-2.02659e-02,3.65516e-02,0.00000e+00,0.00000e+00,0.00000e+00,0.00000e+00,0.00000e+00,0.00000e+00,0.00000e+00,0.00000e+00,-1.42085e-02,-8.30322e-03,-5.15391e-03,-1.10093e-03,3.24511e-02,5.44306e-03,-2.38806e-02,-2.96963e-02,0.00000e+00,0.00000e+00,0.00000e+00,0.00000e+00,0.00000e+00,0.00000e+00,0.00000e+00,0.00000e+00,1.24080e-02,-4.27493e-02,-1.94614e-02,-4.16206e-02,3.89533e-02,-6.51156e-03,-9.08917e-03,1.02800e-03,0.00000e+00,0.00000e+00,0.00000e+00,0.00000e+00,0.00000e+00,0.00000e+00,0.00000e+00,0.00000e+00,3.96229e-02,-3.12233e-02,-4.83781e-03,6.12305e-03,4.06576e-02,5.25727e-03,2.59250e-02,-2.29427e-03,0.00000e+00,0.00000e+00,0.00000e+00,0.00000e+00,0.00000e+00,0.00000e+00,0.00000e+00,0.00000e+00,-1.79717e-02,4.85268e-02,-3.56866e-02,-1.58279e-02,-1.24373e-02,1.84893e-02,-5.37040e-02,-2.56616e-02,0.00000e+00,0.00000e+00,0.00000e+00,0.00000e+00,0.00000e+00,0.00000e+00,0.00000e+00,0.00000e+00,-2.36427e-02,-5.09812e-02,1.32094e-02,-6.83225e-03,3.38909e-02,-2.55023e-02,-8.13482e-03,-3.65216e-02,0.00000e+00,0.00000e+00,0.00000e+00,0.00000e+00,0.00000e+00,0.00000e+00,0.00000e+00,0.00000e+00,
-2.77022e-02,-4.40716e-02,3.91743e-02,3.78573e-02,-4.86485e-02,-2.33446e-02,-1.53776e-02,-8.28258e-03,0.00000e+00,0.00000e+00,0.00000e+00,0.00000e+00,0.00000e+00,0.00000e+00,0.00000e+00,0.00000e+00,2.61335e-02,1.92381e-02,-5.72635e-02,1.62093e-03,2.90376e-02,-1.92327e-02,-2.35848e-02,-3.26910e-02,0.00000e+00,0.00000e+00,0.00000e+00,0.00000e+00,0.00000e+00,0.00000e+00,0.00000e+00,0.00000e+00,3.72674e-02,4.34613e-02,2.72063e-03,3.10359e-02,-3.33417e-02,-4.86890e-02,2.79965e-03,-5.79979e-02,0.00000e+00,0.00000e+00,0.00000e+00,0.00000e+00,0.00000e+00,0.00000e+00,0.00000e+00,0.00000e+00,-3.97516e-02,-2.87688e-02,3.10768e-02,1.20871e-02,-7.89551e-03,3.71561e-02,-4.74696e-02,-2.87800e-02,0.00000e+00,0.00000e+00,0.00000e+00,0.00000e+00,0.00000e+00,0.00000e+00,0.00000e+00,0.00000e+00,-5.79161e-02,1.80165e-02,2.68443e-02,-5.99480e-04,3.09624e-02,-4.34571e-03,4.18413e-02,6.83849e-03,0.00000e+00,0.00000e+00,0.00000e+00,0.00000e+00,0.00000e+00,0.00000e+00,0.00000e+00,0.00000e+00,-1.92758e-03,1.91977e-02,1.74056e-02,-1.79782e-02,-5.21754e-02,-3.47039e-02,-5.21443e-02,2.64727e-02,0.00000e+00,0.00000e+00,0.00000e+00,0.00000e+00,0.00000e+00,0.00000e+00,0.00000e+00,0.00000e+00,-2.87634e-02,3.96285e-02,1.50621e-02,-4.61512e-02,2.06437e-02,2.77311e-03,3.42275e-02,-3.07036e-02,0.00000e+00,0.00000e+00,0.00000e+00,0.00000e+00,0.00000e+00,0.00000e+00,0.00000e+00,0.00000e+00,-3.04826e-02,-9.72368e-03,-4.54882e-02,1.78930e-02,-5.35236e-02,4.18255e-02,-2.67064e-02,7.25086e-03,0.00000e+00,0.00000e+00,0.00000e+00,0.00000e+00,0.00000e+00,0.00000e+00,0.00000e+00,0.00000e+00,
-5.24988e-02,-4.46269e-02,3.65785e-03,-4.18456e-02,3.56707e-02,-1.13582e-02,-1.70576e-03,3.97929e-02,0.00000e+00,0.00000e+00,0.00000e+00,0.00000e+00,0.00000e+00,0.00000e+00,0.00000e+00,0.00000e+00,-4.49392e-02,3.00558e-02,-5.07074e-02,4.02166e-03,4.05506e-02,1.21932e-03,1.77530e-02,3.24638e-02,0.00000e+00,0.00000e+00,0.00000e+00,0.00000e+00,0.00000e+00,0.00000e+00,0.00000e+00,0.00000e+00,2.03889e-02,-1.08649e-02,-1.38194e-02,-5.74754e-03,4.73780e-02,-4.78258e-02,4.65736e-02,-2.16444e-02,0.00000e+00,0.00000e+00,0.00000e+00,0.00000e+00,0.00000e+00,0.00000e+00,0.00000e+00,0.00000e+00,-4.24350e-02,8.11169e-03,3.62922e-02,3.60938e-02,3.70431e-02,-2.71138e-02,1.53696e-02,-4.92228e-02,0.00000e+00,0.00000e+00,0.00000e+00,0.00000e+00,0.00000e+00,0.00000e+00,0.00000e+00,0.00000e+00,-1.15811e-02,-2.42581e-02,1.19143e-02,-4.97930e-02,9.31881e-03,-3.22378e-02,-2.41787e-02,-4.20528e-02,0.00000e+00,0.00000e+00,0.00000e+00,0.00000e+00,0.00000e+00,0.00000e+00,0.00000e+00,0.00000e+00,-5.17377e-02,4.33228e-02,-3.25404e-02,8.45810e-03,-1.78675e-03,3.97155e-02,8.63395e-03,3.33413e-02,0.00000e+00,0.00000e+00,0.00000e+00,0.00000e+00,0.00000e+00,0.00000e+00,0.00000e+00,0.00000e+00,-1.50528e-02,-2.00498e-02,4.88772e-02,-3.15232e-02,3.37661e-02,5.23251e-02,-3.54474e-02,2.59601e-02,0.00000e+00,0.00000e+00,0.00000e+00,0.00000e+00,0.00000e+00,0.00000e+00,0.00000e+00,0.00000e+00,3.21406e-02,-9.43688e-03,-1.44979e-02,-3.37532e-02,-3.43836e-02,-3.49059e-03,-2.93568e-02,2.58632e-03,0.00000e+00,0.00000e+00,0.00000e+00,0.00000e+00,0.00000e+00,0.00000e+00,0.00000e+00,0.00000e+00,
-4.42221e-02,-1.54586e-02,-2.45173e-02,3.70156e-02,-4.17619e-03,9.09362e-03,3.93036e-03,-3.69716e-02,0.00000e+00,0.00000e+00,0.00000e+00,0.00000e+00,0.00000e+00,0.00000e+00,0.00000e+00,0.00000e+00,3.69722e-02,-1.25840e-02,-3.57742e-02,-4.25013e-02,5.01469e-02,-5.30943e-02,4.22273e-02,-3.94510e-02,0.00000e+00,0.00000e+00,0.00000e+00,0.00000e+00,0.00000e+00,0.00000e+00,0.00000e+00,0.00000e+00,-4.13878e-02,-4.33914e-02,-2.04095e-02,-6.86742e-03,1.15261e-02,2.37546e-02,1.19834e-02,1.00984e-02,0.00000e+00,0.00000e+00,0.00000e+00,0.00000e+00,0.00000e+00,0.00000e+00,0.00000e+00,0.00000e+00,-1.07162e-02,2.96881e-02,1.00359e-02,-4.77986e-02,-3.90516e-02,-1.91789e-02,-4.39816e-02,1.80047e-03,0.00000e+00,0.00000e+00,0.00000e+00,0.00000e+00,0.00000e+00,0.00000e+00,0.00000e+00,0.00000e+00,-2.53815e-02,-2.38098e-02,-2.89296e-02,-2.52144e-02,-2.63571e-02,-8.91158e-03,-3.65207e-02,-3.46495e-02,0.00000e+00,0.00000e+00,0.00000e+00,0.00000e+00,0.00000e+00,0.00000e+00,0.00000e+00,0.00000e+00,3.88560e-02,-4.25262e-02,-5.11108e-02,1.95593e-02,-1.46933e-02,1.68500e-02,3.40203e-02,-4.34862e-02,0.00000e+00,0.00000e+00,0.00000e+00,0.00000e+00,0.00000e+00,0.00000e+00,0.00000e+00,0.00000e+00,2.43367e-02,-4.10600e-02,2.53215e-02,-4.67415e-02,4.08098e-02,-2.47477e-02,-5.09336e-02,-3.64356e-02,0.00000e+00,0.00000e+00,0.00000e+00,0.00000e+00,0.00000e+00,0.00000e+00,0.00000e+00,0.00000e+00,3.16181e-02,3.19754e-02,4.93119e-03,-3.13025e-02,-1.09504e-02,4.59812e-03,-2.24180e-03,-9.06302e-03,0.00000e+00,0.00000e+00,0.00000e+00,0.00000e+00,0.00000e+00,0.00000e+00,0.00000e+00,0.00000e+00,
-3.24844e-02,1.96292e-02,-5.69673e-03,1.09302e-02,-4.28184e-02,1.63400e-02,2.58988e-02,3.37452e-02,0.00000e+00,0.00000e+00,0.00000e+00,0.00000e+00,0.00000e+00,0.00000e+00,0.00000e+00,0.00000e+00,9.11531e-03,-3.09297e-02,1.24268e-02,-2.77809e-02,-6.80959e-02,-2.02207e-02,-5.80783e-02,-2.66745e-02,0.00000e+00,0.00000e+00,0.00000e+00,0.00000e+00,0.00000e+00,0.00000e+00,0.00000e+00,0.00000e+00,-4.16605e-02,2.47479e-02,-7.04516e-02,-3.74108e-02,-6.65098e-03,2.97502e-02,-1.61421e-02,-6.43888e-02,0.00000e+00,0.00000e+00,0.00000e+00,0.00000e+00,0.00000e+00,0.00000e+00,0.00000e+00,0.00000e+00,-6.51464e-02,3.35974e-02,3.22265e-02,-4.25198e-02,-6.91509e-02,1.18049e-03,-5.30949e-02,-4.03068e-02,0.00000e+00,0.00000e+00,0.00000e+00,0.00000e+00,0.00000e+00,0.00000e+00,0.00000e+00,0.00000e+00,2.06324e-02,-1.43082e-03,-4.70282e-02,-5.95990e-02,-1.61164e-02,-2.68824e-02,-2.17798e-02,-3.47512e-02,0.00000e+00,0.00000e+00,0.00000e+00,0.00000e+00,0.00000e+00,0.00000e+00,0.00000e+00,0.00000e+00,-6.43697e-02,-5.72128e-02,1.63978e-02,5.29845e-03,-4.79963e-02,-2.26156e-02,-9.70840e-03,-2.62130e-02,0.00000e+00,0.00000e+00,0.00000e+00,0.00000e+00,0.00000e+00,0.00000e+00,0.00000e+00,0.00000e+00,-1.27136e-02,-6.39971e-02,-5.11555e-02,-6.93857e-02,-2.78306e-02,3.22548e-02,-5.57519e-02,-2.87735e-02,0.00000e+00,0.00000e+00,0.00000e+00,0.00000e+00,0.00000e+00,0.00000e+00,0.00000e+00,0.00000e+00,3.59930e-02,2.95209e-02,-6.59618e-02,-3.25262e-02,-4.43862e-02,8.88347e-03,-3.51626e-03,-2.73887e-02,0.00000e+00,0.00000e+00,0.00000e+00,0.00000e+00,0.00000e+00,0.00000e+00,0.00000e+00,0.00000e+00,
1.04030e-01,2.36474e-02,1.68900e-01,1.06150e-01,-2.48240e-03,-8.29838e-03,-1.72050e-01,-1.66853e-01,0.00000e+00,0.00000e+00,0.00000e+00,0.00000e+00,0.00000e+00,0.00000e+00,0.00000e+00,0.00000e+00,7.45058e-01,8.62572e-01,4.16624e-01,1.24402e-01,1.72889e-01,5.47685e-01,5.93888e-01,2.28921e-01,0.00000e+00,0.00000e+00,0.00000e+00,0.00000e+00,0.00000e+00,0.00000e+00,0.00000e+00,0.00000e+00,3.26988e-01,1.11046e-02,2.76356e-02,1.27625e-01,1.23372e-01,6.27815e-02,1.26749e-01,5.42996e-01,0.00000e+00,0.00000e+00,0.00000e+00,0.00000e+00,0.00000e+00,0.00000e+00,0.00000e+00,0.00000e+00,3.32709e-01,1.40222e-01,-4.27161e-02,2.15271e-03,-3.20139e-02,-9.34637e-02,-8.98019e-02,-1.63042e-01,0.00000e+00,0.00000e+00,0.00000e+00,0.00000e+00,0.00000e+00,0.00000e+00,0.00000e+00,0.00000e+00,3.39177e-01,8.22598e-02,-6.96168e-02,-8.39668e-02,-2.06288e-02,-1.89917e-01,-2.71709e-01,-2.63522e-01,0.00000e+00,0.00000e+00,0.00000e+00,0.00000e+00,0.00000e+00,0.00000e+00,0.00000e+00,0.00000e+00,1.85957e-01,1.14066e-01,-3.15164e-02,-1.59512e-01,-1.46653e-01,-1.24196e-01,-1.88725e-01,-2.75725e-01,0.00000e+00,0.00000e+00,0.00000e+00,0.00000e+00,0.00000e+00,0.00000e+00,0.00000e+00,0.00000e+00,-1.89937e-02,3.43718e-02,-2.17766e-02,-2.92862e-02,-8.43972e-02,-1.58451e-01,-1.40985e-01,-2.43600e-01,0.00000e+00,0.00000e+00,0.00000e+00,0.00000e+00,0.00000e+00,0.00000e+00,0.00000e+00,0.00000e+00,-1.00857e-02,2.51672e-03,-4.28750e-02,-9.17848e-02,2.55897e-02,-1.23212e-01,-2.29142e-01,-2.50644e-01,0.00000e+00,0.00000e+00,0.00000e+00,0.00000e+00,0.00000e+00,0.00000e+00,0.00000e+00,0.00000e+00,
0.00000e+00,0.00000e+00,0.00000e+00,0.00000e+00,0.00000e+00,0.00000e+00,0.00000e+00,0.00000e+00,3.56642e-01,7.26880e-01,8.43157e-01,6.99021e-01,4.03742e-01,-2.93519e-02,-4.84987e-01,-5.64995e-01,0.00000e+00,0.00000e+00,0.00000e+00,0.00000e+00,0.00000e+00,0.00000e+00,0.00000e+00,0.00000e+00,3.59121e-01,3.54849e-01,-2.70651e-02,-3.17067e-01,-6.12796e-01,-9.67961e-01,-8.39631e-01,-7.66320e-01,0.00000e+00,0.00000e+00,0.00000e+00,0.00000e+00,0.00000e+00,0.00000e+00,0.00000e+00,0.00000e+00,3.91927e-01,2.30681e-01,2.84923e-01,7.90634e-02,1.02436e-01,7.77472e-02,-4.36636e-01,-5.87246e-01,0.00000e+00,0.00000e+00,0.00000e+00,0.00000e+00,0.00000e+00,0.00000e+00,0.00000e+00,0.00000e+00,2.30841e-01,8.24345e-04,2.08901e-01,2.19416e-01,-7.03926e-04,-8.37974e-02,-4.40790e-02,1.56409e-01,0.00000e+00,0.00000e+00,0.00000e+00,0.00000e+00,0.00000e+00,0.00000e+00,0.00000e+00,0.00000e+00,2.15759e-01,-5.16259e-03,-5.57694e-03,8.69030e-02,1.93484e-02,1.20504e-01,2.46429e-02,-3.50661e-02,0.00000e+00,0.00000e+00,0.00000e+00,0.00000e+00,0.00000e+00,0.00000e+00,0.00000e+00,0.00000e+00,5.08052e-02,3.64080e-02,7.43417e-02,3.01108e-02,-5.55413e-02,-2.81176e-02,-6.45043e-02,4.86678e-02,0.00000e+00,0.00000e+00,0.00000e+00,0.00000e+00,0.00000e+00,0.00000e+00,0.00000e+00,0.00000e+00,-6.40954e-02,2.78506e-02,-1.94644e-03,1.18301e-02,-5.27599e-02,-1.63812e-02,-6.30028e-02,-1.21201e-03,0.00000e+00,0.00000e+00,0.00000e+00,0.00000e+00,0.00000e+00,0.00000e+00,0.00000e+00,0.00000e+00,-8.48618e-02,-1.13034e-01,-5.35998e-02,-2.87119e-02,-1.72474e-02,-1.14443e-02,2.12101e-02,-4.20438e-03,
0.00000e+00,0.00000e+00,0.00000e+00,0.00000e+00,0.00000e+00,0.00000e+00,0.00000e+00,0.00000e+00,-5.99933e-01,-5.25357e-01,-5.79766e-02,3.88240e-01,4.18746e-01,7.34652e-01,9.70531e-01,5.07145e-01,0.00000e+00,0.00000e+00,0.00000e+00,0.00000e+00,0.00000e+00,0.00000e+00,0.00000e+00,0.00000e+00,1.46877e-01,-2.00852e-01,-2.48911e-01,-4.27947e-01,-3.80259e-01,-5.59546e-01,-6.30118e-01,-3.97516e-01,0.00000e+00,0.00000e+00,0.00000e+00,0.00000e+00,0.00000e+00,0.00000e+00,0.00000e+00,0.00000e+00,-1.07563e-01,-2.57582e-01,-1.62505e-01,5.70801e-02,-1.14331e-02,7.32741e-02,2.63964e-01,-2.68777e-01,0.00000e+00,0.00000e+00,0.00000e+00,0.00000e+00,0.00000e+00,0.00000e+00,0.00000e+00,0.00000e+00,-2.57408e-01,2.18924e-02,1.28182e-01,7.90050e-02,3.12064e-02,1.20935e-01,1.23697e-01,2.70143e-01,0.00000e+00,0.00000e+00,0.00000e+00,0.00000e+00,0.00000e+00,0.00000e+00,0.00000e+00,0.00000e+00,1.78350e-01,1.73480e-01,3.33581e-01,-5.62484e-02,-3.66056e-02,1.43108e-01,2.87148e-01,2.26310e-01,0.00000e+00,0.00000e+00,0.00000e+00,0.00000e+00,0.00000e+00,0.00000e+00,0.00000e+00,0.00000e+00,1.90162e-01,-3.78706e-02,1.78208e-01,2.99736e-02,6.84628e-02,3.51509e-02,2.99225e-02,9.75511e-02,0.00000e+00,0.00000e+00,0.00000e+00,0.00000e+00,0.00000e+00,0.00000e+00,0.00000e+00,0.00000e+00,1.65554e-01,6.20082e-02,8.09786e-02,7.74259e-02,4.27779e-02,6.59379e-02,1.00715e-01,1.41470e-01,0.00000e+00,0.00000e+00,0.00000e+00,0.00000e+00,0.00000e+00,0.00000e+00,0.00000e+00,0.00000e+00,2.17681e-01,1.74833e-01,1.27864e-01,1.01436e-01,8.45613e-02,2.72055e-02,1.71407e-01,1.84500e-01,
0.00000e+00,0.00000e+00,0.00000e+00,0.00000e+00,0.00000e+00,0.00000e+00,0.00000e+00,0.00000e+00,-5.71813e-02,2.80715e-02,-5.79563e-02,4.31386e-02,5.69323e-03,-1.93944e-02,-3.07511e-02,3.44730e-02,0.00000e+00,0.00000e+00,0.00000e+00,0.00000e+00,0.00000e+00,0.00000e+00,0.00000e+00,0.00000e+00,-2.78487e-02,4.14887e-03,4.37185e-02,4.73789e-02,-5.46572e-02,1.78161e-02,2.61984e-02,3.20439e-02,0.00000e+00,0.00000e+00,0.00000e+00,0.00000e+00,0.00000e+00,0.00000e+00,0.00000e+00,0.00000e+00,-6.24572e-03,3.61831e-02,-2.80093e-02,-5.18488e-02,-4.25419e-02,5.61667e-04,-4.20627e-02,-3.64464e-03,0.00000e+00,0.00000e+00,0.00000e+00,0.00000e+00,0.00000e+00,0.00000e+00,0.00000e+00,0.00000e+00,-3.49678e-02,2.06868e-02,4.14845e-02,-2.56534e-02,3.61483e-02,2.99604e-02,1.44975e-02,-4.01962e-02,0.00000e+00,0.00000e+00,0.00000e+00,0.00000e+00,0.00000e+00,0.00000e+00,0.00000e+00,0.00000e+00,-2.45803e-02,-2.52473e-03,-3.67711e-02,-5.76629e-02,-7.39063e-04,1.33206e-02,-1.67362e-02,6.09532e-03,0.00000e+00,0.00000e+00,0.00000e+00,0.00000e+00,0.00000e+00,0.00000e+00,0.00000e+00,0.00000e+00,2.71403e-02,9.14784e-03,-5.00904e-02,-2.03387e-02,-2.95108e-02,1.28856e-02,2.22680e-02,-2.97128e-02,0.00000e+00,0.00000e+00,0.00000e+00,0.00000e+00,0.00000e+00,0.00000e+00,0.00000e+00,0.00000e+00,-3.19683e-02,3.73579e-02,-3.98702e-02,-1.36285e-02,-2.52505e-02,1.65378e-02,-2.59137e-02,1.34941e-02,0.00000e+00,0.00000e+00,0.00000e+00,0.00000e+00,0.00000e+00,0.00000e+00,0.00000e+00,0.00000e+00,5.75622e-03,-3.18626e-02,-4.94289e-02,-4.65044e-02,4.03897e-02,-4.31522e-02,-5.21090e-03,1.87919e-02,
0.00000e+00,0.00000e+00,0.00000e+00,0.00000e+00,0.00000e+00,0.00000e+00,0.00000e+00,0.00000e+00,-3.24480e-03,4.94404e-02,-3.99537e-02,-1.87563e-02,3.22688e-02,-1.23679e-02,4.51757e-02,3.70956e-02,0.00000e+00,0.00000e+00,0.00000e+00,0.00000e+00,0.00000e+00,0.00000e+00,0.00000e+00,0.00000e+00,-1.81906e-02,-1.99061e-03,-4.30944e-02,-4.90450e-02,8.72432e-03,2.92418e-02,-4.69067e-02,4.69933e-02,0.00000e+00,0.00000e+00,0.00000e+00,0.00000e+00,0.00000e+00,0.00000e+00,0.00000e+00,0.00000e+00,-3.90428e-02,-1.13951e-02,-2.42055e-02,1.51757e-02,5.96757e-03,-3.29468e-02,4.73591e-02,1.96618e-02,0.00000e+00,0.00000e+00,0.00000e+00,0.00000e+00,0.00000e+00,0.00000e+00,0.00000e+00,0.00000e+00,-1.23216e-02,-2.02244e-02,3.79653e-03,-2.47660e-02,3.65374e-02,3.39826e-02,-4.46980e-02,2.18145e-02,0.00000e+00,0.00000e+00,0.00000e+00,0.00000e+00,0.00000e+00,0.00000e+00,0.00000e+00,0.00000e+00,-4.42676e-02,2.98244e-02,4.72325e-02,-3.72264e-02,-4.64684e-02,3.44545e-02,-3.45035e-02,-3.94555e-02,0.00000e+00,0.00000e+00,0.00000e+00,0.00000e+00,0.00000e+00,0.00000e+00,0.00000e+00,0.00000e+00,-1.06902e-02,-4.43578e-02,-2.02633e-02,1.05852e-02,7.85071e-03,3.98970e-03,4.57712e-02,-4.98915e-02,0.00000e+00,0.00000e+00,0.00000e+00,0.00000e+00,0.00000e+00,0.00000e+00,0.00000e+00,0.00000e+00,-3.55802e-05,6.94782e-03,-3.56949e-02,-2.66264e-02,2.40588e-02,-1.46465e-02,-2.62671e-02,-2.37868e-03,0.00000e+00,0.00000e+00,0.00000e+00,0.00000e+00,0.00000e+00,0.00000e+00,0.00000e+00,0.00000e+00,2.23064e-02,-1.58922e-02,9.38689e-03,-3.71507e-02,3.50672e-03,-4.63013e-02,3.93052e-04,3.90620e-03,
0.00000e+00,0.00000e+00,0.00000e+00,0.00000e+00,0.00000e+00,0.00000e+00,0.00000e+00,0.00000e+00,-1.78430e-02,-1.71946e-02,2.23818e-02,-1.61918e-02,-5.23375e-02,-4.46952e-02,2.61492e-02,-4.23763e-02,0.00000e+00,0.00000e+00,0.00000e+00,0.00000e+00,0.00000e+00,0.00000e+00,0.00000e+00,0.00000e+00,1.35954e-02,-5.07853e-02,7.38012e-03,-3.82724e-03,3.40130e-02,-4.59480e-02,4.48061e-02,-1.38224e-03,0.00000e+00,0.00000e+00,0.00000e+00,0.00000e+00,0.00000e+00,0.00000e+00,0.00000e+00,0.00000e+00,2.84282e-02,-5.81913e-03,-1.79587e-02,9.20428e-03,2.56858e-02,2.65213e-02,-5.65825e-03,-5.08731e-02,0.00000e+00,0.00000e+00,0.00000e+00,0.00000e+00,0.00000e+00,0.00000e+00,0.00000e+00,0.00000e+00,-2.51747e-02,3.14613e-02,1.34898e-02,4.26122e-02,3.27151e-02,-1.46048e-03,4.47568e-02,5.26905e-02,0.00000e+00,0.00000e+00,0.00000e+00,0.00000e+00,0.00000e+00,0.00000e+00,0.00000e+00,0.00000e+00,-4.90169e-02,-4.40310e-02,-4.71928e-02,-1.53368e-02,3.77220e-02,5.78282e-03,-3.72583e-02,4.94000e-03,0.00000e+00,0.00000e+00,0.00000e+00,0.00000e+00,0.00000e+00,0.00000e+00,0.00000e+00,0.00000e+00,2.46907e-02,-2.59535e-02,-3.00129e-02,2.62575e-02,-4.75530e-02,1.61620e-02,-3.03048e-02,1.27093e-02,0.00000e+00,0.00000e+00,0.00000e+00,0.00000e+00,0.00000e+00,0.00000e+00,0.00000e+00,0.00000e+00,-1.21175e-02,2.25536e-03,-3.66796e-02,-5.19288e-02,-2.54803e-02,-3.82570e-02,-2.39620e-02,-3.63885e-02,0.00000e+00,0.00000e+00,0.00000e+00,0.00000e+00,0.00000e+00,0.00000e+00,0.00000e+00,0.00000e+00,2.62530e-02,5.26711e-02,1.17086e-02,1.89115e-03,-1.92614e-03,4.62084e-02,4.08329e-02,1.14201e-02,
0.00000e+00,0.00000e+00,0.00000e+00,0.00000e+00,0.00000e+00,0.00000e+00,0.00000e+00,0.00000e+00,7.46044e-01,5.09216e-01,2.25098e-02,-6.57090e-01,-7.57867e-01,-5.41826e-01,4.24596e-01,7.77336e-01,0.00000e+00,0.00000e+00,0.00000e+00,0.00000e+00,0.00000e+00,0.00000e+00,0.00000e+00,0.00000e+00,6.04152e-01,1.86848e-01,-2.37845e-01,-1.25680e+00,-8.94755e-01,-3.91793e-01,6.76614e-01,7.89343e-01,0.00000e+00,0.00000e+00,0.00000e+00,0.00000e+00,0.00000e+00,0.00000e+00,0.00000e+00,0.00000e+00,-8.25716e-02,-5.67613e-02,-4.47812e-02,-3.36747e-01,-4.14361e-01,-6.40443e-02,9.18851e-02,-1.39264e-01,0.00000e+00,0.00000e+00,0.00000e+00,0.00000e+00,0.00000e+00,0.00000e+00,0.00000e+00,0.00000e+00,3.86385e-03,1.29547e-01,1.73697e-01,3.18194e-02,-2.31941e-01,-2.96859e-01,-4.09213e-01,-3.91210e-01,0.00000e+00,0.00000e+00,0.00000e+00,0.00000e+00,0.00000e+00,0.00000e+00,0.00000e+00,0.00000e+00,1.21012e-01,-2.32122e-02,2.08527e-02,7.94099e-02,1.10034e-01,1.56990e-01,-3.30228e-02,-2.37133e-01,0.00000e+00,0.00000e+00,0.00000e+00,0.00000e+00,0.00000e+00,0.00000e+00,0.00000e+00,0.00000e+00,3.89014e-02,2.28667e-02,7.95520e-02,1.17285e-01,7.64823e-02,4.22378e-02,3.11339e-02,-1.54430e-02,0.00000e+00,0.00000e+00,0.00000e+00,0.00000e+00,0.00000e+00,0.00000e+00,0.00000e+00,0.00000e+00,1.39945e-01,2.36533e-03,9.75486e-02,1.33357e-01,6.29878e-02,1.05411e-01,2.19001e-02,7.14674e-02,0.00000e+00,0.00000e+00,0.00000e+00,0.00000e+00,0.00000e+00,0.00000e+00,0.00000e+00,0.00000e+00,8.45615e-02,6.25509e-02,1.48200e-01,1.81891e-01,4.77499e-02,1.65106e-01,1.35346e-01,6.14097e-02,
0.00000e+00,0.00000e+00,0.00000e+00,0.00000e+00,0.00000e+00,0.00000e+00,0.00000e+00,0.00000e+00,4.99140e-02,-2.69829e-02,-4.98506e-02,4.14058e-02,-4.99218e-02,2.05055e-02,-1.71428e-02,2.21847e-02,0.00000e+00,0.00000e+00,0.00000e+00,0.00000e+00,0.00000e+00,0.00000e+00,0.00000e+00,0.00000e+00,-1.29422e-02,2.97014e-02,1.92135e-02,1.10151e-03,-1.85857e-02,-4.04637e-02,3.57191e-02,-2.40276e-02,0.00000e+00,0.00000e+00,0.00000e+00,0.00000e+00,0.00000e+00,0.00000e+00,0.00000e+00,0.00000e+00,-5.38385e-02,-2.48858e-02,-5.05952e-02,5.71001e-03,-5.65938e-02,4.49491e-02,-4.96903e-02,-3.39558e-02,0.00000e+00,0.00000e+00,0.00000e+00,0.00000e+00,0.00000e+00,0.00000e+00,0.00000e+00,0.00000e+00,3.19970e-02,3.35353e-02,4.92037e-02,-2.22619e-02,3.33806e-02,-5.34586e-02,-4.91918e-02,4.27617e-02,0.00000e+00,0.00000e+00,0.00000e+00,0.00000e+00,0.00000e+00,0.00000e+00,0.00000e+00,0.00000e+00,-2.22862e-02,-4.11684e-02,3.57565e-02,-4.15764e-02,3.78258e-02,-2.58650e-02,-2.40336e-02,2.61525e-02,0.00000e+00,0.00000e+00,0.00000e+00,0.00000e+00,0.00000e+00,0.00000e+00,0.00000e+00,0.00000e+00,-1.95757e-02,-1.77120e-03,1.23777e-02,3.26978e-02,-2.67775e-02,4.69604e-02,2.50219e-02,-5.41209e-02,0.00000e+00,0.00000e+00,0.00000e+00,0.00000e+00,0.00000e+00,0.00000e+00,0.00000e+00,0.00000e+00,2.88214e-02,3.85923e-02,-5.60936e-02,4.58945e-02,-3.45496e-02,-4.62580e-02,4.73184e-02,2.99096e-02,0.00000e+00,0.00000e+00,0.00000e+00,0.00000e+00,0.00000e+00,0.00000e+00,0.00000e+00,0.00000e+00,3.57291e-02,-5.06692e-02,2.25491e-03,4.75816e-02,3.35781e-02,4.70729e-03,-5.13899e-02,-2.82645e-02,
0.00000e+00,0.00000e+00,0.00000e+00,0.00000e+00,0.00000e+00,0.00000e+00,0.00000e+00,0.00000e+00,3.76792e-02,9.04979e-03,-2.60623e-02,3.53214e-02,-3.01517e-02,3.48987e-02,-5.22744e-02,9.72193e-04,0.00000e+00,0.00000e+00,0.00000e+00,0.00000e+00,0.00000e+00,0.00000e+00,0.00000e+00,0.00000e+00,2.84891e-02,-3.44987e-02,-1.30115e-03,1.03985e-02,1.72689e-02,3.21886e-03,-2.79163e-03,-5.32360e-02,0.00000e+00,0.00000e+00,0.00000e+00,0.00000e+00,0.00000e+00,0.00000e+00,0.00000e+00,0.00000e+00,-2.81216e-02,-1.28499e-02,-4.05558e-02,-3.70959e-02,3.49455e-02,4.59128e-02,-3.22741e-02,-1.11715e-03,0.00000e+00,0.00000e+00,0.00000e+00,0.00000e+00,0.00000e+00,0.00000e+00,0.00000e+00,0.00000e+00,-2.42792e-02,3.69191e-02,4.43562e-03,1.40732e-02,-1.22682e-02,2.45081e-02,1.63550e-02,-1.42249e-03,0.00000e+00,0.00000e+00,0.00000e+00,0.00000e+00,0.00000e+00,0.00000e+00,0.00000e+00,0.00000e+00,-1.87284e-02,-6.77513e-03,-2.22571e-02,-1.67287e-02,1.32584e-02,4.88701e-02,4.03233e-02,-5.17648e-02,0.00000e+00,0.00000e+00,0.00000e+00,0.00000e+00,0.00000e+00,0.00000e+00,0.00000e+00,0.00000e+00,7.05268e-04,4.43919e-02,-8.67730e-03,-5.09838e-02,3.61637e-02,-4.41125e-02,3.72252e-02,-2.79441e-02,0.00000e+00,0.00000e+00,0.00000e+00,0.00000e+00,0.00000e+00,0.00000e+00,0.00000e+00,0.00000e+00,-3.90094e-02,-5.22095e-02,2.43741e-02,8.57495e-04,-2.92376e-02,-5.13919e-02,-5.00120e-02,-4.22189e-02,0.00000e+00,0.00000e+00,0.00000e+00,0.00000e+00,0.00000e+00,0.00000e+00,0.00000e+00,0.00000e+00,-2.21008e-02,-5.24544e-02,8.45419e-03,-3.57829e-02,2.57382e-02,-5.95249e-03,1.34386e-04,2.26844e-02,
0.00000e+00,0.00000e+00,0.00000e+00,0.00000e+00,0.00000e+00,0.00000e+00,0.00000e+00,0.00000e+00,-2.23904e-02,-4.76181e-02,-2.04586e-04,-5.23777e-02,-1.89744e-02,4.13995e-02,-2.41471e-02,3.00076e-02,0.00000e+00,0.00000e+00,0.00000e+00,0.00000e+00,0.00000e+00,0.00000e+00,0.00000e+00,0.00000e+00,3.79883e-03,-5.54902e-02,-2.52220e-02,-3.11659e-02,-3.84731e-02,4.44035e-02,1.21238e-02,4.64814e-02,0.00000e+00,0.00000e+00,0.00000e+00,0.00000e+00,0.00000e+00,0.00000e+00,0.00000e+00,0.00000e+00,1.36726e-02,-3.24880e-02,-4.08750e-02,-2.69183e-02,-5.48804e-02,4.17784e-02,3.29588e-02,5.90067e-03,0.00000e+00,0.00000e+00,0.00000e+00,0.00000e+00,0.00000e+00,0.00000e+00,0.00000e+00,0.00000e+00,4.64745e-02,-3.75859e-04,4.68029e-02,-3.15706e-02,4.54088e-03,4.55770e-02,1.83194e-04,-6.13739e-03,0.00000e+00,0.00000e+00,0.00000e+00,0.00000e+00,0.00000e+00,0.00000e+00,0.00000e+00,0.00000e+00,-3.32030e-02,5.00085e-03,1.68726e-02,3.90858e-02,3.53637e-02,-3.48424e-02,-1.45854e-03,-2.86164e-02,0.00000e+00,0.00000e+00,0.00000e+00,0.00000e+00,0.00000e+00,0.00000e+00,0.00000e+00,0.00000e+00,-5.58187e-02,9.63555e-03,-4.30706e-02,-1.81852e-02,1.17745e-02,-2.03209e-02,-3.26191e-02,1.32126e-02,0.00000e+00,0.00000e+00,0.00000e+00,0.00000e+00,0.00000e+00,0.00000e+00,0.00000e+00,0.00000e+00,1.98888e-02,-1.63717e-03,-2.27682e-02,1.24179e-02,-1.84936e-02,3.40614e-03,1.45690e-02,2.05029e-03,0.00000e+00,0.00000e+00,0.00000e+00,0.00000e+00,0.00000e+00,0.00000e+00,0.00000e+00,0.00000e+00,-2.89218e-02,-4.84200e-02,-5.34520e-02,-5.47222e-02,4.65914e-02,-1.27212e-02,-1.91750e-02,2.06368e-02,
0.00000e+00,0.00000e+00,0.00000e+00,0.00000e+00,0.00000e+00,0.00000e+00,0.00000e+00,0.00000e+00,-4.35075e-02,-9.35686e-03,3.76873e-02,2.32976e-02,2.81353e-02,2.97285e-02,-3.62779e-02,-5.25869e-02,0.00000e+00,0.00000e+00,0.00000e+00,0.00000e+00,0.00000e+00,0.00000e+00,0.00000e+00,0.00000e+00,-3.16419e-02,-4.85524e-02,1.31208e-02,-4.60216e-02,-5.77852e-03,5.04646e-03,-4.80400e-02,4.89398e-02,0.00000e+00,0.00000e+00,0.00000e+00,0.00000e+00,0.00000e+00,0.00000e+00,0.00000e+00,0.00000e+00,-4.49730e-02,5.26088e-02,4.50170e-02,1.39819e-03,-2.07248e-03,-1.05528e-02,5.19251e-02,3.09373e-02,0.00000e+00,0.00000e+00,0.00000e+00,0.00000e+00,0.00000e+00,0.00000e+00,0.00000e+00,0.00000e+00,-2.92272e-02,-8.11596e-03,-5.61815e-03,-7.73178e-03,3.12077e-03,-2.35683e-02,-4.72975e-02,-3.82977e-02,0.00000e+00,0.00000e+00,0.00000e+00,0.00000e+00,0.00000e+00,0.00000e+00,0.00000e+00,0.00000e+00,-4.17040e-02,-1.92239e-02,4.69903e-02,4.33681e-03,-3.63066e-02,4.65745e-02,-4.34692e-02,-2.01562e-02,0.00000e+00,0.00000e+00,0.00000e+00,0.00000e+00,0.00000e+00,0.00000e+00,0.00000e+00,0.00000e+00,5.23778e-02,-1.74944e-02,-1.56252e-02,-4.89518e-02,-4.55006e-02,4.04898e-02,3.24330e-02,-5.27443e-02,0.00000e+00,0.00000e+00,0.00000e+00,0.00000e+00,0.00000e+00,0.00000e+00,0.00000e+00,0.00000e+00,-2.71436e-02,2.11858e-02,-1.57166e-02,1.81564e-02,-4.30238e-02,-4.73419e-02,2.24658e-03,-1.89111e-02,0.00000e+00,0.00000e+00,0.00000e+00,0.00000e+00,0.00000e+00,0.00000e+00,0.00000e+00,0.00000e+00,3.11006e-02,5.00571e-02,3.86504e-02,2.71247e-02,7.49380e-03,-3.42199e-02,4.21013e-02,-4.26815e-02,
0.00000e+00,0.00000e+00,0.00000e+00,0.00000e+00,0.00000e+00,0.00000e+00,0.00000e+00,0.00000e+00,-1.47808e-02,-1.29484e-02,2.64358e-02,-4.52258e-02,1.20718e-02,-1.38135e-02,6.61150e-03,-3.76507e-02,0.00000e+00,0.00000e+00,0.00000e+00,0.00000e+00,0.00000e+00,0.00000e+00,0.00000e+00,0.00000e+00,2.88432e-02,-9.45834e-03,3.54147e-02,3.57628e-03,4.56208e-02,-8.76681e-03,1.12827e-02,-1.81145e-02,0.00000e+00,0.00000e+00,0.00000e+00,0.00000e+00,0.00000e+00,0.00000e+00,0.00000e+00,0.00000e+00,4.32631e-02,-2.00112e-03,-4.62710e-02,-3.07318e-02,3.91366e-02,-5.29237e-02,2.27387e-02,-1.03914e-02,0.00000e+00,0.00000e+00,0.00000e+00,0.00000e+00,0.00000e+00,0.00000e+00,0.00000e+00,0.00000e+00,2.75888e-02,-1.77451e-02,6.72253e-03,1.74230e-02,1.17625e-02,-1.45588e-02,-1.80066e-02,-5.94493e-03,0.00000e+00,0.00000e+00,0.00000e+00,0.00000e+00,0.00000e+00,0.00000e+00,0.00000e+00,0.00000e+00,-3.61373e-02,-2.84218e-02,-2.32460e-02,-4.43733e-02,5.13738e-02,-4.08539e-03,-5.46301e-02,1.79165e-02,0.00000e+00,0.00000e+00,0.00000e+00,0.00000e+00,0.00000e+00,0.00000e+00,0.00000e+00,0.00000e+00,-5.60154e-02,-6.55003e-03,-6.74647e-03,4.98546e-02,-9.63435e-03,5.35194e-02,1.04906e-02,2.22857e-02,0.00000e+00,0.00000e+00,0.00000e+00,0.00000e+00,0.00000e+00,0.00000e+00,0.00000e+00,0.00000e+00,3.67544e-02,-5.51061e-02,5.95445e-04,3.66924e-02,-1.26999e-02,-4.10371e-02,4.06730e-02,-5.34255e-02,0.00000e+00,0.00000e+00,0.00000e+00,0.00000e+00,0.00000e+00,0.00000e+00,0.00000e+00,0.00000e+00,-3.40289e-02,-1.77015e-02,-5.61169e-02,-5.05016e-02,2.61717e-02,-5.52215e-02,3.04329e-02,2.31472e-02,
0.00000e+00,0.00000e+00,0.00000e+00,0.00000e+00,0.00000e+00,0.00000e+00,0.00000e+00,0.00000e+00,2.39374e-01,4.27798e-01,1.75359e-02,-8.41893e-02,-2.60027e-02,-2.24149e-01,-1.19290e-01,-4.24481e-01,0.00000e+00,0.00000e+00,0.00000e+00,0.00000e+00,0.00000e+00,0.00000e+00,0.00000e+00,0.00000e+00,7.43642e-01,8.75108e-01,6.98261e-01,8.62971e-01,8.52821e-01,3.12717e-01,-4.01106e-04,2.35842e-02,0.00000e+00,0.00000e+00,0.00000e+00,0.00000e+00,0.00000e+00,0.00000e+00,0.00000e+00,0.00000e+00,-2.84602e-01,5.63724e-02,-1.32420e-01,-1.40005e-01,-2.42608e-01,-2.23409e-01,-1.88347e-01,-4.30357e-01,0.00000e+00,0.00000e+00,0.00000e+00,0.00000e+00,0.00000e+00,0.00000e+00,0.00000e+00,0.00000e+00,-2.70188e-01,-1.53780e-01,-1.62568e-01,-2.90898e-01,7.17063e-03,1.39470e-01,-7.16152e-03,-2.92097e-02,0.00000e+00,0.00000e+00,0.00000e+00,0.00000e+00,0.00000e+00,0.00000e+00,0.00000e+00,0.00000e+00,-5.96418e-01,-3.10944e-01,1.15451e-02,1.05733e-01,9.44647e-02,1.16787e-01,9.26457e-02,1.79243e-01,0.00000e+00,0.00000e+00,0.00000e+00,0.00000e+00,0.00000e+00,0.00000e+00,0.00000e+00,0.00000e+00,-3.55990e-01,-1.79409e-01,6.97979e-03,1.37320e-01,1.82493e-01,1.63914e-01,2.13124e-01,3.16995e-01,0.00000e+00,0.00000e+00,0.00000e+00,0.00000e+00,0.00000e+00,0.00000e+00,0.00000e+00,0.00000e+00,-6.30023e-02,-7.41907e-02,7.89371e-02,-3.48942e-02,1.73056e-01,1.79748e-01,1.74766e-01,2.50395e-01,0.00000e+00,0.00000e+00,0.00000e+00,0.00000e+00,0.00000e+00,0.00000e+00,0.00000e+00,0.00000e+00,-5.17607e-02,-6.38819e-02,5.23088e-02,1.39827e-01,-3.12905e-02,1.49752e-01,2.37951e-01,1.86336e-01,
0.00000e+00,0.00000e+00,0.00000e+00,0.00000e+00,0.00000e+00,0.00000e+00,0.00000e+00,0.00000e+00,-1.80339e-02,4.64268e-03,9.82755e-03,-4.44333e-02,-5.65111e-03,-3.50632e-02,-2.30805e-02,2.82493e-02,0.00000e+00,0.00000e+00,0.00000e+00,0.00000e+00,0.00000e+00,0.00000e+00,0.00000e+00,0.00000e+00,-3.33371e-02,-2.91073e-02,3.24830e-02,-3.61862e-02,-3.40459e-02,4.50635e-02,4.27831e-02,-3.13488e-02,0.00000e+00,0.00000e+00,0.00000e+00,0.00000e+00,0.00000e+00,0.00000e+00,0.00000e+00,0.00000e+00,-4.30957e-02,5.86930e-03,4.31140e-02,1.52609e-02,1.42074e-03,1.17969e-02,-2.49382e-02,-4.36185e-02,0.00000e+00,0.00000e+00,0.00000e+00,0.00000e+00,0.00000e+00,0.00000e+00,0.00000e+00,0.00000e+00,-5.87370e-02,-2.02366e-02,1.36188e-02,4.98458e-03,-2.08761e-02,-8.11069e-03,-5.74700e-02,-1.80839e-02,0.00000e+00,0.00000e+00,0.00000e+00,0.00000e+00,0.00000e+00,0.00000e+00,0.00000e+00,0.00000e+00,3.36670e-03,-2.65445e-03,-2.96384e-02,4.02990e-03,1.45998e-02,-5.13293e-02,1.31483e-02,4.81017e-03,0.00000e+00,0.00000e+00,0.00000e+00,0.00000e+00,0.00000e+00,0.00000e+00,0.00000e+00,0.00000e+00,-2.92083e-02,-5.68935e-02,3.36206e-02,-3.58694e-02,-3.56907e-02,1.70331e-02,-2.16193e-02,2.34197e-02,0.00000e+00,0.00000e+00,0.00000e+00,0.00000e+00,0.00000e+00,0.00000e+00,0.00000e+00,0.00000e+00,-1.81105e-02,2.84394e-02,1.52063e-02,1.32528e-02,2.70910e-02,-1.04151e-02,3.51568e-02,-8.85478e-03,0.00000e+00,0.00000e+00,0.00000e+00,0.00000e+00,0.00000e+00,0.00000e+00,0.00000e+00,0.00000e+00,-5.85575e-02,-2.20386e-02,2.06987e-02,1.68409e-02,2.11656e-02,-2.71732e-02,3.13785e-02,-3.82310e-02,
0.00000e+00,0.00000e+00,0.00000e+00,0.00000e+00,0.00000e+00,0.00000e+00,0.00000e+00,0.00000e+00,3.85186e-01,1.93312e-01,2.02101e-01,1.45183e-01,-2.15490e-01,-3.98448e-01,-3.01084e-01,2.16266e-01,0.00000e+00,0.00000e+00,0.00000e+00,0.00000e+00,0.00000e+00,0.00000e+00,0.00000e+00,0.00000e+00,7.11346e-01,7.00489e-01,3.47391e-01,-2.13132e-01,-7.16652e-01,-8.88879e-01,-7.96965e-01,-5.28827e-01,0.00000e+00,0.00000e+00,0.00000e+00,0.00000e+00,0.00000e+00,0.00000e+00,0.00000e+00,0.00000e+00,1.77109e-01,9.92533e-04,-3.13425e-02,-1.35122e-01,-1.25256e-02,1.54902e-01,2.76664e-01,3.10620e-01,0.00000e+00,0.00000e+00,0.00000e+00,0.00000e+00,0.00000e+00,0.00000e+00,0.00000e+00,0.00000e+00,4.57961e-02,2.39313e-02,-9.87840e-02,-1.59540e-01,5.16974e-02,7.15930e-02,-4.62851e-03,1.85228e-01,0.00000e+00,0.00000e+00,0.00000e+00,0.00000e+00,0.00000e+00,0.00000e+00,0.00000e+00,0.00000e+00,-1.16565e-02,-1.19114e-01,-1.53732e-02,1.71725e-02,4.23836e-02,1.24078e-02,5.24277e-02,2.84588e-01,0.00000e+00,0.00000e+00,0.00000e+00,0.00000e+00,0.00000e+00,0.00000e+00,0.00000e+00,0.00000e+00,-1.01812e-02,-2.34562e-02,6.10556e-02,-2.82820e-02,5.66963e-02,-2.21626e-02,6.02146e-02,1.50252e-01,0.00000e+00,0.00000e+00,0.00000e+00,0.00000e+00,0.00000e+00,0.00000e+00,0.00000e+00,0.00000e+00,-2.87522e-02,-4.41735e-04,5.80366e-02,-8.59404e-03,4.66904e-02,5.31891e-02,2.34668e-02,1.13707e-01,0.00000e+00,0.00000e+00,0.00000e+00,0.00000e+00,0.00000e+00,0.00000e+00,0.00000e+00,0.00000e+00,3.32759e-02,-1.10145e-03,-2.62369e-03,7.43299e-02,-2.23784e-02,-3.20278e-03,5.73598e-02,-1.77525e-02,
0.00000e+00,0.00000e+00,0.00000e+00,0.00000e+00,0.00000e+00,0.00000e+00,0.00000e+00,0.00000e+00,7.19959e-03,-8.86997e-03,6.11817e-03,4.39391e-02,-6.62121e-03,-3.97634e-02,2.42277e-02,1.41348e-02,0.00000e+00,0.00000e+00,0.00000e+00,0.00000e+00,0.00000e+00,0.00000e+00,0.00000e+00,0.00000e+00,4.08805e-02,-3.78222e-02,-5.06343e-02,-2.03932e-02,1.86123e-02,-1.03738e-02,2.06348e-02,-3.81370e-02,0.00000e+00,0.00000e+00,0.00000e+00,0.00000e+00,0.00000e+00,0.00000e+00,0.00000e+00,0.00000e+00,-7.01360e-03,3.18895e-02,1.16387e-03,-9.13493e-03,7.74579e-03,2.79532e-02,-3.92961e-02,-3.82647e-02,0.00000e+00,0.00000e+00,0.00000e+00,0.00000e+00,0.00000e+00,0.00000e+00,0.00000e+00,0.00000e+00,-4.95228e-02,-1.15204e-02,5.14349e-02,4.28738e-02,-4.58795e-02,-4.40627e-02,-1.06317e-02,3.86530e-02,0.00000e+00,0.00000e+00,0.00000e+00,0.00000e+00,0.00000e+00,0.00000e+00,0.00000e+00,0.00000e+00,3.68262e-02,2.12304e-02,-1.68193e-02,5.42034e-03,1.33347e-02,-2.20260e-02,-1.25686e-02,-5.28634e-02,0.00000e+00,0.00000e+00,0.00000e+00,0.00000e+00,0.00000e+00,0.00000e+00,0.00000e+00,0.00000e+00,-3.31490e-02,-5.00730e-02,-2.04881e-02,3.27804e-02,-3.12507e-02,-1.49205e-02,2.15405e-02,-1.76359e-02,0.00000e+00,0.00000e+00,0.00000e+00,0.00000e+00,0.00000e+00,0.00000e+00,0.00000e+00,0.00000e+00,3.45025e-02,-2.77922e-02,-4.16062e-02,1.34599e-02,-4.25423e-02,-1.57607e-02,-4.68330e-02,2.18504e-02,0.00000e+00,0.00000e+00,0.00000e+00,0.00000e+00,0.00000e+00,0.00000e+00,0.00000e+00,0.00000e+00,-3.62255e-02,4.09985e-02,2.82864e-02,-5.14877e-02,-1.39294e-02,2.46579e-02,-3.38581e-02,2.13453e-02,
0.00000e+00,0.00000e+00,0.00000e+00,0.00000e+00,0.00000e+00,0.00000e+00,0.00000e+00,0.00000e+00,-2.91588e-02,1.55466e-02,3.96458e-02,-2.05086e-02,5.17802e-03,4.96721e-02,4.80380e-04,3.85154e-02,0.00000e+00,0.00000e+00,0.00000e+00,0.00000e+00,0.00000e+00,0.00000e+00,0.00000e+00,0.00000e+00,-5.23126e-02,-4.85125e-02,-8.71118e-04,3.33002e-02,-1.94614e-02,-9.45330e-05,-4.32779e-02,1.20874e-02,0.00000e+00,0.00000e+00,0.00000e+00,0.00000e+00,0.00000e+00,0.00000e+00,0.00000e+00,0.00000e+00,4.67334e-03,-4.69053e-02,1.13560e-02,-2.25495e-02,4.02836e-02,-9.92913e-03,-3.31885e-02,1.33199e-03,0.00000e+00,0.00000e+00,0.00000e+00,0.00000e+00,0.00000e+00,0.00000e+00,0.00000e+00,0.00000e+00,6.37515e-03,-2.51982e-04,-4.15008e-02,1.40712e-02,-3.45160e-02,-1.09793e-02,4.69460e-02,-2.11080e-02,0.00000e+00,0.00000e+00,0.00000e+00,0.00000e+00,0.00000e+00,0.00000e+00,0.00000e+00,0.00000e+00,-1.80153e-02,-3.75621e-02,2.08368e-02,7.14519e-03,-3.98920e-02,-1.91826e-02,-1.68130e-02,2.53367e-02,0.00000e+00,0.00000e+00,0.00000e+00,0.00000e+00,0.00000e+00,0.00000e+00,0.00000e+00,0.00000e+00,2.96393e-03,-2.59295e-03,9.94712e-04,-1.93676e-02,4.32066e-02,-4.12728e-02,4.87339e-02,1.87402e-02,0.00000e+00,0.00000e+00,0.00000e+00,0.00000e+00,0.00000e+00,0.00000e+00,0.00000e+00,0.00000e+00,-3.43343e-03,-5.32812e-02,3.21081e-03,-4.83918e-02,1.59539e-02,-3.15930e-02,-1.16797e-02,2.02566e-02,0.00000e+00,0.00000e+00,0.00000e+00,0.00000e+00,0.00000e+00,0.00000e+00,0.00000e+00,0.00000e+00,-9.92627e-03,-2.01957e-02,1.80926e-02,-3.63850e-02,-1.25788e-02,1.93682e-02,-4.38024e-02,2.25254e-02,
0.00000e+00,0.00000e+00,0.00000e+00,0.00000e+00,0.00000e+00,0.00000e+00,0.00000e+00,0.00000e+00,1.45691e-01,-2.27014e-01,-5.07481e-01,-4.47623e-01,-3.17741e-01,-1.69769e-01,-2.04120e-01,1.27336e-01,0.00000e+00,0.00000e+00,0.00000e+00,0.00000e+00,0.00000e+00,0.00000e+00,0.00000e+00,0.00000e+00,9.12252e-01,8.64727e-01,5.00864e-01,3.95702e-01,2.38124e-01,-7.87583e-02,-1.70152e-01,-2.94089e-01,0.00000e+00,0.00000e+00,0.00000e+00,0.00000e+00,0.00000e+00,0.00000e+00,0.00000e+00,0.00000e+00,8.57583e-01,6.35122e-01,5.09419e-01,2.50014e-01,1.80674e-02,-3.15796e-02,-3.03626e-03,2.72357e-01,0.00000e+00,0.00000e+00,0.00000e+00,0.00000e+00,0.00000e+00,0.00000e+00,0.00000e+00,0.00000e+00,3.39065e-01,7.61709e-02,2.16256e-01,2.69299e-01,-2.39745e-02,-3.95992e-02,-1.57047e-01,-3.21646e-02,0.00000e+00,0.00000e+00,0.00000e+00,0.00000e+00,0.00000e+00,0.00000e+00,0.00000e+00,0.00000e+00,3.68258e-01,9.93993e-02,-1.44237e-02,4.27898e-02,-3.95805e-02,-1.17592e-01,-2.04546e-01,-9.33945e-02,0.00000e+00,0.00000e+00,0.00000e+00,0.00000e+00,0.00000e+00,0.00000e+00,0.00000e+00,0.00000e+00,1.85637e-01,4.35778e-02,3.89866e-02,-8.07494e-02,-1.43635e-01,-3.72012e-02,-1.29053e-01,-3.58979e-02,0.00000e+00,0.00000e+00,0.00000e+00,0.00000e+00,0.00000e+00,0.00000e+00,0.00000e+00,0.00000e+00,3.44326e-03,3.48417e-02,-6.50109e-02,-1.84114e-02,-9.43316e-02,-1.00997e-01,-9.32910e-02,-6.17904e-02,0.00000e+00,0.00000e+00,0.00000e+00,0.00000e+00,0.00000e+00,0.00000e+00,0.00000e+00,0.00000e+00,-5.16983e-02,-6.78008e-02,-1.26967e-01,-8.66031e-02,-2.35299e-02,-2.64132e-02,-6.39204e-02,-1.35983e-01,
0.00000e+00,0.00000e+00,0.00000e+00,0.00000e+00,0.00000e+00,0.00000e+00,0.00000e+00,0.00000e+00,2.94187e-01,2.61568e-01,4.77300e-01,5.48128e-01,6.80881e-03,-3.86451e-01,-8.09298e-01,-5.68662e-01,0.00000e+00,0.00000e+00,0.00000e+00,0.00000e+00,0.00000e+00,0.00000e+00,0.00000e+00,0.00000e+00,-7.90382e-01,-7.62880e-01,-6.53232e-01,-7.54349e-01,-4.66081e-01,-3.66852e-01,-2.53218e-01,-2.45844e-01,0.00000e+00,0.00000e+00,0.00000e+00,0.00000e+00,0.00000e+00,0.00000e+00,0.00000e+00,0.00000e+00,2.61166e-01,5.87229e-02,1.31182e-01,4.76523e-02,1.57788e-01,1.88380e-01,-1.24103e-01,-4.69834e-02,0.00000e+00,0.00000e+00,0.00000e+00,0.00000e+00,0.00000e+00,0.00000e+00,0.00000e+00,0.00000e+00,2.73371e-01,1.87040e-01,2.69619e-01,9.58586e-02,2.55274e-01,2.31332e-01,3.17076e-01,2.49863e-01,0.00000e+00,0.00000e+00,0.00000e+00,0.00000e+00,0.00000e+00,0.00000e+00,0.00000e+00,0.00000e+00,1.92921e-01,9.74206e-02,1.46946e-01,1.69253e-01,3.35122e-02,1.84220e-01,3.56598e-01,3.69298e-01,0.00000e+00,0.00000e+00,0.00000e+00,0.00000e+00,0.00000e+00,0.00000e+00,0.00000e+00,0.00000e+00,1.88399e-01,9.02632e-02,-9.75936e-04,1.61477e-01,2.08416e-01,8.31238e-02,2.07955e-01,1.85504e-01,0.00000e+00,0.00000e+00,0.00000e+00,0.00000e+00,0.00000e+00,0.00000e+00,0.00000e+00,0.00000e+00,7.68326e-02,9.14819e-02,1.03722e-01,9.27813e-02,1.23856e-01,1.07672e-01,1.85181e-01,1.77977e-01,0.00000e+00,0.00000e+00,0.00000e+00,0.00000e+00,0.00000e+00,0.00000e+00,0.00000e+00,0.00000e+00,1.88939e-01,1.38163e-01,1.90844e-01,2.61465e-01,1.54403e-01,1.98085e-01,1.47536e-01,1.42930e-01,
0.00000e+00,0.00000e+00,0.00000e+00,0.00000e+00,0.00000e+00,0.00000e+00,0.00000e+00,0.00000e+00,-2.59063e-02,-4.93156e-02,4.04910e-02,-1.76930e-02,4.86972e-02,-2.34795e-02,-1.17459e-02,3.12902e-02,0.00000e+00,0.00000e+00,0.00000e+00,0.00000e+00,0.00000e+00,0.00000e+00,0.00000e+00,0.00000e+00,-4.97270e-02,1.39389e-02,-3.67426e-02,-2.60058e-02,-1.54232e-02,-1.95545e-02,-4.57114e-02,4.69857e-02,0.00000e+00,0.00000e+00,0.00000e+00,0.00000e+00,0.00000e+00,0.00000e+00,0.00000e+00,0.00000e+00,-1.40510e-02,-8.09728e-03,-2.24591e-02,2.83805e-02,-5.01196e-02,5.48987e-03,-3.22822e-02,-1.63497e-03,0.00000e+00,0.00000e+00,0.00000e+00,0.00000e+00,0.00000e+00,0.00000e+00,0.00000e+00,0.00000e+00,-4.18915e-02,2.60378e-02,-3.91375e-02,3.17339e-02,-3.30734e-02,-4.63521e-02,3.80936e-02,-5.20027e-02,0.00000e+00,0.00000e+00,0.00000e+00,0.00000e+00,0.00000e+00,0.00000e+00,0.00000e+00,0.00000e+00,-2.65504e-02,-1.86401e-02,-2.71259e-02,1.93188e-03,1.91178e-02,-1.02218e-02,8.97605e-03,8.20808e-03,0.00000e+00,0.00000e+00,0.00000e+00,0.00000e+00,0.00000e+00,0.00000e+00,0.00000e+00,0.00000e+00,-1.26534e-02,-9.17342e-03,-2.09640e-02,5.30535e-02,-2.99299e-02,3.35768e-03,-2.20611e-02,3.66985e-02,0.00000e+00,0.00000e+00,0.00000e+00,0.00000e+00,0.00000e+00,0.00000e+00,0.00000e+00,0.00000e+00,4.10330e-02,1.09848e-02,-1.21487e-03,-1.09234e-02,3.18520e-02,5.17803e-02,2.24482e-04,-9.78504e-03,0.00000e+00,0.00000e+00,0.00000e+00,0.00000e+00,0.00000e+00,0.00000e+00,0.00000e+00,0.00000e+00,2.22565e-02,-3.61924e-02,5.99594e-03,1.32920e-02,-2.39222e-02,-2.80077e-02,-2.00074e-02,-1.01632e-03,
0.00000e+00,0.00000e+00,0.00000e+00,0.00000e+00,0.00000e+00,0.00000e+00,0.00000e+00,0.00000e+00,1.55550e-02,-1.95868e-02,-3.95949e-02,-3.06313e-02,-4.76327e-02,-2.86724e-02,-2.30462e-02,5.80394e-03,0.00000e+00,0.00000e+00,0.00000e+00,0.00000e+00,0.00000e+00,0.00000e+00,0.00000e+00,0.00000e+00,-3.38225e-02,-4.96125e-02,1.02311e-02,-4.21473e-02,-4.39639e-02,1.54557e-02,3.31209e-02,2.58826e-02,0.00000e+00,0.00000e+00,0.00000e+00,0.00000e+00,0.00000e+00,0.00000e+00,0.00000e+00,0.00000e+00,-3.16301e-02,4.70132e-02,4.43902e-02,2.13564e-02,4.16030e-02,6.41833e-03,-3.43079e-02,-5.27717e-02,0.00000e+00,0.00000e+00,0.00000e+00,0.00000e+00,0.00000e+00,0.00000e+00,0.00000e+00,0.00000e+00,1.57237e-04,-1.25270e-02,-3.31601e-02,-6.85280e-03,-5.15026e-02,-3.56248e-02,-3.02995e-02,-6.18145e-04,0.00000e+00,0.00000e+00,0.00000e+00,0.00000e+00,0.00000e+00,0.00000e+00,0.00000e+00,0.00000e+00,1.68715e-02,-2.44981e-02,4.36760e-03,-2.45470e-02,-4.56486e-02,-4.91643e-02,-2.66677e-02,-2.72579e-02,0.00000e+00,0.00000e+00,0.00000e+00,0.00000e+00,0.00000e+00,0.00000e+00,0.00000e+00,0.00000e+00,4.16257e-02,1.87284e-02,-5.50435e-02,3.67871e-02,5.03591e-02,-3.25109e-02,2.06862e-03,-2.88094e-03,0.00000e+00,0.00000e+00,0.00000e+00,0.00000e+00,0.00000e+00,0.00000e+00,0.00000e+00,0.00000e+00,4.38177e-02,-3.91405e-02,-4.84041e-02,1.54906e-02,-4.32089e-02,7.58075e-03,4.39101e-02,-7.58443e-03,0.00000e+00,0.00000e+00,0.00000e+00,0.00000e+00,0.00000e+00,0.00000e+00,0.00000e+00,0.00000e+00,2.78012e-02,3.50867e-02,4.25134e-02,2.71180e-02,-3.05833e-02,-8.26649e-03,4.97818e-02,4.60036e-02,
0.00000e+00,0.00000e+00,0.00000e+00,0.00000e+00,0.00000e+00,0.00000e+00,0.00000e+00,0.00000e+00,2.58709e-02,-2.72844e-02,-2.74383e-02,-1.41965e-02,2.37841e-02,4.53585e-02,-3.53278e-03,-5.02532e-02,0.00000e+00,0.00000e+00,0.00000e+00,0.00000e+00,0.00000e+00,0.00000e+00,0.00000e+00,0.00000e+00,-1.70619e-02,3.51084e-02,-3.55988e-02,1.20819e-02,-4.37162e-02,-3.82192e-02,-5.20957e-02,-3.83088e-02,0.00000e+00,0.00000e+00,0.00000e+00,0.00000e+00,0.00000e+00,0.00000e+00,0.00000e+00,0.00000e+00,-4.68809e-02,3.27805e-02,2.75810e-03,4.22285e-02,-3.64205e-02,1.63844e-02,4.87182e-03,-7.47122e-03,0.00000e+00,0.00000e+00,0.00000e+00,0.00000e+00,0.00000e+00,0.00000e+00,0.00000e+00,0.00000e+00,9.82853e-03,2.12326e-02,4.79272e-02,4.36856e-03,-6.09989e-03,-2.94104e-02,1.84381e-02,-1.14216e-02,0.00000e+00,0.00000e+00,0.00000e+00,0.00000e+00,0.00000e+00,0.00000e+00,0.00000e+00,0.00000e+00,-4.12002e-02,4.59343e-02,-2.15524e-02,5.16534e-02,3.52690e-02,-3.36648e-02,-2.52990e-02,-4.60485e-02,0.00000e+00,0.00000e+00,0.00000e+00,0.00000e+00,0.00000e+00,0.00000e+00,0.00000e+00,0.00000e+00,-2.42965e-02,1.85177e-02,-3.25263e-02,-4.84955e-02,4.10926e-02,6.70917e-03,-3.32032e-02,-5.11052e-02,0.00000e+00,0.00000e+00,0.00000e+00,0.00000e+00,0.00000e+00,0.00000e+00,0.00000e+00,0.00000e+00,-4.82779e-02,5.17128e-02,-2.91935e-03,-1.42236e-02,3.04574e-02,1.57763e-02,-4.10994e-02,-4.04621e-02,0.00000e+00,0.00000e+00,0.00000e+00,0.00000e+00,0.00000e+00,0.00000e+00,0.00000e+00,0.00000e+00,4.79057e-02,2.26016e-02,-4.64633e-02,-3.80367e-02,1.61297e-02,-1.52712e-02,-1.91615e-02,-1.56348e-02,
0.00000e+00,0.00000e+00,0.00000e+00,0.00000e+00,0.00000e+00,0.00000e+00,0.00000e+00,0.00000e+00,-3.95332e-02,4.50549e-01,6.40625e-01,5.89014e-01,4.38916e-01,3.44014e-01,5.82866e-01,7.31540e-01,0.00000e+00,0.00000e+00,0.00000e+00,0.00000e+00,0.00000e+00,0.00000e+00,0.00000e+00,0.00000e+00,-5.09330e-01,-3.23364e-01,-8.07268e-02,1.85634e-01,3.16667e-02,2.83386e-01,3.38057e-01,6.24505e-01,0.00000e+00,0.00000e+00,0.00000e+00,0.00000e+00,0.00000e+00,0.00000e+00,0.00000e+00,0.00000e+00,-2.95188e-01,-1.09568e-01,-3.92640e-02,7.49764e-04,2.27980e-01,1.78348e-01,4.76131e-01,3.13774e-01,0.00000e+00,0.00000e+00,0.00000e+00,0.00000e+00,0.00000e+00,0.00000e+00,0.00000e+00,0.00000e+00,-1.54300e-01,-2.73059e-01,-2.88491e-01,-1.51456e-01,-6.90938e-02,-5.40166e-02,1.47726e-01,2.46803e-01,0.00000e+00,0.00000e+00,0.00000e+00,0.00000e+00,0.00000e+00,0.00000e+00,0.00000e+00,0.00000e+00,-3.30352e-01,-3.02269e-01,-2.43303e-01,-7.04233e-02,2.46603e-02,-4.72257e-02,1.64591e-01,1.99654e-01,0.00000e+00,0.00000e+00,0.00000e+00,0.00000e+00,0.00000e+00,0.00000e+00,0.00000e+00,0.00000e+00,-3.21761e-01,-8.15616e-02,-5.16664e-02,-8.03166e-02,-8.77710e-02,-2.69198e-02,3.40865e-02,3.97968e-02,0.00000e+00,0.00000e+00,0.00000e+00,0.00000e+00,0.00000e+00,0.00000e+00,0.00000e+00,0.00000e+00,-2.56704e-01,-1.06208e-01,-8.25029e-02,-5.82555e-02,-1.19871e-01,-1.91044e-02,-3.59052e-02,3.63531e-02,0.00000e+00,0.00000e+00,0.00000e+00,0.00000e+00,0.00000e+00,0.00000e+00,0.00000e+00,0.00000e+00,-3.43319e-01,-2.84363e-01,-1.42424e-01,-2.07039e-01,-1.84679e-01,-1.28885e-01,-5.18247e-02,-9.11051e-02,
0.00000e+00,0.00000e+00,0.00000e+00,0.00000e+00,0.00000e+00,0.00000e+00,0.00000e+00,0.00000e+00,-8.52965e-01,-1.08803e+00,-8.48045e-01,-3.16860e-01,-2.99524e-01,-2.82620e-01,-1.59679e-01,-3.37226e-01,0.00000e+00,0.00000e+00,0.00000e+00,0.00000e+00,0.00000e+00,0.00000e+00,0.00000e+00,0.00000e+00,-6.34346e-01,-5.04904e-01,-3.74243e-01,-1.85597e-01,1.10017e-01,-3.53617e-02,-2.16577e-03,-1.95783e-01,0.00000e+00,0.00000e+00,0.00000e+00,0.00000e+00,0.00000e+00,0.00000e+00,0.00000e+00,0.00000e+00,2.95751e-02,1.21184e-02,2.51287e-01,2.85024e-01,2.55776e-01,3.70316e-01,4.83367e-01,8.16103e-01,0.00000e+00,0.00000e+00,0.00000e+00,0.00000e+00,0.00000e+00,0.00000e+00,0.00000e+00,0.00000e+00,2.77542e-02,6.22773e-02,9.73074e-02,1.26461e-01,8.15276e-02,1.83386e-01,6.37983e-01,7.64557e-01,0.00000e+00,0.00000e+00,0.00000e+00,0.00000e+00,0.00000e+00,0.00000e+00,0.00000e+00,0.00000e+00,5.86859e-03,-1.65064e-02,-6.09419e-02,8.49853e-02,2.75381e-01,2.76609e-01,1.32801e-01,4.53162e-01,0.00000e+00,0.00000e+00,0.00000e+00,0.00000e+00,0.00000e+00,0.00000e+00,0.00000e+00,0.00000e+00,2.94255e-02,3.97951e-02,4.89760e-02,-1.02898e-02,5.99150e-02,1.93729e-01,3.54811e-02,4.53961e-01,0.00000e+00,0.00000e+00,0.00000e+00,0.00000e+00,0.00000e+00,0.00000e+00,0.00000e+00,0.00000e+00,5.98464e-02,-6.19300e-03,1.42313e-01,4.44833e-02,1.72675e-01,1.34221e-01,4.09473e-02,1.39300e-01,0.00000e+00,0.00000e+00,0.00000e+00,0.00000e+00,0.00000e+00,0.00000e+00,0.00000e+00,0.00000e+00,7.30970e-02,8.58392e-02,5.83751e-02,6.17135e-02,2.43390e-01,1.58534e-01,3.77901e-02,1.89510e-01,
0.00000e+00,0.00000e+00,0.00000e+00,0.00000e+00,0.00000e+00,0.00000e+00,0.00000e+00,0.00000e+00,5.28245e-02,-6.47258e-03,-5.25394e-02,1.88913e-02,-4.61258e-02,-2.94678e-02,2.08930e-02,4.95811e-02,0.00000e+00,0.00000e+00,0.00000e+00,0.00000e+00,0.00000e+00,0.00000e+00,0.00000e+00,0.00000e+00,-5.22694e-02,2.69114e-02,1.44432e-02,-3.01468e-02,6.14579e-03,-4.99141e-02,-1.25279e-02,6.43320e-03,0.00000e+00,0.00000e+00,0.00000e+00,0.00000e+00,0.00000e+00,0.00000e+00,0.00000e+00,0.00000e+00,5.25441e-02,-2.05442e-02,3.04482e-02,-2.91695e-02,-2.86503e-02,-2.71388e-02,4.40476e-02,-2.51678e-02,0.00000e+00,0.00000e+00,0.00000e+00,0.00000e+00,0.00000e+00,0.00000e+00,0.00000e+00,0.00000e+00,-1.25708e-02,3.60903e-02,7.52382e-03,4.47070e-02,4.66263e-02,3.27894e-03,-1.95180e-02,-1.85422e-02,0.00000e+00,0.00000e+00,0.00000e+00,0.00000e+00,0.00000e+00,0.00000e+00,0.00000e+00,0.00000e+00,-5.22113e-02,-2.28669e-03,-6.99883e-03,-1.34827e-03,1.52913e-02,1.61955e-02,4.47155e-02,-2.85229e-02,0.00000e+00,0.00000e+00,0.00000e+00,0.00000e+00,0.00000e+00,0.00000e+00,0.00000e+00,0.00000e+00,4.68978e-02,-2.32974e-02,-2.73484e-02,-1.34555e-02,-5.07260e-02,-1.36772e-02,-4.40383e-02,-4.88116e-02,0.00000e+00,0.00000e+00,0.00000e+00,0.00000e+00,0.00000e+00,0.00000e+00,0.00000e+00,0.00000e+00,-2.90090e-02,-3.27590e-02,-3.84486e-02,-2.47504e-02,4.94206e-02,-2.89629e-02,-2.09431e-02,4.57590e-02,0.00000e+00,0.00000e+00,0.00000e+00,0.00000e+00,0.00000e+00,0.00000e+00,0.00000e+00,0.00000e+00,-2.49514e-02,3.07990e-02,4.27206e-02,5.43486e-03,-4.20427e-02,-2.65651e-02,2.60007e-02,7.62615e-03,
0.00000e+00,0.00000e+00,0.00000e+00,0.00000e+00,0.00000e+00,0.00000e+00,0.00000e+00,0.00000e+00,1.24682e-02,4.67081e-02,-5.08565e-02,2.83517e-02,-3.41244e-03,-4.86805e-02,-4.29548e-02,-8.25967e-03,0.00000e+00,0.00000e+00,0.00000e+00,0.00000e+00,0.00000e+00,0.00000e+00,0.00000e+00,0.00000e+00,1.83682e-02,-3.43942e-02,7.93633e-03,-1.72673e-02,-1.30136e-02,-1.08865e-02,4.32918e-02,2.08481e-02,0.00000e+00,0.00000e+00,0.00000e+00,0.00000e+00,0.00000e+00,0.00000e+00,0.00000e+00,0.00000e+00,-2.70385e-02,-5.02922e-02,-8.67932e-04,2.41254e-02,5.17910e-02,-3.63933e-02,-4.08020e-02,-8.99167e-03,0.00000e+00,0.00000e+00,0.00000e+00,0.00000e+00,0.00000e+00,0.00000e+00,0.00000e+00,0.00000e+00,1.17469e-02,-1.79316e-02,4.06596e-03,2.20115e-02,1.93372e-02,4.23467e-02,-3.12717e-02,-2.15769e-02,0.00000e+00,0.00000e+00,0.00000e+00,0.00000e+00,0.00000e+00,0.00000e+00,0.00000e+00,0.00000e+00,-1.39314e-02,-1.13605e-02,-4.98699e-02,-2.87828e-03,-3.29167e-02,2.91812e-02,1.23372e-02,3.96922e-02,0.00000e+00,0.00000e+00,0.00000e+00,0.00000e+00,0.00000e+00,0.00000e+00,0.00000e+00,0.00000e+00,-3.75827e-02,2.32114e-02,-2.58655e-02,2.86202e-02,1.60333e-02,-2.44983e-02,-4.06286e-02,-2.03433e-02,0.00000e+00,0.00000e+00,0.00000e+00,0.00000e+00,0.00000e+00,0.00000e+00,0.00000e+00,0.00000e+00,-4.77071e-02,-5.62137e-02,-4.04281e-02,3.10836e-02,-4.83722e-02,-1.23434e-03,-1.94122e-02,-4.64904e-02,0.00000e+00,0.00000e+00,0.00000e+00,0.00000e+00,0.00000e+00,0.00000e+00,0.00000e+00,0.00000e+00,-2.27925e-02,4.19741e-02,-3.70699e-03,3.75470e-02,-2.71599e-02,2.04119e-02,2.97751e-02,-1.01290e-02,
0.00000e+00,0.00000e+00,0.00000e+00,0.00000e+00,0.00000e+00,0.00000e+00,0.00000e+00,0.00000e+00,-4.11759e-02,2.38543e-02,-4.04168e-03,-3.81643e-02,2.64448e-02,4.92556e-02,-4.98689e-02,-1.88599e-02,0.00000e+00,0.00000e+00,0.00000e+00,0.00000e+00,0.00000e+00,0.00000e+00,0.00000e+00,0.00000e+00,-3.91358e-02,1.01207e-02,1.95014e-02,-3.88241e-02,-5.27256e-02,-4.16706e-02,-3.64702e-02,-3.81772e-02,0.00000e+00,0.00000e+00,0.00000e+00,0.00000e+00,0.00000e+00,0.00000e+00,0.00000e+00,0.00000e+00,-4.27138e-02,-2.64680e-02,2.25509e-02,4.50415e-02,-3.43345e-02,4.82475e-02,2.27219e-02,3.37318e-02,0.00000e+00,0.00000e+00,0.00000e+00,0.00000e+00,0.00000e+00,0.00000e+00,0.00000e+00,0.00000e+00,-4.72031e-02,-4.34917e-02,-3.40444e-02,-1.47787e-02,3.42526e-02,-2.72208e-02,-4.31342e-02,5.08486e-02,0.00000e+00,0.00000e+00,0.00000e+00,0.00000e+00,0.00000e+00,0.00000e+00,0.00000e+00,0.00000e+00,-2.17108e-02,1.33896e-02,-1.17116e-02,4.99619e-02,-3.90494e-02,2.82499e-02,5.97240e-03,1.78367e-03,0.00000e+00,0.00000e+00,0.00000e+00,0.00000e+00,0.00000e+00,0.00000e+00,0.00000e+00,0.00000e+00,1.57463e-02,9.01684e-03,-1.96388e-02,-3.24139e-02,3.22513e-02,-3.15129e-02,-4.89280e-03,1.61873e-02,0.00000e+00,0.00000e+00,0.00000e+00,0.00000e+00,0.00000e+00,0.00000e+00,0.00000e+00,0.00000e+00,-4.55404e-02,-4.43180e-02,-3.12871e-02,3.03267e-02,-4.11328e-02,-3.68803e-03,4.57180e-02,-4.34068e-02,0.00000e+00,0.00000e+00,0.00000e+00,0.00000e+00,0.00000e+00,0.00000e+00,0.00000e+00,0.00000e+00,-4.03512e-02,9.56871e-03,-2.59256e-02,3.65416e-02,4.86745e-02,4.97284e-02,4.71955e-02,-2.89591e-02,
0.00000e+00,0.00000e+00,0.00000e+00,0.00000e+00,0.00000e+00,0.00000e+00,0.00000e+00,0.00000e+00,8.90785e-03,-4.97453e-02,1.67243e-02,1.60239e-02,3.39309e-04,1.35901e-02,2.41171e-02,8.16973e-03,0.00000e+00,0.00000e+00,0.00000e+00,0.00000e+00,0.00000e+00,0.00000e+00,0.00000e+00,0.00000e+00,4.88355e-02,-9.46902e-03,4.62333e-03,-3.31529e-02,3.68286e-02,2.41533e-02,-4.33106e-02,-4.79415e-02,0.00000e+00,0.00000e+00,0.00000e+00,0.00000e+00,0.00000e+00,0.00000e+00,0.00000e+00,0.00000e+00,-2.99135e-02,-5.31339e-02,4.50176e-02,-5.05355e-02,-5.90063e-03,4.45914e-02,-2.02659e-02,3.65516e-02,0.00000e+00,0.00000e+00,0.00000e+00,0.00000e+00,0.00000e+00,0.00000e+00,0.00000e+00,0.00000e+00,-1.42085e-02,-8.30322e-03,-5.15391e-03,-1.10093e-03,3.24511e-02,5.44306e-03,-2.38806e-02,-2.96963e-02,0.00000e+00,0.00000e+00,0.00000e+00,0.00000e+00,0.00000e+00,0.00000e+00,0.00000e+00,0.00000e+00,1.24080e-02,-4.27493e-02,-1.94614e-02,-4.16206e-02,3.89533e-02,-6.51156e-03,-9.08917e-03,1.02800e-03,0.00000e+00,0.00000e+00,0.00000e+00,0.00000e+00,0.00000e+00,0.00000e+00,0.00000e+00,0.00000e+00,3.96229e-02,-3.12233e-02,-4.83781e-03,6.12305e-03,4.06576e-02,5.25727e-03,2.59250e-02,-2.29427e-03,0.00000e+00,0.00000e+00,0.00000e+00,0.00000e+00,0.00000e+00,0.00000e+00,0.00000e+00,0.00000e+00,-1.79717e-02,4.85268e-02,-3.56866e-02,-1.58279e-02,-1.24373e-02,1.84893e-02,-5.37040e-02,-2.56616e-02,0.00000e+00,0.00000e+00,0.00000e+00,0.00000e+00,0.00000e+00,0.00000e+00,0.00000e+00,0.00000e+00,-2.36427e-02,-5.09812e-02,1.32094e-02,-6.83225e-03,3.38909e-02,-2.55023e-02,-8.13482e-03,-3.65216e-02,
0.00000e+00,0.00000e+00,0.00000e+00,0.00000e+00,0.00000e+00,0.00000e+00,0.00000e+00,0.00000e+00,-2.77022e-02,-4.40716e-02,3.91743e-02,3.78573e-02,-4.86485e-02,-2.33446e-02,-1.53776e-02,-8.28258e-03,0.00000e+00,0.00000e+00,0.00000e+00,0.00000e+00,0.00000e+00,0.00000e+00,0.00000e+00,0.00000e+00,2.61335e-02,1.92381e-02,-5.72635e-02,1.62093e-03,2.90376e-02,-1.92327e-02,-2.35848e-02,-3.26910e-02,0.00000e+00,0.00000e+00,0.00000e+00,0.00000e+00,0.00000e+00,0.00000e+00,0.00000e+00,0.00000e+00,3.72674e-02,4.34613e-02,2.72063e-03,3.10359e-02,-3.33417e-02,-4.86890e-02,2.79965e-03,-5.79979e-02,0.00000e+00,0.00000e+00,0.00000e+00,0.00000e+00,0.00000e+00,0.00000e+00,0.00000e+00,0.00000e+00,-3.97516e-02,-2.87688e-02,3.10768e-02,1.20871e-02,-7.89551e-03,3.71561e-02,-4.74696e-02,-2.87800e-02,0.00000e+00,0.00000e+00,0.00000e+00,0.00000e+00,0.00000e+00,0.00000e+00,0.00000e+00,0.00000e+00,-5.79161e-02,1.80165e-02,2.68443e-02,-5.99480e-04,3.09624e-02,-4.34571e-03,4.18413e-02,6.83849e-03,0.00000e+00,0.00000e+00,0.00000e+00,0.00000e+00,0.00000e+00,0.00000e+00,0.00000e+00,0.00000e+00,-1.92758e-03,1.91977e-02,1.74056e-02,-1.79782e-02,-5.21754e-02,-3.47039e-02,-5.21443e-02,2.64727e-02,0.00000e+00,0.00000e+00,0.00000e+00,0.00000e+00,0.00000e+00,0.00000e+00,0.00000e+00,0.00000e+00,-2.87634e-02,3.96285e-02,1.50621e-02,-4.61512e-02,2.06437e-02,2.77311e-03,3.42275e-02,-3.07036e-02,0.00000e+00,0.00000e+00,0.00000e+00,0.00000e+00,0.00000e+00,0.00000e+00,0.00000e+00,0.00000e+00,-3.04826e-02,-9.72368e-03,-4.54882e-02,1.78930e-02,-5.35236e-02,4.18255e-02,-2.67064e-02,7.25086e-03,
0.00000e+00,0.00000e+00,0.00000e+00,0.00000e+00,0.00000e+00,0.00000e+00,0.00000e+00,0.00000e+00,-5.24988e-02,-4.46269e-02,3.65785e-03,-4.18456e-02,3.56707e-02,-1.13582e-02,-1.70576e-03,3.97929e-02,0.00000e+00,0.00000e+00,0.00000e+00,0.00000e+00,0.00000e+00,0.00000e+00,0.00000e+00,0.00000e+00,-4.49392e-02,3.00558e-02,-5.07074e-02,4.02166e-03,4.05506e-02,1.21932e-03,1.77530e-02,3.24638e-02,0.00000e+00,0.00000e+00,0.00000e+00,0.00000e+00,0.00000e+00,0.00000e+00,0.00000e+00,0.00000e+00,2.03889e-02,-1.08649e-02,-1.38194e-02,-5.74754e-03,4.73780e-02,-4.78258e-02,4.65736e-02,-2.16444e-02,0.00000e+00,0.00000e+00,0.00000e+00,0.00000e+00,0.00000e+00,0.00000e+00,0.00000e+00,0.00000e+00,-4.24350e-02,8.11169e-03,3.62922e-02,3.60938e-02,3.70431e-02,-2.71138e-02,1.53696e-02,-4.92228e-02,0.00000e+00,0.00000e+00,0.00000e+00,0.00000e+00,0.00000e+00,0.00000e+00,0.00000e+00,0.00000e+00,-1.15811e-02,-2.42581e-02,1.19143e-02,-4.97930e-02,9.31881e-03,-3.22378e-02,-2.41787e-02,-4.20528e-02,0.00000e+00,0.00000e+00,0.00000e+00,0.00000e+00,0.00000e+00,0.00000e+00,0.00000e+00,0.00000e+00,-5.17377e-02,4.33228e-02,-3.25404e-02,8.45810e-03,-1.78675e-03,3.97155e-02,8.63395e-03,3.33413e-02,0.00000e+00,0.00000e+00,0.00000e+00,0.00000e+00,0.00000e+00,0.00000e+00,0.00000e+00,0.00000e+00,-1.50528e-02,-2.00498e-02,4.88772e-02,-3.15232e-02,3.37661e-02,5.23251e-02,-3.54474e-02,2.59601e-02,0.00000e+00,0.00000e+00,0.00000e+00,0.00000e+00,0.00000e+00,0.00000e+00,0.00000e+00,0.00000e+00,3.21406e-02,-9.43688e-03,-1.44979e-02,-3.37532e-02,-3.43836e-02,-3.49059e-03,-2.93568e-02,2.58632e-03,
0.00000e+00,0.00000e+00,0.00000e+00,0.00000e+00,0.00000e+00,0.00000e+00,0.00000e+00,0.00000e+00,-4.42221e-02,-1.54586e-02,-2.45173e-02,3.70156e-02,-4.17619e-03,9.09362e-03,3.93036e-03,-3.69716e-02,0.00000e+00,0.00000e+00,0.00000e+00,0.00000e+00,0.00000e+00,0.00000e+00,0.00000e+00,0.00000e+00,3.69722e-02,-1.25840e-02,-3.57742e-02,-4.25013e-02,5.01469e-02,-5.30943e-02,4.22273e-02,-3.94510e-02,0.00000e+00,0.00000e+00,0.00000e+00,0.00000e+00,0.00000e+00,0.00000e+00,0.00000e+00,0.00000e+00,-4.13878e-02,-4.33914e-02,-2.04095e-02,-6.86742e-03,1.15261e-02,2.37546e-02,1.19834e-02,1.00984e-02,0.00000e+00,0.00000e+00,0.00000e+00,0.00000e+00,0.00000e+00,0.00000e+00,0.00000e+00,0.00000e+00,-1.07162e-02,2.96881e-02,1.00359e-02,-4.77986e-02,-3.90516e-02,-1.91789e-02,-4.39816e-02,1.80047e-03,0.00000e+00,0.00000e+00,0.00000e+00,0.00000e+00,0.00000e+00,0.00000e+00,0.00000e+00,0.00000e+00,-2.53815e-02,-2.38098e-02,-2.89296e-02,-2.52144e-02,-2.63571e-02,-8.91158e-03,-3.65207e-02,-3.46495e-02,0.00000e+00,0.00000e+00,0.00000e+00,0.00000e+00,0.00000e+00,0.00000e+00,0.00000e+00,0.00000e+00,3.88560e-02,-4.25262e-02,-5.11108e-02,1.95593e-02,-1.46933e-02,1.68500e-02,3.40203e-02,-4.34862e-02,0.00000e+00,0.00000e+00,0.00000e+00,0.00000e+00,0.00000e+00,0.00000e+00,0.00000e+00,0.00000e+00,2.43367e-02,-4.10600e-02,2.53215e-02,-4.67415e-02,4.08098e-02,-2.47477e-02,-5.09336e-02,-3.64356e-02,0.00000e+00,0.00000e+00,0.00000e+00,0.00000e+00,0.00000e+00,0.00000e+00,0.00000e+00,0.00000e+00,3.16181e-02,3.19754e-02,4.93119e-03,-3.13025e-02,-1.09504e-02,4.59812e-03,-2.24180e-03,-9.06302e-03,
